=== Run information ===

Scheme:       weka.classifiers.trees.J48 -C 0.25 -B -M 2
Relation:     fer2017-training-happy-weka.filters.unsupervised.instance.RemoveDuplicates-weka.filters.unsupervised.instance.RemovePercentage-P50.0-weka.filters.unsupervised.instance.RemovePercentage-P50.0
Instances:    6868
Attributes:   2305
              [list of attributes omitted]
Test mode:    10-fold cross-validation

=== Classifier model (full training set) ===

J48 pruned tree
------------------

Column1195 <= 0.0: NotHappy (38.0)
Column1195 > 0.0
|   Column706 <= 5.0: NotHappy (49.0/1.0)
|   Column706 > 5.0
|   |   Column1993 <= 76.0
|   |   |   Column1895 <= 202.0
|   |   |   |   Column1665 <= 54.0
|   |   |   |   |   Column1945 <= 16.0: NotHappy (23.0)
|   |   |   |   |   Column1945 > 16.0
|   |   |   |   |   |   Column889 <= 25.0
|   |   |   |   |   |   |   Column796 <= 98.0: Happy (9.0)
|   |   |   |   |   |   |   Column796 > 98.0: NotHappy (2.0)
|   |   |   |   |   |   Column889 > 25.0
|   |   |   |   |   |   |   Column249 <= 45.0
|   |   |   |   |   |   |   |   Column2217 <= 33.0: Happy (15.0/1.0)
|   |   |   |   |   |   |   |   Column2217 > 33.0
|   |   |   |   |   |   |   |   |   Column606 <= 140.0
|   |   |   |   |   |   |   |   |   |   Column1181 <= 43.0
|   |   |   |   |   |   |   |   |   |   |   Column1 <= 173.0: Happy (4.0)
|   |   |   |   |   |   |   |   |   |   |   Column1 > 173.0: NotHappy (2.0)
|   |   |   |   |   |   |   |   |   |   Column1181 > 43.0: NotHappy (16.0)
|   |   |   |   |   |   |   |   |   Column606 > 140.0: Happy (4.0)
|   |   |   |   |   |   |   Column249 > 45.0
|   |   |   |   |   |   |   |   Column1676 <= 43.0: NotHappy (53.0/1.0)
|   |   |   |   |   |   |   |   Column1676 > 43.0
|   |   |   |   |   |   |   |   |   Column993 <= 36.0: Happy (6.0)
|   |   |   |   |   |   |   |   |   Column993 > 36.0
|   |   |   |   |   |   |   |   |   |   Column1671 <= 20.0: Happy (4.0)
|   |   |   |   |   |   |   |   |   |   Column1671 > 20.0
|   |   |   |   |   |   |   |   |   |   |   Column1408 <= 119.0
|   |   |   |   |   |   |   |   |   |   |   |   Column212 <= 79.0: NotHappy (15.0)
|   |   |   |   |   |   |   |   |   |   |   |   Column212 > 79.0
|   |   |   |   |   |   |   |   |   |   |   |   |   Column1125 <= 83.0: Happy (10.0/1.0)
|   |   |   |   |   |   |   |   |   |   |   |   |   Column1125 > 83.0
|   |   |   |   |   |   |   |   |   |   |   |   |   |   Column652 <= 148.0
|   |   |   |   |   |   |   |   |   |   |   |   |   |   |   Column932 <= 49.0: Happy (2.0)
|   |   |   |   |   |   |   |   |   |   |   |   |   |   |   Column932 > 49.0: NotHappy (21.0/1.0)
|   |   |   |   |   |   |   |   |   |   |   |   |   |   Column652 > 148.0: Happy (4.0)
|   |   |   |   |   |   |   |   |   |   |   Column1408 > 119.0: NotHappy (23.0)
|   |   |   |   Column1665 > 54.0
|   |   |   |   |   Column2130 <= 175.0
|   |   |   |   |   |   Column1364 <= 53.0: NotHappy (90.0/1.0)
|   |   |   |   |   |   Column1364 > 53.0
|   |   |   |   |   |   |   Column26 <= 16.0
|   |   |   |   |   |   |   |   Column1616 <= 91.0: NotHappy (11.0)
|   |   |   |   |   |   |   |   Column1616 > 91.0
|   |   |   |   |   |   |   |   |   Column2185 <= 7.0: NotHappy (4.0)
|   |   |   |   |   |   |   |   |   Column2185 > 7.0: Happy (13.0/1.0)
|   |   |   |   |   |   |   Column26 > 16.0
|   |   |   |   |   |   |   |   Column779 <= 33.0: NotHappy (85.0)
|   |   |   |   |   |   |   |   Column779 > 33.0
|   |   |   |   |   |   |   |   |   Column1379 <= 58.0
|   |   |   |   |   |   |   |   |   |   Column1855 <= 62.0: NotHappy (9.0)
|   |   |   |   |   |   |   |   |   |   Column1855 > 62.0
|   |   |   |   |   |   |   |   |   |   |   Column1998 <= 118.0: Happy (12.0/1.0)
|   |   |   |   |   |   |   |   |   |   |   Column1998 > 118.0: NotHappy (4.0)
|   |   |   |   |   |   |   |   |   Column1379 > 58.0
|   |   |   |   |   |   |   |   |   |   Column2285 <= 189.0
|   |   |   |   |   |   |   |   |   |   |   Column1190 <= 207.0
|   |   |   |   |   |   |   |   |   |   |   |   Column371 <= 71.0
|   |   |   |   |   |   |   |   |   |   |   |   |   Column2194 <= 190.0: NotHappy (111.0)
|   |   |   |   |   |   |   |   |   |   |   |   |   Column2194 > 190.0
|   |   |   |   |   |   |   |   |   |   |   |   |   |   Column329 <= 61.0: NotHappy (4.0)
|   |   |   |   |   |   |   |   |   |   |   |   |   |   Column329 > 61.0: Happy (2.0)
|   |   |   |   |   |   |   |   |   |   |   |   Column371 > 71.0
|   |   |   |   |   |   |   |   |   |   |   |   |   Column1810 <= 48.0
|   |   |   |   |   |   |   |   |   |   |   |   |   |   Column1096 <= 140.0
|   |   |   |   |   |   |   |   |   |   |   |   |   |   |   Column1761 <= 84.0: NotHappy (23.0/1.0)
|   |   |   |   |   |   |   |   |   |   |   |   |   |   |   Column1761 > 84.0: Happy (2.0)
|   |   |   |   |   |   |   |   |   |   |   |   |   |   Column1096 > 140.0
|   |   |   |   |   |   |   |   |   |   |   |   |   |   |   Column1 <= 50.0: NotHappy (2.0)
|   |   |   |   |   |   |   |   |   |   |   |   |   |   |   Column1 > 50.0: Happy (12.0)
|   |   |   |   |   |   |   |   |   |   |   |   |   Column1810 > 48.0
|   |   |   |   |   |   |   |   |   |   |   |   |   |   Column1325 <= 195.0
|   |   |   |   |   |   |   |   |   |   |   |   |   |   |   Column935 <= 177.0
|   |   |   |   |   |   |   |   |   |   |   |   |   |   |   |   Column1861 <= 47.0
|   |   |   |   |   |   |   |   |   |   |   |   |   |   |   |   |   Column1909 <= 39.0
|   |   |   |   |   |   |   |   |   |   |   |   |   |   |   |   |   |   Column887 <= 62.0: Happy (4.0)
|   |   |   |   |   |   |   |   |   |   |   |   |   |   |   |   |   |   Column887 > 62.0: NotHappy (17.0)
|   |   |   |   |   |   |   |   |   |   |   |   |   |   |   |   |   Column1909 > 39.0: Happy (7.0)
|   |   |   |   |   |   |   |   |   |   |   |   |   |   |   |   Column1861 > 47.0
|   |   |   |   |   |   |   |   |   |   |   |   |   |   |   |   |   Column1761 <= 150.0
|   |   |   |   |   |   |   |   |   |   |   |   |   |   |   |   |   |   Column2170 <= 200.0
|   |   |   |   |   |   |   |   |   |   |   |   |   |   |   |   |   |   |   Column945 <= 23.0
|   |   |   |   |   |   |   |   |   |   |   |   |   |   |   |   |   |   |   |   Column501 <= 112.0: Happy (5.0)
|   |   |   |   |   |   |   |   |   |   |   |   |   |   |   |   |   |   |   |   Column501 > 112.0: NotHappy (9.0)
|   |   |   |   |   |   |   |   |   |   |   |   |   |   |   |   |   |   |   Column945 > 23.0
|   |   |   |   |   |   |   |   |   |   |   |   |   |   |   |   |   |   |   |   Column718 <= 105.0: NotHappy (145.0)
|   |   |   |   |   |   |   |   |   |   |   |   |   |   |   |   |   |   |   |   Column718 > 105.0
|   |   |   |   |   |   |   |   |   |   |   |   |   |   |   |   |   |   |   |   |   Column993 <= 124.0
|   |   |   |   |   |   |   |   |   |   |   |   |   |   |   |   |   |   |   |   |   |   Column700 <= 51.0: Happy (5.0/1.0)
|   |   |   |   |   |   |   |   |   |   |   |   |   |   |   |   |   |   |   |   |   |   Column700 > 51.0
|   |   |   |   |   |   |   |   |   |   |   |   |   |   |   |   |   |   |   |   |   |   |   Column1940 <= 94.0
|   |   |   |   |   |   |   |   |   |   |   |   |   |   |   |   |   |   |   |   |   |   |   |   Column329 <= 200.0: NotHappy (45.0)
|   |   |   |   |   |   |   |   |   |   |   |   |   |   |   |   |   |   |   |   |   |   |   |   Column329 > 200.0: Happy (3.0/1.0)
|   |   |   |   |   |   |   |   |   |   |   |   |   |   |   |   |   |   |   |   |   |   |   Column1940 > 94.0
|   |   |   |   |   |   |   |   |   |   |   |   |   |   |   |   |   |   |   |   |   |   |   |   Column1152 <= 154.0: Happy (6.0/1.0)
|   |   |   |   |   |   |   |   |   |   |   |   |   |   |   |   |   |   |   |   |   |   |   |   Column1152 > 154.0: NotHappy (4.0)
|   |   |   |   |   |   |   |   |   |   |   |   |   |   |   |   |   |   |   |   |   Column993 > 124.0: NotHappy (49.0)
|   |   |   |   |   |   |   |   |   |   |   |   |   |   |   |   |   |   Column2170 > 200.0
|   |   |   |   |   |   |   |   |   |   |   |   |   |   |   |   |   |   |   Column1752 <= 89.0: Happy (7.0/1.0)
|   |   |   |   |   |   |   |   |   |   |   |   |   |   |   |   |   |   |   Column1752 > 89.0: NotHappy (8.0)
|   |   |   |   |   |   |   |   |   |   |   |   |   |   |   |   |   Column1761 > 150.0
|   |   |   |   |   |   |   |   |   |   |   |   |   |   |   |   |   |   Column556 <= 75.0: Happy (5.0)
|   |   |   |   |   |   |   |   |   |   |   |   |   |   |   |   |   |   Column556 > 75.0
|   |   |   |   |   |   |   |   |   |   |   |   |   |   |   |   |   |   |   Column1624 <= 107.0: Happy (4.0)
|   |   |   |   |   |   |   |   |   |   |   |   |   |   |   |   |   |   |   Column1624 > 107.0
|   |   |   |   |   |   |   |   |   |   |   |   |   |   |   |   |   |   |   |   Column934 <= 156.0: NotHappy (30.0)
|   |   |   |   |   |   |   |   |   |   |   |   |   |   |   |   |   |   |   |   Column934 > 156.0
|   |   |   |   |   |   |   |   |   |   |   |   |   |   |   |   |   |   |   |   |   Column411 <= 188.0: NotHappy (2.0)
|   |   |   |   |   |   |   |   |   |   |   |   |   |   |   |   |   |   |   |   |   Column411 > 188.0: Happy (4.0)
|   |   |   |   |   |   |   |   |   |   |   |   |   |   |   Column935 > 177.0: NotHappy (73.0)
|   |   |   |   |   |   |   |   |   |   |   |   |   |   Column1325 > 195.0
|   |   |   |   |   |   |   |   |   |   |   |   |   |   |   Column1513 <= 122.0
|   |   |   |   |   |   |   |   |   |   |   |   |   |   |   |   Column1219 <= 155.0: NotHappy (4.0)
|   |   |   |   |   |   |   |   |   |   |   |   |   |   |   |   Column1219 > 155.0: Happy (11.0)
|   |   |   |   |   |   |   |   |   |   |   |   |   |   |   Column1513 > 122.0: NotHappy (12.0)
|   |   |   |   |   |   |   |   |   |   |   Column1190 > 207.0: NotHappy (65.0)
|   |   |   |   |   |   |   |   |   |   Column2285 > 189.0
|   |   |   |   |   |   |   |   |   |   |   Column2137 <= 154.0
|   |   |   |   |   |   |   |   |   |   |   |   Column1842 <= 50.0: Happy (2.0)
|   |   |   |   |   |   |   |   |   |   |   |   Column1842 > 50.0: NotHappy (15.0)
|   |   |   |   |   |   |   |   |   |   |   Column2137 > 154.0: Happy (8.0)
|   |   |   |   |   Column2130 > 175.0: NotHappy (91.0)
|   |   |   Column1895 > 202.0
|   |   |   |   Column704 <= 196.0
|   |   |   |   |   Column1905 <= 134.0
|   |   |   |   |   |   Column1848 <= 211.0: Happy (10.0/1.0)
|   |   |   |   |   |   Column1848 > 211.0: NotHappy (5.0)
|   |   |   |   |   Column1905 > 134.0: NotHappy (13.0)
|   |   |   |   Column704 > 196.0: Happy (6.0)
|   |   Column1993 > 76.0
|   |   |   Column1320 <= 36.0: NotHappy (37.0)
|   |   |   Column1320 > 36.0
|   |   |   |   Column1645 <= 209.0
|   |   |   |   |   Column1742 <= 4.0: NotHappy (29.0)
|   |   |   |   |   Column1742 > 4.0
|   |   |   |   |   |   Column1752 <= 231.0
|   |   |   |   |   |   |   Column1703 <= 235.0
|   |   |   |   |   |   |   |   Column1218 <= 34.0: NotHappy (35.0/1.0)
|   |   |   |   |   |   |   |   Column1218 > 34.0
|   |   |   |   |   |   |   |   |   Column1801 <= 223.0
|   |   |   |   |   |   |   |   |   |   Column1666 <= 118.0
|   |   |   |   |   |   |   |   |   |   |   Column2236 <= 113.0
|   |   |   |   |   |   |   |   |   |   |   |   Column60 <= 10.0: NotHappy (25.0)
|   |   |   |   |   |   |   |   |   |   |   |   Column60 > 10.0
|   |   |   |   |   |   |   |   |   |   |   |   |   Column1945 <= 68.0
|   |   |   |   |   |   |   |   |   |   |   |   |   |   Column2148 <= 140.0
|   |   |   |   |   |   |   |   |   |   |   |   |   |   |   Column2041 <= 73.0
|   |   |   |   |   |   |   |   |   |   |   |   |   |   |   |   Column2281 <= 93.0: NotHappy (7.0)
|   |   |   |   |   |   |   |   |   |   |   |   |   |   |   |   Column2281 > 93.0: Happy (2.0)
|   |   |   |   |   |   |   |   |   |   |   |   |   |   |   Column2041 > 73.0: NotHappy (60.0)
|   |   |   |   |   |   |   |   |   |   |   |   |   |   Column2148 > 140.0: Happy (5.0/1.0)
|   |   |   |   |   |   |   |   |   |   |   |   |   Column1945 > 68.0
|   |   |   |   |   |   |   |   |   |   |   |   |   |   Column1572 <= 155.0
|   |   |   |   |   |   |   |   |   |   |   |   |   |   |   Column1855 <= 138.0
|   |   |   |   |   |   |   |   |   |   |   |   |   |   |   |   Column1406 <= 202.0
|   |   |   |   |   |   |   |   |   |   |   |   |   |   |   |   |   Column1848 <= 171.0
|   |   |   |   |   |   |   |   |   |   |   |   |   |   |   |   |   |   Column1503 <= 80.0
|   |   |   |   |   |   |   |   |   |   |   |   |   |   |   |   |   |   |   Column1939 <= 76.0
|   |   |   |   |   |   |   |   |   |   |   |   |   |   |   |   |   |   |   |   Column790 <= 49.0
|   |   |   |   |   |   |   |   |   |   |   |   |   |   |   |   |   |   |   |   |   Column506 <= 114.0: Happy (5.0)
|   |   |   |   |   |   |   |   |   |   |   |   |   |   |   |   |   |   |   |   |   Column506 > 114.0: NotHappy (3.0)
|   |   |   |   |   |   |   |   |   |   |   |   |   |   |   |   |   |   |   |   Column790 > 49.0: NotHappy (30.0/1.0)
|   |   |   |   |   |   |   |   |   |   |   |   |   |   |   |   |   |   |   Column1939 > 76.0
|   |   |   |   |   |   |   |   |   |   |   |   |   |   |   |   |   |   |   |   Column390 <= 186.0
|   |   |   |   |   |   |   |   |   |   |   |   |   |   |   |   |   |   |   |   |   Column538 <= 35.0: NotHappy (6.0)
|   |   |   |   |   |   |   |   |   |   |   |   |   |   |   |   |   |   |   |   |   Column538 > 35.0
|   |   |   |   |   |   |   |   |   |   |   |   |   |   |   |   |   |   |   |   |   |   Column1449 <= 52.0: NotHappy (6.0/1.0)
|   |   |   |   |   |   |   |   |   |   |   |   |   |   |   |   |   |   |   |   |   |   Column1449 > 52.0
|   |   |   |   |   |   |   |   |   |   |   |   |   |   |   |   |   |   |   |   |   |   |   Column2142 <= 124.0: Happy (42.0/1.0)
|   |   |   |   |   |   |   |   |   |   |   |   |   |   |   |   |   |   |   |   |   |   |   Column2142 > 124.0: NotHappy (4.0/1.0)
|   |   |   |   |   |   |   |   |   |   |   |   |   |   |   |   |   |   |   |   Column390 > 186.0: NotHappy (7.0)
|   |   |   |   |   |   |   |   |   |   |   |   |   |   |   |   |   |   Column1503 > 80.0
|   |   |   |   |   |   |   |   |   |   |   |   |   |   |   |   |   |   |   Column2188 <= 31.0
|   |   |   |   |   |   |   |   |   |   |   |   |   |   |   |   |   |   |   |   Column1027 <= 169.0
|   |   |   |   |   |   |   |   |   |   |   |   |   |   |   |   |   |   |   |   |   Column1469 <= 56.0: NotHappy (4.0)
|   |   |   |   |   |   |   |   |   |   |   |   |   |   |   |   |   |   |   |   |   Column1469 > 56.0
|   |   |   |   |   |   |   |   |   |   |   |   |   |   |   |   |   |   |   |   |   |   Column900 <= 40.0: NotHappy (4.0/1.0)
|   |   |   |   |   |   |   |   |   |   |   |   |   |   |   |   |   |   |   |   |   |   Column900 > 40.0: Happy (17.0)
|   |   |   |   |   |   |   |   |   |   |   |   |   |   |   |   |   |   |   |   Column1027 > 169.0: NotHappy (7.0)
|   |   |   |   |   |   |   |   |   |   |   |   |   |   |   |   |   |   |   Column2188 > 31.0
|   |   |   |   |   |   |   |   |   |   |   |   |   |   |   |   |   |   |   |   Column1332 <= 60.0: NotHappy (27.0)
|   |   |   |   |   |   |   |   |   |   |   |   |   |   |   |   |   |   |   |   Column1332 > 60.0
|   |   |   |   |   |   |   |   |   |   |   |   |   |   |   |   |   |   |   |   |   Column879 <= 39.0: NotHappy (41.0/1.0)
|   |   |   |   |   |   |   |   |   |   |   |   |   |   |   |   |   |   |   |   |   Column879 > 39.0
|   |   |   |   |   |   |   |   |   |   |   |   |   |   |   |   |   |   |   |   |   |   Column649 <= 88.0
|   |   |   |   |   |   |   |   |   |   |   |   |   |   |   |   |   |   |   |   |   |   |   Column1000 <= 22.0: Happy (4.0/1.0)
|   |   |   |   |   |   |   |   |   |   |   |   |   |   |   |   |   |   |   |   |   |   |   Column1000 > 22.0: NotHappy (50.0/1.0)
|   |   |   |   |   |   |   |   |   |   |   |   |   |   |   |   |   |   |   |   |   |   Column649 > 88.0
|   |   |   |   |   |   |   |   |   |   |   |   |   |   |   |   |   |   |   |   |   |   |   Column1425 <= 93.0
|   |   |   |   |   |   |   |   |   |   |   |   |   |   |   |   |   |   |   |   |   |   |   |   Column1714 <= 43.0: NotHappy (8.0)
|   |   |   |   |   |   |   |   |   |   |   |   |   |   |   |   |   |   |   |   |   |   |   |   Column1714 > 43.0
|   |   |   |   |   |   |   |   |   |   |   |   |   |   |   |   |   |   |   |   |   |   |   |   |   Column1644 <= 54.0: NotHappy (6.0)
|   |   |   |   |   |   |   |   |   |   |   |   |   |   |   |   |   |   |   |   |   |   |   |   |   Column1644 > 54.0
|   |   |   |   |   |   |   |   |   |   |   |   |   |   |   |   |   |   |   |   |   |   |   |   |   |   Column1500 <= 187.0
|   |   |   |   |   |   |   |   |   |   |   |   |   |   |   |   |   |   |   |   |   |   |   |   |   |   |   Column1074 <= 101.0: Happy (16.0)
|   |   |   |   |   |   |   |   |   |   |   |   |   |   |   |   |   |   |   |   |   |   |   |   |   |   |   Column1074 > 101.0
|   |   |   |   |   |   |   |   |   |   |   |   |   |   |   |   |   |   |   |   |   |   |   |   |   |   |   |   Column1314 <= 111.0: NotHappy (6.0)
|   |   |   |   |   |   |   |   |   |   |   |   |   |   |   |   |   |   |   |   |   |   |   |   |   |   |   |   Column1314 > 111.0
|   |   |   |   |   |   |   |   |   |   |   |   |   |   |   |   |   |   |   |   |   |   |   |   |   |   |   |   |   Column1441 <= 39.0: NotHappy (5.0)
|   |   |   |   |   |   |   |   |   |   |   |   |   |   |   |   |   |   |   |   |   |   |   |   |   |   |   |   |   Column1441 > 39.0
|   |   |   |   |   |   |   |   |   |   |   |   |   |   |   |   |   |   |   |   |   |   |   |   |   |   |   |   |   |   Column1370 <= 98.0: NotHappy (3.0/1.0)
|   |   |   |   |   |   |   |   |   |   |   |   |   |   |   |   |   |   |   |   |   |   |   |   |   |   |   |   |   |   Column1370 > 98.0: Happy (19.0)
|   |   |   |   |   |   |   |   |   |   |   |   |   |   |   |   |   |   |   |   |   |   |   |   |   |   Column1500 > 187.0: NotHappy (4.0)
|   |   |   |   |   |   |   |   |   |   |   |   |   |   |   |   |   |   |   |   |   |   |   Column1425 > 93.0
|   |   |   |   |   |   |   |   |   |   |   |   |   |   |   |   |   |   |   |   |   |   |   |   Column1897 <= 162.0
|   |   |   |   |   |   |   |   |   |   |   |   |   |   |   |   |   |   |   |   |   |   |   |   |   Column1745 <= 58.0
|   |   |   |   |   |   |   |   |   |   |   |   |   |   |   |   |   |   |   |   |   |   |   |   |   |   Column510 <= 125.0: NotHappy (5.0/1.0)
|   |   |   |   |   |   |   |   |   |   |   |   |   |   |   |   |   |   |   |   |   |   |   |   |   |   Column510 > 125.0: Happy (7.0)
|   |   |   |   |   |   |   |   |   |   |   |   |   |   |   |   |   |   |   |   |   |   |   |   |   Column1745 > 58.0
|   |   |   |   |   |   |   |   |   |   |   |   |   |   |   |   |   |   |   |   |   |   |   |   |   |   Column1186 <= 161.0
|   |   |   |   |   |   |   |   |   |   |   |   |   |   |   |   |   |   |   |   |   |   |   |   |   |   |   Column1334 <= 156.0
|   |   |   |   |   |   |   |   |   |   |   |   |   |   |   |   |   |   |   |   |   |   |   |   |   |   |   |   Column1847 <= 68.0: NotHappy (32.0)
|   |   |   |   |   |   |   |   |   |   |   |   |   |   |   |   |   |   |   |   |   |   |   |   |   |   |   |   Column1847 > 68.0
|   |   |   |   |   |   |   |   |   |   |   |   |   |   |   |   |   |   |   |   |   |   |   |   |   |   |   |   |   Column189 <= 33.0: NotHappy (26.0)
|   |   |   |   |   |   |   |   |   |   |   |   |   |   |   |   |   |   |   |   |   |   |   |   |   |   |   |   |   Column189 > 33.0
|   |   |   |   |   |   |   |   |   |   |   |   |   |   |   |   |   |   |   |   |   |   |   |   |   |   |   |   |   |   Column1689 <= 55.0: Happy (5.0)
|   |   |   |   |   |   |   |   |   |   |   |   |   |   |   |   |   |   |   |   |   |   |   |   |   |   |   |   |   |   Column1689 > 55.0
|   |   |   |   |   |   |   |   |   |   |   |   |   |   |   |   |   |   |   |   |   |   |   |   |   |   |   |   |   |   |   Column1172 <= 110.0: NotHappy (24.0)
|   |   |   |   |   |   |   |   |   |   |   |   |   |   |   |   |   |   |   |   |   |   |   |   |   |   |   |   |   |   |   Column1172 > 110.0
|   |   |   |   |   |   |   |   |   |   |   |   |   |   |   |   |   |   |   |   |   |   |   |   |   |   |   |   |   |   |   |   Column1266 <= 112.0: Happy (9.0/1.0)
|   |   |   |   |   |   |   |   |   |   |   |   |   |   |   |   |   |   |   |   |   |   |   |   |   |   |   |   |   |   |   |   Column1266 > 112.0
|   |   |   |   |   |   |   |   |   |   |   |   |   |   |   |   |   |   |   |   |   |   |   |   |   |   |   |   |   |   |   |   |   Column1476 <= 73.0: Happy (3.0)
|   |   |   |   |   |   |   |   |   |   |   |   |   |   |   |   |   |   |   |   |   |   |   |   |   |   |   |   |   |   |   |   |   Column1476 > 73.0
|   |   |   |   |   |   |   |   |   |   |   |   |   |   |   |   |   |   |   |   |   |   |   |   |   |   |   |   |   |   |   |   |   |   Column1552 <= 81.0: Happy (3.0)
|   |   |   |   |   |   |   |   |   |   |   |   |   |   |   |   |   |   |   |   |   |   |   |   |   |   |   |   |   |   |   |   |   |   Column1552 > 81.0
|   |   |   |   |   |   |   |   |   |   |   |   |   |   |   |   |   |   |   |   |   |   |   |   |   |   |   |   |   |   |   |   |   |   |   Column1188 <= 148.0
|   |   |   |   |   |   |   |   |   |   |   |   |   |   |   |   |   |   |   |   |   |   |   |   |   |   |   |   |   |   |   |   |   |   |   |   Column1760 <= 120.0: NotHappy (41.0/1.0)
|   |   |   |   |   |   |   |   |   |   |   |   |   |   |   |   |   |   |   |   |   |   |   |   |   |   |   |   |   |   |   |   |   |   |   |   Column1760 > 120.0: Happy (3.0/1.0)
|   |   |   |   |   |   |   |   |   |   |   |   |   |   |   |   |   |   |   |   |   |   |   |   |   |   |   |   |   |   |   |   |   |   |   Column1188 > 148.0: Happy (4.0/1.0)
|   |   |   |   |   |   |   |   |   |   |   |   |   |   |   |   |   |   |   |   |   |   |   |   |   |   |   Column1334 > 156.0
|   |   |   |   |   |   |   |   |   |   |   |   |   |   |   |   |   |   |   |   |   |   |   |   |   |   |   |   Column1475 <= 141.0: Happy (10.0)
|   |   |   |   |   |   |   |   |   |   |   |   |   |   |   |   |   |   |   |   |   |   |   |   |   |   |   |   Column1475 > 141.0: NotHappy (6.0)
|   |   |   |   |   |   |   |   |   |   |   |   |   |   |   |   |   |   |   |   |   |   |   |   |   |   Column1186 > 161.0: NotHappy (31.0)
|   |   |   |   |   |   |   |   |   |   |   |   |   |   |   |   |   |   |   |   |   |   |   |   Column1897 > 162.0
|   |   |   |   |   |   |   |   |   |   |   |   |   |   |   |   |   |   |   |   |   |   |   |   |   Column51 <= 95.0: Happy (9.0)
|   |   |   |   |   |   |   |   |   |   |   |   |   |   |   |   |   |   |   |   |   |   |   |   |   Column51 > 95.0
|   |   |   |   |   |   |   |   |   |   |   |   |   |   |   |   |   |   |   |   |   |   |   |   |   |   Column97 <= 237.0: NotHappy (6.0)
|   |   |   |   |   |   |   |   |   |   |   |   |   |   |   |   |   |   |   |   |   |   |   |   |   |   Column97 > 237.0: Happy (2.0)
|   |   |   |   |   |   |   |   |   |   |   |   |   |   |   |   |   Column1848 > 171.0
|   |   |   |   |   |   |   |   |   |   |   |   |   |   |   |   |   |   Column1035 <= 113.0: NotHappy (6.0)
|   |   |   |   |   |   |   |   |   |   |   |   |   |   |   |   |   |   Column1035 > 113.0
|   |   |   |   |   |   |   |   |   |   |   |   |   |   |   |   |   |   |   Column1469 <= 143.0: Happy (22.0)
|   |   |   |   |   |   |   |   |   |   |   |   |   |   |   |   |   |   |   Column1469 > 143.0
|   |   |   |   |   |   |   |   |   |   |   |   |   |   |   |   |   |   |   |   Column457 <= 173.0: NotHappy (8.0)
|   |   |   |   |   |   |   |   |   |   |   |   |   |   |   |   |   |   |   |   Column457 > 173.0: Happy (3.0)
|   |   |   |   |   |   |   |   |   |   |   |   |   |   |   |   Column1406 > 202.0: NotHappy (29.0/1.0)
|   |   |   |   |   |   |   |   |   |   |   |   |   |   |   Column1855 > 138.0
|   |   |   |   |   |   |   |   |   |   |   |   |   |   |   |   Column1646 <= 104.0: Happy (19.0)
|   |   |   |   |   |   |   |   |   |   |   |   |   |   |   |   Column1646 > 104.0
|   |   |   |   |   |   |   |   |   |   |   |   |   |   |   |   |   Column719 <= 38.0: Happy (8.0)
|   |   |   |   |   |   |   |   |   |   |   |   |   |   |   |   |   Column719 > 38.0
|   |   |   |   |   |   |   |   |   |   |   |   |   |   |   |   |   |   Column875 <= 205.0
|   |   |   |   |   |   |   |   |   |   |   |   |   |   |   |   |   |   |   Column2278 <= 94.0: NotHappy (18.0)
|   |   |   |   |   |   |   |   |   |   |   |   |   |   |   |   |   |   |   Column2278 > 94.0
|   |   |   |   |   |   |   |   |   |   |   |   |   |   |   |   |   |   |   |   Column776 <= 140.0: Happy (5.0)
|   |   |   |   |   |   |   |   |   |   |   |   |   |   |   |   |   |   |   |   Column776 > 140.0: NotHappy (5.0)
|   |   |   |   |   |   |   |   |   |   |   |   |   |   |   |   |   |   Column875 > 205.0: Happy (5.0)
|   |   |   |   |   |   |   |   |   |   |   |   |   |   Column1572 > 155.0: NotHappy (28.0/1.0)
|   |   |   |   |   |   |   |   |   |   |   Column2236 > 113.0
|   |   |   |   |   |   |   |   |   |   |   |   Column1333 <= 118.0
|   |   |   |   |   |   |   |   |   |   |   |   |   Column1880 <= 18.0
|   |   |   |   |   |   |   |   |   |   |   |   |   |   Column1331 <= 67.0: NotHappy (2.0)
|   |   |   |   |   |   |   |   |   |   |   |   |   |   Column1331 > 67.0: Happy (10.0)
|   |   |   |   |   |   |   |   |   |   |   |   |   Column1880 > 18.0
|   |   |   |   |   |   |   |   |   |   |   |   |   |   Column1958 <= 166.0
|   |   |   |   |   |   |   |   |   |   |   |   |   |   |   Column2218 <= 231.0
|   |   |   |   |   |   |   |   |   |   |   |   |   |   |   |   Column1862 <= 108.0
|   |   |   |   |   |   |   |   |   |   |   |   |   |   |   |   |   Column942 <= 26.0: Happy (5.0/1.0)
|   |   |   |   |   |   |   |   |   |   |   |   |   |   |   |   |   Column942 > 26.0
|   |   |   |   |   |   |   |   |   |   |   |   |   |   |   |   |   |   Column1754 <= 100.0: NotHappy (34.0)
|   |   |   |   |   |   |   |   |   |   |   |   |   |   |   |   |   |   Column1754 > 100.0
|   |   |   |   |   |   |   |   |   |   |   |   |   |   |   |   |   |   |   Column857 <= 164.0
|   |   |   |   |   |   |   |   |   |   |   |   |   |   |   |   |   |   |   |   Column1786 <= 29.0: Happy (3.0)
|   |   |   |   |   |   |   |   |   |   |   |   |   |   |   |   |   |   |   |   Column1786 > 29.0
|   |   |   |   |   |   |   |   |   |   |   |   |   |   |   |   |   |   |   |   |   Column444 <= 204.0
|   |   |   |   |   |   |   |   |   |   |   |   |   |   |   |   |   |   |   |   |   |   Column1331 <= 160.0: NotHappy (40.0)
|   |   |   |   |   |   |   |   |   |   |   |   |   |   |   |   |   |   |   |   |   |   Column1331 > 160.0
|   |   |   |   |   |   |   |   |   |   |   |   |   |   |   |   |   |   |   |   |   |   |   Column7 <= 42.0: Happy (2.0)
|   |   |   |   |   |   |   |   |   |   |   |   |   |   |   |   |   |   |   |   |   |   |   Column7 > 42.0: NotHappy (2.0)
|   |   |   |   |   |   |   |   |   |   |   |   |   |   |   |   |   |   |   |   |   Column444 > 204.0
|   |   |   |   |   |   |   |   |   |   |   |   |   |   |   |   |   |   |   |   |   |   Column182 <= 82.0: Happy (4.0)
|   |   |   |   |   |   |   |   |   |   |   |   |   |   |   |   |   |   |   |   |   |   Column182 > 82.0: NotHappy (2.0)
|   |   |   |   |   |   |   |   |   |   |   |   |   |   |   |   |   |   |   Column857 > 164.0: Happy (3.0)
|   |   |   |   |   |   |   |   |   |   |   |   |   |   |   |   Column1862 > 108.0
|   |   |   |   |   |   |   |   |   |   |   |   |   |   |   |   |   Column736 <= 54.0: Happy (9.0)
|   |   |   |   |   |   |   |   |   |   |   |   |   |   |   |   |   Column736 > 54.0
|   |   |   |   |   |   |   |   |   |   |   |   |   |   |   |   |   |   Column1469 <= 97.0: NotHappy (11.0)
|   |   |   |   |   |   |   |   |   |   |   |   |   |   |   |   |   |   Column1469 > 97.0
|   |   |   |   |   |   |   |   |   |   |   |   |   |   |   |   |   |   |   Column49 <= 132.0
|   |   |   |   |   |   |   |   |   |   |   |   |   |   |   |   |   |   |   |   Column1564 <= 41.0: NotHappy (3.0)
|   |   |   |   |   |   |   |   |   |   |   |   |   |   |   |   |   |   |   |   Column1564 > 41.0: Happy (11.0)
|   |   |   |   |   |   |   |   |   |   |   |   |   |   |   |   |   |   |   Column49 > 132.0: NotHappy (6.0)
|   |   |   |   |   |   |   |   |   |   |   |   |   |   |   Column2218 > 231.0: Happy (8.0/1.0)
|   |   |   |   |   |   |   |   |   |   |   |   |   |   Column1958 > 166.0: NotHappy (27.0)
|   |   |   |   |   |   |   |   |   |   |   |   Column1333 > 118.0
|   |   |   |   |   |   |   |   |   |   |   |   |   Column1056 <= 230.0
|   |   |   |   |   |   |   |   |   |   |   |   |   |   Column2043 <= 83.0
|   |   |   |   |   |   |   |   |   |   |   |   |   |   |   Column1991 <= 91.0: Happy (5.0)
|   |   |   |   |   |   |   |   |   |   |   |   |   |   |   Column1991 > 91.0
|   |   |   |   |   |   |   |   |   |   |   |   |   |   |   |   Column740 <= 75.0: Happy (2.0)
|   |   |   |   |   |   |   |   |   |   |   |   |   |   |   |   Column740 > 75.0: NotHappy (21.0)
|   |   |   |   |   |   |   |   |   |   |   |   |   |   Column2043 > 83.0
|   |   |   |   |   |   |   |   |   |   |   |   |   |   |   Column881 <= 168.0
|   |   |   |   |   |   |   |   |   |   |   |   |   |   |   |   Column1374 <= 194.0
|   |   |   |   |   |   |   |   |   |   |   |   |   |   |   |   |   Column879 <= 22.0: Happy (22.0)
|   |   |   |   |   |   |   |   |   |   |   |   |   |   |   |   |   Column879 > 22.0
|   |   |   |   |   |   |   |   |   |   |   |   |   |   |   |   |   |   Column2136 <= 80.0
|   |   |   |   |   |   |   |   |   |   |   |   |   |   |   |   |   |   |   Column1713 <= 58.0: Happy (3.0)
|   |   |   |   |   |   |   |   |   |   |   |   |   |   |   |   |   |   |   Column1713 > 58.0: NotHappy (14.0/1.0)
|   |   |   |   |   |   |   |   |   |   |   |   |   |   |   |   |   |   Column2136 > 80.0
|   |   |   |   |   |   |   |   |   |   |   |   |   |   |   |   |   |   |   Column505 <= 208.0
|   |   |   |   |   |   |   |   |   |   |   |   |   |   |   |   |   |   |   |   Column1449 <= 49.0: Happy (18.0)
|   |   |   |   |   |   |   |   |   |   |   |   |   |   |   |   |   |   |   |   Column1449 > 49.0
|   |   |   |   |   |   |   |   |   |   |   |   |   |   |   |   |   |   |   |   |   Column740 <= 55.0
|   |   |   |   |   |   |   |   |   |   |   |   |   |   |   |   |   |   |   |   |   |   Column134 <= 65.0: Happy (3.0)
|   |   |   |   |   |   |   |   |   |   |   |   |   |   |   |   |   |   |   |   |   |   Column134 > 65.0: NotHappy (13.0)
|   |   |   |   |   |   |   |   |   |   |   |   |   |   |   |   |   |   |   |   |   Column740 > 55.0
|   |   |   |   |   |   |   |   |   |   |   |   |   |   |   |   |   |   |   |   |   |   Column1668 <= 147.0
|   |   |   |   |   |   |   |   |   |   |   |   |   |   |   |   |   |   |   |   |   |   |   Column759 <= 46.0
|   |   |   |   |   |   |   |   |   |   |   |   |   |   |   |   |   |   |   |   |   |   |   |   Column710 <= 48.0: Happy (5.0/1.0)
|   |   |   |   |   |   |   |   |   |   |   |   |   |   |   |   |   |   |   |   |   |   |   |   Column710 > 48.0: NotHappy (9.0)
|   |   |   |   |   |   |   |   |   |   |   |   |   |   |   |   |   |   |   |   |   |   |   Column759 > 46.0
|   |   |   |   |   |   |   |   |   |   |   |   |   |   |   |   |   |   |   |   |   |   |   |   Column2095 <= 115.0
|   |   |   |   |   |   |   |   |   |   |   |   |   |   |   |   |   |   |   |   |   |   |   |   |   Column1671 <= 90.0: Happy (14.0)
|   |   |   |   |   |   |   |   |   |   |   |   |   |   |   |   |   |   |   |   |   |   |   |   |   Column1671 > 90.0
|   |   |   |   |   |   |   |   |   |   |   |   |   |   |   |   |   |   |   |   |   |   |   |   |   |   Column2085 <= 92.0: Happy (5.0)
|   |   |   |   |   |   |   |   |   |   |   |   |   |   |   |   |   |   |   |   |   |   |   |   |   |   Column2085 > 92.0
|   |   |   |   |   |   |   |   |   |   |   |   |   |   |   |   |   |   |   |   |   |   |   |   |   |   |   Column209 <= 71.0: Happy (4.0)
|   |   |   |   |   |   |   |   |   |   |   |   |   |   |   |   |   |   |   |   |   |   |   |   |   |   |   Column209 > 71.0
|   |   |   |   |   |   |   |   |   |   |   |   |   |   |   |   |   |   |   |   |   |   |   |   |   |   |   |   Column1452 <= 104.0: Happy (3.0)
|   |   |   |   |   |   |   |   |   |   |   |   |   |   |   |   |   |   |   |   |   |   |   |   |   |   |   |   Column1452 > 104.0: NotHappy (23.0)
|   |   |   |   |   |   |   |   |   |   |   |   |   |   |   |   |   |   |   |   |   |   |   |   Column2095 > 115.0
|   |   |   |   |   |   |   |   |   |   |   |   |   |   |   |   |   |   |   |   |   |   |   |   |   Column2210 <= 56.0: Happy (54.0)
|   |   |   |   |   |   |   |   |   |   |   |   |   |   |   |   |   |   |   |   |   |   |   |   |   Column2210 > 56.0
|   |   |   |   |   |   |   |   |   |   |   |   |   |   |   |   |   |   |   |   |   |   |   |   |   |   Column1974 <= 28.0
|   |   |   |   |   |   |   |   |   |   |   |   |   |   |   |   |   |   |   |   |   |   |   |   |   |   |   Column1991 <= 157.0: NotHappy (9.0)
|   |   |   |   |   |   |   |   |   |   |   |   |   |   |   |   |   |   |   |   |   |   |   |   |   |   |   Column1991 > 157.0: Happy (2.0)
|   |   |   |   |   |   |   |   |   |   |   |   |   |   |   |   |   |   |   |   |   |   |   |   |   |   Column1974 > 28.0
|   |   |   |   |   |   |   |   |   |   |   |   |   |   |   |   |   |   |   |   |   |   |   |   |   |   |   Column1032 <= 111.0: NotHappy (6.0/1.0)
|   |   |   |   |   |   |   |   |   |   |   |   |   |   |   |   |   |   |   |   |   |   |   |   |   |   |   Column1032 > 111.0
|   |   |   |   |   |   |   |   |   |   |   |   |   |   |   |   |   |   |   |   |   |   |   |   |   |   |   |   Column519 <= 194.0
|   |   |   |   |   |   |   |   |   |   |   |   |   |   |   |   |   |   |   |   |   |   |   |   |   |   |   |   |   Column1690 <= 185.0
|   |   |   |   |   |   |   |   |   |   |   |   |   |   |   |   |   |   |   |   |   |   |   |   |   |   |   |   |   |   Column1699 <= 125.0: Happy (65.0)
|   |   |   |   |   |   |   |   |   |   |   |   |   |   |   |   |   |   |   |   |   |   |   |   |   |   |   |   |   |   Column1699 > 125.0
|   |   |   |   |   |   |   |   |   |   |   |   |   |   |   |   |   |   |   |   |   |   |   |   |   |   |   |   |   |   |   Column1022 <= 127.0: NotHappy (6.0/1.0)
|   |   |   |   |   |   |   |   |   |   |   |   |   |   |   |   |   |   |   |   |   |   |   |   |   |   |   |   |   |   |   Column1022 > 127.0: Happy (17.0)
|   |   |   |   |   |   |   |   |   |   |   |   |   |   |   |   |   |   |   |   |   |   |   |   |   |   |   |   |   Column1690 > 185.0
|   |   |   |   |   |   |   |   |   |   |   |   |   |   |   |   |   |   |   |   |   |   |   |   |   |   |   |   |   |   Column253 <= 133.0: Happy (2.0)
|   |   |   |   |   |   |   |   |   |   |   |   |   |   |   |   |   |   |   |   |   |   |   |   |   |   |   |   |   |   Column253 > 133.0: NotHappy (4.0)
|   |   |   |   |   |   |   |   |   |   |   |   |   |   |   |   |   |   |   |   |   |   |   |   |   |   |   |   Column519 > 194.0
|   |   |   |   |   |   |   |   |   |   |   |   |   |   |   |   |   |   |   |   |   |   |   |   |   |   |   |   |   Column401 <= 168.0: NotHappy (5.0)
|   |   |   |   |   |   |   |   |   |   |   |   |   |   |   |   |   |   |   |   |   |   |   |   |   |   |   |   |   Column401 > 168.0: Happy (2.0)
|   |   |   |   |   |   |   |   |   |   |   |   |   |   |   |   |   |   |   |   |   |   Column1668 > 147.0
|   |   |   |   |   |   |   |   |   |   |   |   |   |   |   |   |   |   |   |   |   |   |   Column1763 <= 162.0
|   |   |   |   |   |   |   |   |   |   |   |   |   |   |   |   |   |   |   |   |   |   |   |   Column919 <= 63.0: Happy (3.0)
|   |   |   |   |   |   |   |   |   |   |   |   |   |   |   |   |   |   |   |   |   |   |   |   Column919 > 63.0: NotHappy (19.0/1.0)
|   |   |   |   |   |   |   |   |   |   |   |   |   |   |   |   |   |   |   |   |   |   |   Column1763 > 162.0: Happy (9.0/1.0)
|   |   |   |   |   |   |   |   |   |   |   |   |   |   |   |   |   |   |   Column505 > 208.0: Happy (22.0)
|   |   |   |   |   |   |   |   |   |   |   |   |   |   |   |   Column1374 > 194.0: Happy (23.0)
|   |   |   |   |   |   |   |   |   |   |   |   |   |   |   Column881 > 168.0
|   |   |   |   |   |   |   |   |   |   |   |   |   |   |   |   Column384 <= 48.0: Happy (8.0)
|   |   |   |   |   |   |   |   |   |   |   |   |   |   |   |   Column384 > 48.0
|   |   |   |   |   |   |   |   |   |   |   |   |   |   |   |   |   Column650 <= 216.0
|   |   |   |   |   |   |   |   |   |   |   |   |   |   |   |   |   |   Column2031 <= 220.0
|   |   |   |   |   |   |   |   |   |   |   |   |   |   |   |   |   |   |   Column1364 <= 126.0
|   |   |   |   |   |   |   |   |   |   |   |   |   |   |   |   |   |   |   |   Column2138 <= 148.0: NotHappy (4.0)
|   |   |   |   |   |   |   |   |   |   |   |   |   |   |   |   |   |   |   |   Column2138 > 148.0: Happy (5.0)
|   |   |   |   |   |   |   |   |   |   |   |   |   |   |   |   |   |   |   Column1364 > 126.0: NotHappy (34.0/1.0)
|   |   |   |   |   |   |   |   |   |   |   |   |   |   |   |   |   |   Column2031 > 220.0: Happy (3.0)
|   |   |   |   |   |   |   |   |   |   |   |   |   |   |   |   |   Column650 > 216.0: Happy (5.0)
|   |   |   |   |   |   |   |   |   |   |   |   |   Column1056 > 230.0
|   |   |   |   |   |   |   |   |   |   |   |   |   |   Column1376 <= 211.0
|   |   |   |   |   |   |   |   |   |   |   |   |   |   |   Column1076 <= 123.0: Happy (4.0/1.0)
|   |   |   |   |   |   |   |   |   |   |   |   |   |   |   Column1076 > 123.0: NotHappy (29.0)
|   |   |   |   |   |   |   |   |   |   |   |   |   |   Column1376 > 211.0: Happy (3.0)
|   |   |   |   |   |   |   |   |   |   Column1666 > 118.0
|   |   |   |   |   |   |   |   |   |   |   Column1896 <= 119.0
|   |   |   |   |   |   |   |   |   |   |   |   Column1524 <= 94.0
|   |   |   |   |   |   |   |   |   |   |   |   |   Column1694 <= 69.0: Happy (13.0)
|   |   |   |   |   |   |   |   |   |   |   |   |   Column1694 > 69.0
|   |   |   |   |   |   |   |   |   |   |   |   |   |   Column1958 <= 117.0: NotHappy (25.0)
|   |   |   |   |   |   |   |   |   |   |   |   |   |   Column1958 > 117.0
|   |   |   |   |   |   |   |   |   |   |   |   |   |   |   Column1817 <= 137.0: Happy (9.0)
|   |   |   |   |   |   |   |   |   |   |   |   |   |   |   Column1817 > 137.0
|   |   |   |   |   |   |   |   |   |   |   |   |   |   |   |   Column1269 <= 85.0: Happy (2.0)
|   |   |   |   |   |   |   |   |   |   |   |   |   |   |   |   Column1269 > 85.0: NotHappy (10.0)
|   |   |   |   |   |   |   |   |   |   |   |   Column1524 > 94.0
|   |   |   |   |   |   |   |   |   |   |   |   |   Column1352 <= 14.0
|   |   |   |   |   |   |   |   |   |   |   |   |   |   Column1561 <= 110.0: NotHappy (9.0)
|   |   |   |   |   |   |   |   |   |   |   |   |   |   Column1561 > 110.0
|   |   |   |   |   |   |   |   |   |   |   |   |   |   |   Column647 <= 181.0
|   |   |   |   |   |   |   |   |   |   |   |   |   |   |   |   Column868 <= 56.0: Happy (13.0)
|   |   |   |   |   |   |   |   |   |   |   |   |   |   |   |   Column868 > 56.0: NotHappy (2.0)
|   |   |   |   |   |   |   |   |   |   |   |   |   |   |   Column647 > 181.0: NotHappy (5.0)
|   |   |   |   |   |   |   |   |   |   |   |   |   Column1352 > 14.0
|   |   |   |   |   |   |   |   |   |   |   |   |   |   Column275 <= 46.0: NotHappy (64.0)
|   |   |   |   |   |   |   |   |   |   |   |   |   |   Column275 > 46.0
|   |   |   |   |   |   |   |   |   |   |   |   |   |   |   Column1903 <= 52.0: NotHappy (54.0)
|   |   |   |   |   |   |   |   |   |   |   |   |   |   |   Column1903 > 52.0
|   |   |   |   |   |   |   |   |   |   |   |   |   |   |   |   Column1667 <= 199.0
|   |   |   |   |   |   |   |   |   |   |   |   |   |   |   |   |   Column1856 <= 188.0
|   |   |   |   |   |   |   |   |   |   |   |   |   |   |   |   |   |   Column661 <= 152.0
|   |   |   |   |   |   |   |   |   |   |   |   |   |   |   |   |   |   |   Column1407 <= 79.0
|   |   |   |   |   |   |   |   |   |   |   |   |   |   |   |   |   |   |   |   Column1384 <= 144.0
|   |   |   |   |   |   |   |   |   |   |   |   |   |   |   |   |   |   |   |   |   Column447 <= 118.0: Happy (12.0/1.0)
|   |   |   |   |   |   |   |   |   |   |   |   |   |   |   |   |   |   |   |   |   Column447 > 118.0: NotHappy (5.0)
|   |   |   |   |   |   |   |   |   |   |   |   |   |   |   |   |   |   |   |   Column1384 > 144.0: NotHappy (10.0)
|   |   |   |   |   |   |   |   |   |   |   |   |   |   |   |   |   |   |   Column1407 > 79.0
|   |   |   |   |   |   |   |   |   |   |   |   |   |   |   |   |   |   |   |   Column2082 <= 92.0: NotHappy (83.0)
|   |   |   |   |   |   |   |   |   |   |   |   |   |   |   |   |   |   |   |   Column2082 > 92.0
|   |   |   |   |   |   |   |   |   |   |   |   |   |   |   |   |   |   |   |   |   Column317 <= 79.0
|   |   |   |   |   |   |   |   |   |   |   |   |   |   |   |   |   |   |   |   |   |   Column1945 <= 106.0: NotHappy (8.0)
|   |   |   |   |   |   |   |   |   |   |   |   |   |   |   |   |   |   |   |   |   |   Column1945 > 106.0: Happy (9.0)
|   |   |   |   |   |   |   |   |   |   |   |   |   |   |   |   |   |   |   |   |   Column317 > 79.0
|   |   |   |   |   |   |   |   |   |   |   |   |   |   |   |   |   |   |   |   |   |   Column1642 <= 166.0
|   |   |   |   |   |   |   |   |   |   |   |   |   |   |   |   |   |   |   |   |   |   |   Column1593 <= 162.0
|   |   |   |   |   |   |   |   |   |   |   |   |   |   |   |   |   |   |   |   |   |   |   |   Column2291 <= 32.0
|   |   |   |   |   |   |   |   |   |   |   |   |   |   |   |   |   |   |   |   |   |   |   |   |   Column1815 <= 113.0: NotHappy (12.0/1.0)
|   |   |   |   |   |   |   |   |   |   |   |   |   |   |   |   |   |   |   |   |   |   |   |   |   Column1815 > 113.0: Happy (7.0)
|   |   |   |   |   |   |   |   |   |   |   |   |   |   |   |   |   |   |   |   |   |   |   |   Column2291 > 32.0
|   |   |   |   |   |   |   |   |   |   |   |   |   |   |   |   |   |   |   |   |   |   |   |   |   Column1661 <= 147.0
|   |   |   |   |   |   |   |   |   |   |   |   |   |   |   |   |   |   |   |   |   |   |   |   |   |   Column1806 <= 154.0
|   |   |   |   |   |   |   |   |   |   |   |   |   |   |   |   |   |   |   |   |   |   |   |   |   |   |   Column1739 <= 83.0
|   |   |   |   |   |   |   |   |   |   |   |   |   |   |   |   |   |   |   |   |   |   |   |   |   |   |   |   Column520 <= 123.0: NotHappy (7.0)
|   |   |   |   |   |   |   |   |   |   |   |   |   |   |   |   |   |   |   |   |   |   |   |   |   |   |   |   Column520 > 123.0: Happy (6.0)
|   |   |   |   |   |   |   |   |   |   |   |   |   |   |   |   |   |   |   |   |   |   |   |   |   |   |   Column1739 > 83.0
|   |   |   |   |   |   |   |   |   |   |   |   |   |   |   |   |   |   |   |   |   |   |   |   |   |   |   |   Column2223 <= 139.0: NotHappy (87.0/1.0)
|   |   |   |   |   |   |   |   |   |   |   |   |   |   |   |   |   |   |   |   |   |   |   |   |   |   |   |   Column2223 > 139.0
|   |   |   |   |   |   |   |   |   |   |   |   |   |   |   |   |   |   |   |   |   |   |   |   |   |   |   |   |   Column2126 <= 147.0: Happy (5.0/1.0)
|   |   |   |   |   |   |   |   |   |   |   |   |   |   |   |   |   |   |   |   |   |   |   |   |   |   |   |   |   Column2126 > 147.0: NotHappy (9.0)
|   |   |   |   |   |   |   |   |   |   |   |   |   |   |   |   |   |   |   |   |   |   |   |   |   |   Column1806 > 154.0: Happy (7.0/1.0)
|   |   |   |   |   |   |   |   |   |   |   |   |   |   |   |   |   |   |   |   |   |   |   |   |   Column1661 > 147.0: NotHappy (89.0)
|   |   |   |   |   |   |   |   |   |   |   |   |   |   |   |   |   |   |   |   |   |   |   Column1593 > 162.0
|   |   |   |   |   |   |   |   |   |   |   |   |   |   |   |   |   |   |   |   |   |   |   |   Column7 <= 171.0: NotHappy (6.0)
|   |   |   |   |   |   |   |   |   |   |   |   |   |   |   |   |   |   |   |   |   |   |   |   Column7 > 171.0: Happy (7.0)
|   |   |   |   |   |   |   |   |   |   |   |   |   |   |   |   |   |   |   |   |   |   Column1642 > 166.0: NotHappy (74.0)
|   |   |   |   |   |   |   |   |   |   |   |   |   |   |   |   |   |   Column661 > 152.0
|   |   |   |   |   |   |   |   |   |   |   |   |   |   |   |   |   |   |   Column2080 <= 108.0
|   |   |   |   |   |   |   |   |   |   |   |   |   |   |   |   |   |   |   |   Column1941 <= 50.0
|   |   |   |   |   |   |   |   |   |   |   |   |   |   |   |   |   |   |   |   |   Column224 <= 193.0: Happy (4.0)
|   |   |   |   |   |   |   |   |   |   |   |   |   |   |   |   |   |   |   |   |   Column224 > 193.0: NotHappy (2.0)
|   |   |   |   |   |   |   |   |   |   |   |   |   |   |   |   |   |   |   |   Column1941 > 50.0
|   |   |   |   |   |   |   |   |   |   |   |   |   |   |   |   |   |   |   |   |   Column1278 <= 136.0
|   |   |   |   |   |   |   |   |   |   |   |   |   |   |   |   |   |   |   |   |   |   Column1748 <= 90.0: NotHappy (10.0/1.0)
|   |   |   |   |   |   |   |   |   |   |   |   |   |   |   |   |   |   |   |   |   |   Column1748 > 90.0: Happy (4.0)
|   |   |   |   |   |   |   |   |   |   |   |   |   |   |   |   |   |   |   |   |   Column1278 > 136.0: NotHappy (73.0)
|   |   |   |   |   |   |   |   |   |   |   |   |   |   |   |   |   |   |   Column2080 > 108.0
|   |   |   |   |   |   |   |   |   |   |   |   |   |   |   |   |   |   |   |   Column1266 <= 99.0: Happy (9.0)
|   |   |   |   |   |   |   |   |   |   |   |   |   |   |   |   |   |   |   |   Column1266 > 99.0
|   |   |   |   |   |   |   |   |   |   |   |   |   |   |   |   |   |   |   |   |   Column833 <= 59.0: NotHappy (20.0)
|   |   |   |   |   |   |   |   |   |   |   |   |   |   |   |   |   |   |   |   |   Column833 > 59.0
|   |   |   |   |   |   |   |   |   |   |   |   |   |   |   |   |   |   |   |   |   |   Column1967 <= 94.0
|   |   |   |   |   |   |   |   |   |   |   |   |   |   |   |   |   |   |   |   |   |   |   Column455 <= 192.0
|   |   |   |   |   |   |   |   |   |   |   |   |   |   |   |   |   |   |   |   |   |   |   |   Column1689 <= 137.0
|   |   |   |   |   |   |   |   |   |   |   |   |   |   |   |   |   |   |   |   |   |   |   |   |   Column2221 <= 44.0: NotHappy (5.0)
|   |   |   |   |   |   |   |   |   |   |   |   |   |   |   |   |   |   |   |   |   |   |   |   |   Column2221 > 44.0: Happy (8.0)
|   |   |   |   |   |   |   |   |   |   |   |   |   |   |   |   |   |   |   |   |   |   |   |   Column1689 > 137.0: NotHappy (13.0)
|   |   |   |   |   |   |   |   |   |   |   |   |   |   |   |   |   |   |   |   |   |   |   Column455 > 192.0
|   |   |   |   |   |   |   |   |   |   |   |   |   |   |   |   |   |   |   |   |   |   |   |   Column1450 <= 108.0: NotHappy (2.0)
|   |   |   |   |   |   |   |   |   |   |   |   |   |   |   |   |   |   |   |   |   |   |   |   Column1450 > 108.0: Happy (22.0)
|   |   |   |   |   |   |   |   |   |   |   |   |   |   |   |   |   |   |   |   |   |   Column1967 > 94.0
|   |   |   |   |   |   |   |   |   |   |   |   |   |   |   |   |   |   |   |   |   |   |   Column113 <= 127.0: NotHappy (24.0)
|   |   |   |   |   |   |   |   |   |   |   |   |   |   |   |   |   |   |   |   |   |   |   Column113 > 127.0
|   |   |   |   |   |   |   |   |   |   |   |   |   |   |   |   |   |   |   |   |   |   |   |   Column1518 <= 127.0: Happy (5.0)
|   |   |   |   |   |   |   |   |   |   |   |   |   |   |   |   |   |   |   |   |   |   |   |   Column1518 > 127.0
|   |   |   |   |   |   |   |   |   |   |   |   |   |   |   |   |   |   |   |   |   |   |   |   |   Column1040 <= 84.0: Happy (4.0)
|   |   |   |   |   |   |   |   |   |   |   |   |   |   |   |   |   |   |   |   |   |   |   |   |   Column1040 > 84.0
|   |   |   |   |   |   |   |   |   |   |   |   |   |   |   |   |   |   |   |   |   |   |   |   |   |   Column1522 <= 143.0: Happy (6.0/1.0)
|   |   |   |   |   |   |   |   |   |   |   |   |   |   |   |   |   |   |   |   |   |   |   |   |   |   Column1522 > 143.0
|   |   |   |   |   |   |   |   |   |   |   |   |   |   |   |   |   |   |   |   |   |   |   |   |   |   |   Column63 <= 101.0: Happy (3.0)
|   |   |   |   |   |   |   |   |   |   |   |   |   |   |   |   |   |   |   |   |   |   |   |   |   |   |   Column63 > 101.0
|   |   |   |   |   |   |   |   |   |   |   |   |   |   |   |   |   |   |   |   |   |   |   |   |   |   |   |   Column2138 <= 158.0: NotHappy (36.0)
|   |   |   |   |   |   |   |   |   |   |   |   |   |   |   |   |   |   |   |   |   |   |   |   |   |   |   |   Column2138 > 158.0
|   |   |   |   |   |   |   |   |   |   |   |   |   |   |   |   |   |   |   |   |   |   |   |   |   |   |   |   |   Column2139 <= 174.0
|   |   |   |   |   |   |   |   |   |   |   |   |   |   |   |   |   |   |   |   |   |   |   |   |   |   |   |   |   |   Column700 <= 189.0: Happy (6.0)
|   |   |   |   |   |   |   |   |   |   |   |   |   |   |   |   |   |   |   |   |   |   |   |   |   |   |   |   |   |   Column700 > 189.0: NotHappy (4.0)
|   |   |   |   |   |   |   |   |   |   |   |   |   |   |   |   |   |   |   |   |   |   |   |   |   |   |   |   |   Column2139 > 174.0: NotHappy (11.0)
|   |   |   |   |   |   |   |   |   |   |   |   |   |   |   |   |   Column1856 > 188.0: NotHappy (44.0)
|   |   |   |   |   |   |   |   |   |   |   |   |   |   |   |   Column1667 > 199.0
|   |   |   |   |   |   |   |   |   |   |   |   |   |   |   |   |   Column1280 <= 237.0: NotHappy (94.0)
|   |   |   |   |   |   |   |   |   |   |   |   |   |   |   |   |   Column1280 > 237.0
|   |   |   |   |   |   |   |   |   |   |   |   |   |   |   |   |   |   Column601 <= 191.0: Happy (3.0)
|   |   |   |   |   |   |   |   |   |   |   |   |   |   |   |   |   |   Column601 > 191.0: NotHappy (2.0)
|   |   |   |   |   |   |   |   |   |   |   Column1896 > 119.0
|   |   |   |   |   |   |   |   |   |   |   |   Column641 <= 26.0: NotHappy (32.0)
|   |   |   |   |   |   |   |   |   |   |   |   Column641 > 26.0
|   |   |   |   |   |   |   |   |   |   |   |   |   Column1899 <= 228.0
|   |   |   |   |   |   |   |   |   |   |   |   |   |   Column822 <= 253.0
|   |   |   |   |   |   |   |   |   |   |   |   |   |   |   Column1617 <= 160.0
|   |   |   |   |   |   |   |   |   |   |   |   |   |   |   |   Column410 <= 225.0
|   |   |   |   |   |   |   |   |   |   |   |   |   |   |   |   |   Column1751 <= 58.0
|   |   |   |   |   |   |   |   |   |   |   |   |   |   |   |   |   |   Column1752 <= 98.0: NotHappy (36.0/1.0)
|   |   |   |   |   |   |   |   |   |   |   |   |   |   |   |   |   |   Column1752 > 98.0: Happy (2.0)
|   |   |   |   |   |   |   |   |   |   |   |   |   |   |   |   |   Column1751 > 58.0
|   |   |   |   |   |   |   |   |   |   |   |   |   |   |   |   |   |   Column2041 <= 121.0
|   |   |   |   |   |   |   |   |   |   |   |   |   |   |   |   |   |   |   Column232 <= 197.0
|   |   |   |   |   |   |   |   |   |   |   |   |   |   |   |   |   |   |   |   Column2009 <= 29.0
|   |   |   |   |   |   |   |   |   |   |   |   |   |   |   |   |   |   |   |   |   Column834 <= 139.0: Happy (9.0)
|   |   |   |   |   |   |   |   |   |   |   |   |   |   |   |   |   |   |   |   |   Column834 > 139.0: NotHappy (4.0)
|   |   |   |   |   |   |   |   |   |   |   |   |   |   |   |   |   |   |   |   Column2009 > 29.0
|   |   |   |   |   |   |   |   |   |   |   |   |   |   |   |   |   |   |   |   |   Column226 <= 146.0
|   |   |   |   |   |   |   |   |   |   |   |   |   |   |   |   |   |   |   |   |   |   Column425 <= 169.0
|   |   |   |   |   |   |   |   |   |   |   |   |   |   |   |   |   |   |   |   |   |   |   Column970 <= 58.0
|   |   |   |   |   |   |   |   |   |   |   |   |   |   |   |   |   |   |   |   |   |   |   |   Column1368 <= 141.0: Happy (6.0)
|   |   |   |   |   |   |   |   |   |   |   |   |   |   |   |   |   |   |   |   |   |   |   |   Column1368 > 141.0: NotHappy (3.0)
|   |   |   |   |   |   |   |   |   |   |   |   |   |   |   |   |   |   |   |   |   |   |   Column970 > 58.0
|   |   |   |   |   |   |   |   |   |   |   |   |   |   |   |   |   |   |   |   |   |   |   |   Column1097 <= 151.0: NotHappy (43.0)
|   |   |   |   |   |   |   |   |   |   |   |   |   |   |   |   |   |   |   |   |   |   |   |   Column1097 > 151.0
|   |   |   |   |   |   |   |   |   |   |   |   |   |   |   |   |   |   |   |   |   |   |   |   |   Column1099 <= 121.0: Happy (4.0)
|   |   |   |   |   |   |   |   |   |   |   |   |   |   |   |   |   |   |   |   |   |   |   |   |   Column1099 > 121.0: NotHappy (13.0/1.0)
|   |   |   |   |   |   |   |   |   |   |   |   |   |   |   |   |   |   |   |   |   |   Column425 > 169.0: Happy (4.0)
|   |   |   |   |   |   |   |   |   |   |   |   |   |   |   |   |   |   |   |   |   Column226 > 146.0: NotHappy (52.0)
|   |   |   |   |   |   |   |   |   |   |   |   |   |   |   |   |   |   |   Column232 > 197.0
|   |   |   |   |   |   |   |   |   |   |   |   |   |   |   |   |   |   |   |   Column1035 <= 194.0: Happy (7.0)
|   |   |   |   |   |   |   |   |   |   |   |   |   |   |   |   |   |   |   |   Column1035 > 194.0: NotHappy (2.0)
|   |   |   |   |   |   |   |   |   |   |   |   |   |   |   |   |   |   Column2041 > 121.0
|   |   |   |   |   |   |   |   |   |   |   |   |   |   |   |   |   |   |   Column1620 <= 199.0
|   |   |   |   |   |   |   |   |   |   |   |   |   |   |   |   |   |   |   |   Column1423 <= 95.0
|   |   |   |   |   |   |   |   |   |   |   |   |   |   |   |   |   |   |   |   |   Column1719 <= 26.0: Happy (3.0)
|   |   |   |   |   |   |   |   |   |   |   |   |   |   |   |   |   |   |   |   |   Column1719 > 26.0: NotHappy (28.0/1.0)
|   |   |   |   |   |   |   |   |   |   |   |   |   |   |   |   |   |   |   |   Column1423 > 95.0
|   |   |   |   |   |   |   |   |   |   |   |   |   |   |   |   |   |   |   |   |   Column1761 <= 95.0
|   |   |   |   |   |   |   |   |   |   |   |   |   |   |   |   |   |   |   |   |   |   Column1708 <= 75.0: NotHappy (5.0)
|   |   |   |   |   |   |   |   |   |   |   |   |   |   |   |   |   |   |   |   |   |   Column1708 > 75.0
|   |   |   |   |   |   |   |   |   |   |   |   |   |   |   |   |   |   |   |   |   |   |   Column2286 <= 108.0: NotHappy (2.0)
|   |   |   |   |   |   |   |   |   |   |   |   |   |   |   |   |   |   |   |   |   |   |   Column2286 > 108.0: Happy (28.0)
|   |   |   |   |   |   |   |   |   |   |   |   |   |   |   |   |   |   |   |   |   Column1761 > 95.0
|   |   |   |   |   |   |   |   |   |   |   |   |   |   |   |   |   |   |   |   |   |   Column1570 <= 109.0
|   |   |   |   |   |   |   |   |   |   |   |   |   |   |   |   |   |   |   |   |   |   |   Column983 <= 144.0: NotHappy (7.0/1.0)
|   |   |   |   |   |   |   |   |   |   |   |   |   |   |   |   |   |   |   |   |   |   |   Column983 > 144.0
|   |   |   |   |   |   |   |   |   |   |   |   |   |   |   |   |   |   |   |   |   |   |   |   Column1866 <= 202.0: Happy (34.0/1.0)
|   |   |   |   |   |   |   |   |   |   |   |   |   |   |   |   |   |   |   |   |   |   |   |   Column1866 > 202.0: NotHappy (3.0)
|   |   |   |   |   |   |   |   |   |   |   |   |   |   |   |   |   |   |   |   |   |   Column1570 > 109.0
|   |   |   |   |   |   |   |   |   |   |   |   |   |   |   |   |   |   |   |   |   |   |   Column589 <= 209.0
|   |   |   |   |   |   |   |   |   |   |   |   |   |   |   |   |   |   |   |   |   |   |   |   Column1714 <= 173.0
|   |   |   |   |   |   |   |   |   |   |   |   |   |   |   |   |   |   |   |   |   |   |   |   |   Column1035 <= 105.0
|   |   |   |   |   |   |   |   |   |   |   |   |   |   |   |   |   |   |   |   |   |   |   |   |   |   Column1599 <= 150.0: Happy (23.0/1.0)
|   |   |   |   |   |   |   |   |   |   |   |   |   |   |   |   |   |   |   |   |   |   |   |   |   |   Column1599 > 150.0
|   |   |   |   |   |   |   |   |   |   |   |   |   |   |   |   |   |   |   |   |   |   |   |   |   |   |   Column1601 <= 141.0: Happy (3.0)
|   |   |   |   |   |   |   |   |   |   |   |   |   |   |   |   |   |   |   |   |   |   |   |   |   |   |   Column1601 > 141.0: NotHappy (7.0)
|   |   |   |   |   |   |   |   |   |   |   |   |   |   |   |   |   |   |   |   |   |   |   |   |   Column1035 > 105.0
|   |   |   |   |   |   |   |   |   |   |   |   |   |   |   |   |   |   |   |   |   |   |   |   |   |   Column109 <= 143.0
|   |   |   |   |   |   |   |   |   |   |   |   |   |   |   |   |   |   |   |   |   |   |   |   |   |   |   Column683 <= 179.0
|   |   |   |   |   |   |   |   |   |   |   |   |   |   |   |   |   |   |   |   |   |   |   |   |   |   |   |   Column525 <= 13.0: NotHappy (12.0)
|   |   |   |   |   |   |   |   |   |   |   |   |   |   |   |   |   |   |   |   |   |   |   |   |   |   |   |   Column525 > 13.0
|   |   |   |   |   |   |   |   |   |   |   |   |   |   |   |   |   |   |   |   |   |   |   |   |   |   |   |   |   Column2081 <= 205.0
|   |   |   |   |   |   |   |   |   |   |   |   |   |   |   |   |   |   |   |   |   |   |   |   |   |   |   |   |   |   Column2278 <= 52.0: NotHappy (9.0)
|   |   |   |   |   |   |   |   |   |   |   |   |   |   |   |   |   |   |   |   |   |   |   |   |   |   |   |   |   |   Column2278 > 52.0
|   |   |   |   |   |   |   |   |   |   |   |   |   |   |   |   |   |   |   |   |   |   |   |   |   |   |   |   |   |   |   Column1851 <= 190.0
|   |   |   |   |   |   |   |   |   |   |   |   |   |   |   |   |   |   |   |   |   |   |   |   |   |   |   |   |   |   |   |   Column1780 <= 17.0: NotHappy (9.0)
|   |   |   |   |   |   |   |   |   |   |   |   |   |   |   |   |   |   |   |   |   |   |   |   |   |   |   |   |   |   |   |   Column1780 > 17.0
|   |   |   |   |   |   |   |   |   |   |   |   |   |   |   |   |   |   |   |   |   |   |   |   |   |   |   |   |   |   |   |   |   Column2100 <= 32.0: Happy (14.0)
|   |   |   |   |   |   |   |   |   |   |   |   |   |   |   |   |   |   |   |   |   |   |   |   |   |   |   |   |   |   |   |   |   Column2100 > 32.0
|   |   |   |   |   |   |   |   |   |   |   |   |   |   |   |   |   |   |   |   |   |   |   |   |   |   |   |   |   |   |   |   |   |   Column935 <= 191.0
|   |   |   |   |   |   |   |   |   |   |   |   |   |   |   |   |   |   |   |   |   |   |   |   |   |   |   |   |   |   |   |   |   |   |   Column1855 <= 83.0: NotHappy (10.0)
|   |   |   |   |   |   |   |   |   |   |   |   |   |   |   |   |   |   |   |   |   |   |   |   |   |   |   |   |   |   |   |   |   |   |   Column1855 > 83.0
|   |   |   |   |   |   |   |   |   |   |   |   |   |   |   |   |   |   |   |   |   |   |   |   |   |   |   |   |   |   |   |   |   |   |   |   Column1491 <= 34.0: Happy (11.0)
|   |   |   |   |   |   |   |   |   |   |   |   |   |   |   |   |   |   |   |   |   |   |   |   |   |   |   |   |   |   |   |   |   |   |   |   Column1491 > 34.0
|   |   |   |   |   |   |   |   |   |   |   |   |   |   |   |   |   |   |   |   |   |   |   |   |   |   |   |   |   |   |   |   |   |   |   |   |   Column1661 <= 184.0
|   |   |   |   |   |   |   |   |   |   |   |   |   |   |   |   |   |   |   |   |   |   |   |   |   |   |   |   |   |   |   |   |   |   |   |   |   |   Column1615 <= 105.0: Happy (7.0)
|   |   |   |   |   |   |   |   |   |   |   |   |   |   |   |   |   |   |   |   |   |   |   |   |   |   |   |   |   |   |   |   |   |   |   |   |   |   Column1615 > 105.0
|   |   |   |   |   |   |   |   |   |   |   |   |   |   |   |   |   |   |   |   |   |   |   |   |   |   |   |   |   |   |   |   |   |   |   |   |   |   |   Column711 <= 159.0
|   |   |   |   |   |   |   |   |   |   |   |   |   |   |   |   |   |   |   |   |   |   |   |   |   |   |   |   |   |   |   |   |   |   |   |   |   |   |   |   Column2211 <= 153.0
|   |   |   |   |   |   |   |   |   |   |   |   |   |   |   |   |   |   |   |   |   |   |   |   |   |   |   |   |   |   |   |   |   |   |   |   |   |   |   |   |   Column736 <= 75.0: Happy (8.0/1.0)
|   |   |   |   |   |   |   |   |   |   |   |   |   |   |   |   |   |   |   |   |   |   |   |   |   |   |   |   |   |   |   |   |   |   |   |   |   |   |   |   |   Column736 > 75.0
|   |   |   |   |   |   |   |   |   |   |   |   |   |   |   |   |   |   |   |   |   |   |   |   |   |   |   |   |   |   |   |   |   |   |   |   |   |   |   |   |   |   Column1617 <= 157.0: NotHappy (34.0/1.0)
|   |   |   |   |   |   |   |   |   |   |   |   |   |   |   |   |   |   |   |   |   |   |   |   |   |   |   |   |   |   |   |   |   |   |   |   |   |   |   |   |   |   Column1617 > 157.0: Happy (6.0/1.0)
|   |   |   |   |   |   |   |   |   |   |   |   |   |   |   |   |   |   |   |   |   |   |   |   |   |   |   |   |   |   |   |   |   |   |   |   |   |   |   |   Column2211 > 153.0
|   |   |   |   |   |   |   |   |   |   |   |   |   |   |   |   |   |   |   |   |   |   |   |   |   |   |   |   |   |   |   |   |   |   |   |   |   |   |   |   |   Column822 <= 184.0: Happy (17.0)
|   |   |   |   |   |   |   |   |   |   |   |   |   |   |   |   |   |   |   |   |   |   |   |   |   |   |   |   |   |   |   |   |   |   |   |   |   |   |   |   |   Column822 > 184.0: NotHappy (3.0)
|   |   |   |   |   |   |   |   |   |   |   |   |   |   |   |   |   |   |   |   |   |   |   |   |   |   |   |   |   |   |   |   |   |   |   |   |   |   |   Column711 > 159.0: NotHappy (15.0)
|   |   |   |   |   |   |   |   |   |   |   |   |   |   |   |   |   |   |   |   |   |   |   |   |   |   |   |   |   |   |   |   |   |   |   |   |   Column1661 > 184.0: Happy (8.0)
|   |   |   |   |   |   |   |   |   |   |   |   |   |   |   |   |   |   |   |   |   |   |   |   |   |   |   |   |   |   |   |   |   |   Column935 > 191.0: Happy (9.0)
|   |   |   |   |   |   |   |   |   |   |   |   |   |   |   |   |   |   |   |   |   |   |   |   |   |   |   |   |   |   |   Column1851 > 190.0: Happy (12.0)
|   |   |   |   |   |   |   |   |   |   |   |   |   |   |   |   |   |   |   |   |   |   |   |   |   |   |   |   |   Column2081 > 205.0: NotHappy (10.0)
|   |   |   |   |   |   |   |   |   |   |   |   |   |   |   |   |   |   |   |   |   |   |   |   |   |   |   Column683 > 179.0: Happy (11.0)
|   |   |   |   |   |   |   |   |   |   |   |   |   |   |   |   |   |   |   |   |   |   |   |   |   |   Column109 > 143.0
|   |   |   |   |   |   |   |   |   |   |   |   |   |   |   |   |   |   |   |   |   |   |   |   |   |   |   Column2082 <= 133.0: NotHappy (31.0)
|   |   |   |   |   |   |   |   |   |   |   |   |   |   |   |   |   |   |   |   |   |   |   |   |   |   |   Column2082 > 133.0
|   |   |   |   |   |   |   |   |   |   |   |   |   |   |   |   |   |   |   |   |   |   |   |   |   |   |   |   Column1260 <= 218.0
|   |   |   |   |   |   |   |   |   |   |   |   |   |   |   |   |   |   |   |   |   |   |   |   |   |   |   |   |   Column1505 <= 191.0
|   |   |   |   |   |   |   |   |   |   |   |   |   |   |   |   |   |   |   |   |   |   |   |   |   |   |   |   |   |   Column1373 <= 112.0: Happy (6.0)
|   |   |   |   |   |   |   |   |   |   |   |   |   |   |   |   |   |   |   |   |   |   |   |   |   |   |   |   |   |   Column1373 > 112.0
|   |   |   |   |   |   |   |   |   |   |   |   |   |   |   |   |   |   |   |   |   |   |   |   |   |   |   |   |   |   |   Column1858 <= 158.0
|   |   |   |   |   |   |   |   |   |   |   |   |   |   |   |   |   |   |   |   |   |   |   |   |   |   |   |   |   |   |   |   Column1232 <= 116.0: Happy (5.0/1.0)
|   |   |   |   |   |   |   |   |   |   |   |   |   |   |   |   |   |   |   |   |   |   |   |   |   |   |   |   |   |   |   |   Column1232 > 116.0
|   |   |   |   |   |   |   |   |   |   |   |   |   |   |   |   |   |   |   |   |   |   |   |   |   |   |   |   |   |   |   |   |   Column1900 <= 186.0: NotHappy (36.0)
|   |   |   |   |   |   |   |   |   |   |   |   |   |   |   |   |   |   |   |   |   |   |   |   |   |   |   |   |   |   |   |   |   Column1900 > 186.0
|   |   |   |   |   |   |   |   |   |   |   |   |   |   |   |   |   |   |   |   |   |   |   |   |   |   |   |   |   |   |   |   |   |   Column1 <= 183.0: Happy (2.0)
|   |   |   |   |   |   |   |   |   |   |   |   |   |   |   |   |   |   |   |   |   |   |   |   |   |   |   |   |   |   |   |   |   |   Column1 > 183.0: NotHappy (2.0)
|   |   |   |   |   |   |   |   |   |   |   |   |   |   |   |   |   |   |   |   |   |   |   |   |   |   |   |   |   |   |   Column1858 > 158.0
|   |   |   |   |   |   |   |   |   |   |   |   |   |   |   |   |   |   |   |   |   |   |   |   |   |   |   |   |   |   |   |   Column1710 <= 145.0: Happy (10.0)
|   |   |   |   |   |   |   |   |   |   |   |   |   |   |   |   |   |   |   |   |   |   |   |   |   |   |   |   |   |   |   |   Column1710 > 145.0
|   |   |   |   |   |   |   |   |   |   |   |   |   |   |   |   |   |   |   |   |   |   |   |   |   |   |   |   |   |   |   |   |   Column88 <= 183.0: NotHappy (8.0)
|   |   |   |   |   |   |   |   |   |   |   |   |   |   |   |   |   |   |   |   |   |   |   |   |   |   |   |   |   |   |   |   |   Column88 > 183.0: Happy (3.0)
|   |   |   |   |   |   |   |   |   |   |   |   |   |   |   |   |   |   |   |   |   |   |   |   |   |   |   |   |   Column1505 > 191.0: NotHappy (19.0)
|   |   |   |   |   |   |   |   |   |   |   |   |   |   |   |   |   |   |   |   |   |   |   |   |   |   |   |   Column1260 > 218.0: Happy (6.0)
|   |   |   |   |   |   |   |   |   |   |   |   |   |   |   |   |   |   |   |   |   |   |   |   Column1714 > 173.0
|   |   |   |   |   |   |   |   |   |   |   |   |   |   |   |   |   |   |   |   |   |   |   |   |   Column1250 <= 216.0
|   |   |   |   |   |   |   |   |   |   |   |   |   |   |   |   |   |   |   |   |   |   |   |   |   |   Column597 <= 216.0
|   |   |   |   |   |   |   |   |   |   |   |   |   |   |   |   |   |   |   |   |   |   |   |   |   |   |   Column1455 <= 155.0
|   |   |   |   |   |   |   |   |   |   |   |   |   |   |   |   |   |   |   |   |   |   |   |   |   |   |   |   Column166 <= 185.0: Happy (10.0)
|   |   |   |   |   |   |   |   |   |   |   |   |   |   |   |   |   |   |   |   |   |   |   |   |   |   |   |   Column166 > 185.0: NotHappy (5.0)
|   |   |   |   |   |   |   |   |   |   |   |   |   |   |   |   |   |   |   |   |   |   |   |   |   |   |   Column1455 > 155.0: Happy (28.0)
|   |   |   |   |   |   |   |   |   |   |   |   |   |   |   |   |   |   |   |   |   |   |   |   |   |   Column597 > 216.0: NotHappy (3.0)
|   |   |   |   |   |   |   |   |   |   |   |   |   |   |   |   |   |   |   |   |   |   |   |   |   Column1250 > 216.0: NotHappy (4.0)
|   |   |   |   |   |   |   |   |   |   |   |   |   |   |   |   |   |   |   |   |   |   |   Column589 > 209.0
|   |   |   |   |   |   |   |   |   |   |   |   |   |   |   |   |   |   |   |   |   |   |   |   Column885 <= 120.0: Happy (2.0)
|   |   |   |   |   |   |   |   |   |   |   |   |   |   |   |   |   |   |   |   |   |   |   |   Column885 > 120.0: NotHappy (23.0)
|   |   |   |   |   |   |   |   |   |   |   |   |   |   |   |   |   |   |   Column1620 > 199.0
|   |   |   |   |   |   |   |   |   |   |   |   |   |   |   |   |   |   |   |   Column1175 <= 151.0
|   |   |   |   |   |   |   |   |   |   |   |   |   |   |   |   |   |   |   |   |   Column1811 <= 205.0: NotHappy (3.0)
|   |   |   |   |   |   |   |   |   |   |   |   |   |   |   |   |   |   |   |   |   Column1811 > 205.0: Happy (4.0)
|   |   |   |   |   |   |   |   |   |   |   |   |   |   |   |   |   |   |   |   Column1175 > 151.0: NotHappy (29.0)
|   |   |   |   |   |   |   |   |   |   |   |   |   |   |   |   Column410 > 225.0
|   |   |   |   |   |   |   |   |   |   |   |   |   |   |   |   |   Column2044 <= 137.0: NotHappy (4.0)
|   |   |   |   |   |   |   |   |   |   |   |   |   |   |   |   |   Column2044 > 137.0: Happy (22.0/1.0)
|   |   |   |   |   |   |   |   |   |   |   |   |   |   |   Column1617 > 160.0
|   |   |   |   |   |   |   |   |   |   |   |   |   |   |   |   Column1524 <= 128.0
|   |   |   |   |   |   |   |   |   |   |   |   |   |   |   |   |   Column491 <= 65.0: NotHappy (13.0)
|   |   |   |   |   |   |   |   |   |   |   |   |   |   |   |   |   Column491 > 65.0
|   |   |   |   |   |   |   |   |   |   |   |   |   |   |   |   |   |   Column1098 <= 45.0: NotHappy (8.0)
|   |   |   |   |   |   |   |   |   |   |   |   |   |   |   |   |   |   Column1098 > 45.0
|   |   |   |   |   |   |   |   |   |   |   |   |   |   |   |   |   |   |   Column1411 <= 178.0
|   |   |   |   |   |   |   |   |   |   |   |   |   |   |   |   |   |   |   |   Column1801 <= 90.0: NotHappy (3.0)
|   |   |   |   |   |   |   |   |   |   |   |   |   |   |   |   |   |   |   |   Column1801 > 90.0: Happy (33.0/1.0)
|   |   |   |   |   |   |   |   |   |   |   |   |   |   |   |   |   |   |   Column1411 > 178.0
|   |   |   |   |   |   |   |   |   |   |   |   |   |   |   |   |   |   |   |   Column1266 <= 213.0: NotHappy (10.0)
|   |   |   |   |   |   |   |   |   |   |   |   |   |   |   |   |   |   |   |   Column1266 > 213.0: Happy (6.0/1.0)
|   |   |   |   |   |   |   |   |   |   |   |   |   |   |   |   Column1524 > 128.0
|   |   |   |   |   |   |   |   |   |   |   |   |   |   |   |   |   Column1365 <= 81.0: NotHappy (37.0)
|   |   |   |   |   |   |   |   |   |   |   |   |   |   |   |   |   Column1365 > 81.0
|   |   |   |   |   |   |   |   |   |   |   |   |   |   |   |   |   |   Column1170 <= 230.0
|   |   |   |   |   |   |   |   |   |   |   |   |   |   |   |   |   |   |   Column1429 <= 121.0
|   |   |   |   |   |   |   |   |   |   |   |   |   |   |   |   |   |   |   |   Column1280 <= 158.0: NotHappy (8.0)
|   |   |   |   |   |   |   |   |   |   |   |   |   |   |   |   |   |   |   |   Column1280 > 158.0
|   |   |   |   |   |   |   |   |   |   |   |   |   |   |   |   |   |   |   |   |   Column1434 <= 80.0: NotHappy (6.0/1.0)
|   |   |   |   |   |   |   |   |   |   |   |   |   |   |   |   |   |   |   |   |   Column1434 > 80.0: Happy (14.0)
|   |   |   |   |   |   |   |   |   |   |   |   |   |   |   |   |   |   |   Column1429 > 121.0
|   |   |   |   |   |   |   |   |   |   |   |   |   |   |   |   |   |   |   |   Column826 <= 221.0
|   |   |   |   |   |   |   |   |   |   |   |   |   |   |   |   |   |   |   |   |   Column1261 <= 79.0: NotHappy (29.0)
|   |   |   |   |   |   |   |   |   |   |   |   |   |   |   |   |   |   |   |   |   Column1261 > 79.0
|   |   |   |   |   |   |   |   |   |   |   |   |   |   |   |   |   |   |   |   |   |   Column1602 <= 197.0
|   |   |   |   |   |   |   |   |   |   |   |   |   |   |   |   |   |   |   |   |   |   |   Column697 <= 95.0: NotHappy (37.0)
|   |   |   |   |   |   |   |   |   |   |   |   |   |   |   |   |   |   |   |   |   |   |   Column697 > 95.0
|   |   |   |   |   |   |   |   |   |   |   |   |   |   |   |   |   |   |   |   |   |   |   |   Column2135 <= 209.0
|   |   |   |   |   |   |   |   |   |   |   |   |   |   |   |   |   |   |   |   |   |   |   |   |   Column963 <= 112.0
|   |   |   |   |   |   |   |   |   |   |   |   |   |   |   |   |   |   |   |   |   |   |   |   |   |   Column786 <= 189.0
|   |   |   |   |   |   |   |   |   |   |   |   |   |   |   |   |   |   |   |   |   |   |   |   |   |   |   Column1714 <= 157.0
|   |   |   |   |   |   |   |   |   |   |   |   |   |   |   |   |   |   |   |   |   |   |   |   |   |   |   |   Column744 <= 153.0: NotHappy (11.0)
|   |   |   |   |   |   |   |   |   |   |   |   |   |   |   |   |   |   |   |   |   |   |   |   |   |   |   |   Column744 > 153.0
|   |   |   |   |   |   |   |   |   |   |   |   |   |   |   |   |   |   |   |   |   |   |   |   |   |   |   |   |   Column1500 <= 185.0
|   |   |   |   |   |   |   |   |   |   |   |   |   |   |   |   |   |   |   |   |   |   |   |   |   |   |   |   |   |   Column479 <= 205.0
|   |   |   |   |   |   |   |   |   |   |   |   |   |   |   |   |   |   |   |   |   |   |   |   |   |   |   |   |   |   |   Column936 <= 219.0
|   |   |   |   |   |   |   |   |   |   |   |   |   |   |   |   |   |   |   |   |   |   |   |   |   |   |   |   |   |   |   |   Column6 <= 56.0
|   |   |   |   |   |   |   |   |   |   |   |   |   |   |   |   |   |   |   |   |   |   |   |   |   |   |   |   |   |   |   |   |   Column1381 <= 181.0: NotHappy (7.0/1.0)
|   |   |   |   |   |   |   |   |   |   |   |   |   |   |   |   |   |   |   |   |   |   |   |   |   |   |   |   |   |   |   |   |   Column1381 > 181.0: Happy (8.0)
|   |   |   |   |   |   |   |   |   |   |   |   |   |   |   |   |   |   |   |   |   |   |   |   |   |   |   |   |   |   |   |   Column6 > 56.0: Happy (28.0)
|   |   |   |   |   |   |   |   |   |   |   |   |   |   |   |   |   |   |   |   |   |   |   |   |   |   |   |   |   |   |   Column936 > 219.0: NotHappy (3.0)
|   |   |   |   |   |   |   |   |   |   |   |   |   |   |   |   |   |   |   |   |   |   |   |   |   |   |   |   |   |   Column479 > 205.0: NotHappy (6.0)
|   |   |   |   |   |   |   |   |   |   |   |   |   |   |   |   |   |   |   |   |   |   |   |   |   |   |   |   |   Column1500 > 185.0: NotHappy (6.0)
|   |   |   |   |   |   |   |   |   |   |   |   |   |   |   |   |   |   |   |   |   |   |   |   |   |   |   Column1714 > 157.0
|   |   |   |   |   |   |   |   |   |   |   |   |   |   |   |   |   |   |   |   |   |   |   |   |   |   |   |   Column1949 <= 139.0: NotHappy (41.0)
|   |   |   |   |   |   |   |   |   |   |   |   |   |   |   |   |   |   |   |   |   |   |   |   |   |   |   |   Column1949 > 139.0
|   |   |   |   |   |   |   |   |   |   |   |   |   |   |   |   |   |   |   |   |   |   |   |   |   |   |   |   |   Column1363 <= 122.0: NotHappy (27.0)
|   |   |   |   |   |   |   |   |   |   |   |   |   |   |   |   |   |   |   |   |   |   |   |   |   |   |   |   |   Column1363 > 122.0
|   |   |   |   |   |   |   |   |   |   |   |   |   |   |   |   |   |   |   |   |   |   |   |   |   |   |   |   |   |   Column656 <= 177.0
|   |   |   |   |   |   |   |   |   |   |   |   |   |   |   |   |   |   |   |   |   |   |   |   |   |   |   |   |   |   |   Column1409 <= 163.0
|   |   |   |   |   |   |   |   |   |   |   |   |   |   |   |   |   |   |   |   |   |   |   |   |   |   |   |   |   |   |   |   Column1131 <= 200.0
|   |   |   |   |   |   |   |   |   |   |   |   |   |   |   |   |   |   |   |   |   |   |   |   |   |   |   |   |   |   |   |   |   Column1697 <= 96.0: NotHappy (3.0)
|   |   |   |   |   |   |   |   |   |   |   |   |   |   |   |   |   |   |   |   |   |   |   |   |   |   |   |   |   |   |   |   |   Column1697 > 96.0: Happy (14.0/1.0)
|   |   |   |   |   |   |   |   |   |   |   |   |   |   |   |   |   |   |   |   |   |   |   |   |   |   |   |   |   |   |   |   Column1131 > 200.0: NotHappy (12.0)
|   |   |   |   |   |   |   |   |   |   |   |   |   |   |   |   |   |   |   |   |   |   |   |   |   |   |   |   |   |   |   Column1409 > 163.0
|   |   |   |   |   |   |   |   |   |   |   |   |   |   |   |   |   |   |   |   |   |   |   |   |   |   |   |   |   |   |   |   Column924 <= 41.0: Happy (5.0/2.0)
|   |   |   |   |   |   |   |   |   |   |   |   |   |   |   |   |   |   |   |   |   |   |   |   |   |   |   |   |   |   |   |   Column924 > 41.0: NotHappy (63.0/1.0)
|   |   |   |   |   |   |   |   |   |   |   |   |   |   |   |   |   |   |   |   |   |   |   |   |   |   |   |   |   |   Column656 > 177.0
|   |   |   |   |   |   |   |   |   |   |   |   |   |   |   |   |   |   |   |   |   |   |   |   |   |   |   |   |   |   |   Column2092 <= 203.0
|   |   |   |   |   |   |   |   |   |   |   |   |   |   |   |   |   |   |   |   |   |   |   |   |   |   |   |   |   |   |   |   Column1510 <= 169.0
|   |   |   |   |   |   |   |   |   |   |   |   |   |   |   |   |   |   |   |   |   |   |   |   |   |   |   |   |   |   |   |   |   Column1768 <= 200.0
|   |   |   |   |   |   |   |   |   |   |   |   |   |   |   |   |   |   |   |   |   |   |   |   |   |   |   |   |   |   |   |   |   |   Column1572 <= 168.0: Happy (5.0/1.0)
|   |   |   |   |   |   |   |   |   |   |   |   |   |   |   |   |   |   |   |   |   |   |   |   |   |   |   |   |   |   |   |   |   |   Column1572 > 168.0: NotHappy (13.0)
|   |   |   |   |   |   |   |   |   |   |   |   |   |   |   |   |   |   |   |   |   |   |   |   |   |   |   |   |   |   |   |   |   Column1768 > 200.0: Happy (6.0)
|   |   |   |   |   |   |   |   |   |   |   |   |   |   |   |   |   |   |   |   |   |   |   |   |   |   |   |   |   |   |   |   Column1510 > 169.0: Happy (16.0)
|   |   |   |   |   |   |   |   |   |   |   |   |   |   |   |   |   |   |   |   |   |   |   |   |   |   |   |   |   |   |   Column2092 > 203.0: NotHappy (7.0)
|   |   |   |   |   |   |   |   |   |   |   |   |   |   |   |   |   |   |   |   |   |   |   |   |   |   Column786 > 189.0
|   |   |   |   |   |   |   |   |   |   |   |   |   |   |   |   |   |   |   |   |   |   |   |   |   |   |   Column1804 <= 129.0: NotHappy (4.0)
|   |   |   |   |   |   |   |   |   |   |   |   |   |   |   |   |   |   |   |   |   |   |   |   |   |   |   Column1804 > 129.0
|   |   |   |   |   |   |   |   |   |   |   |   |   |   |   |   |   |   |   |   |   |   |   |   |   |   |   |   Column2302 <= 23.0: NotHappy (5.0/1.0)
|   |   |   |   |   |   |   |   |   |   |   |   |   |   |   |   |   |   |   |   |   |   |   |   |   |   |   |   Column2302 > 23.0: Happy (22.0)
|   |   |   |   |   |   |   |   |   |   |   |   |   |   |   |   |   |   |   |   |   |   |   |   |   Column963 > 112.0
|   |   |   |   |   |   |   |   |   |   |   |   |   |   |   |   |   |   |   |   |   |   |   |   |   |   Column1669 <= 110.0
|   |   |   |   |   |   |   |   |   |   |   |   |   |   |   |   |   |   |   |   |   |   |   |   |   |   |   Column1983 <= 155.0: NotHappy (9.0/1.0)
|   |   |   |   |   |   |   |   |   |   |   |   |   |   |   |   |   |   |   |   |   |   |   |   |   |   |   Column1983 > 155.0: Happy (10.0)
|   |   |   |   |   |   |   |   |   |   |   |   |   |   |   |   |   |   |   |   |   |   |   |   |   |   Column1669 > 110.0
|   |   |   |   |   |   |   |   |   |   |   |   |   |   |   |   |   |   |   |   |   |   |   |   |   |   |   Column1892 <= 177.0
|   |   |   |   |   |   |   |   |   |   |   |   |   |   |   |   |   |   |   |   |   |   |   |   |   |   |   |   Column1760 <= 204.0
|   |   |   |   |   |   |   |   |   |   |   |   |   |   |   |   |   |   |   |   |   |   |   |   |   |   |   |   |   Column681 <= 47.0
|   |   |   |   |   |   |   |   |   |   |   |   |   |   |   |   |   |   |   |   |   |   |   |   |   |   |   |   |   |   Column2035 <= 139.0: NotHappy (8.0)
|   |   |   |   |   |   |   |   |   |   |   |   |   |   |   |   |   |   |   |   |   |   |   |   |   |   |   |   |   |   Column2035 > 139.0: Happy (7.0/1.0)
|   |   |   |   |   |   |   |   |   |   |   |   |   |   |   |   |   |   |   |   |   |   |   |   |   |   |   |   |   Column681 > 47.0
|   |   |   |   |   |   |   |   |   |   |   |   |   |   |   |   |   |   |   |   |   |   |   |   |   |   |   |   |   |   Column1706 <= 80.0
|   |   |   |   |   |   |   |   |   |   |   |   |   |   |   |   |   |   |   |   |   |   |   |   |   |   |   |   |   |   |   Column945 <= 95.0: NotHappy (8.0)
|   |   |   |   |   |   |   |   |   |   |   |   |   |   |   |   |   |   |   |   |   |   |   |   |   |   |   |   |   |   |   Column945 > 95.0: Happy (4.0)
|   |   |   |   |   |   |   |   |   |   |   |   |   |   |   |   |   |   |   |   |   |   |   |   |   |   |   |   |   |   Column1706 > 80.0
|   |   |   |   |   |   |   |   |   |   |   |   |   |   |   |   |   |   |   |   |   |   |   |   |   |   |   |   |   |   |   Column420 <= 216.0: NotHappy (191.0/1.0)
|   |   |   |   |   |   |   |   |   |   |   |   |   |   |   |   |   |   |   |   |   |   |   |   |   |   |   |   |   |   |   Column420 > 216.0
|   |   |   |   |   |   |   |   |   |   |   |   |   |   |   |   |   |   |   |   |   |   |   |   |   |   |   |   |   |   |   |   Column39 <= 178.0: Happy (3.0)
|   |   |   |   |   |   |   |   |   |   |   |   |   |   |   |   |   |   |   |   |   |   |   |   |   |   |   |   |   |   |   |   Column39 > 178.0: NotHappy (11.0)
|   |   |   |   |   |   |   |   |   |   |   |   |   |   |   |   |   |   |   |   |   |   |   |   |   |   |   |   Column1760 > 204.0
|   |   |   |   |   |   |   |   |   |   |   |   |   |   |   |   |   |   |   |   |   |   |   |   |   |   |   |   |   Column301 <= 189.0
|   |   |   |   |   |   |   |   |   |   |   |   |   |   |   |   |   |   |   |   |   |   |   |   |   |   |   |   |   |   Column1277 <= 140.0: Happy (2.0)
|   |   |   |   |   |   |   |   |   |   |   |   |   |   |   |   |   |   |   |   |   |   |   |   |   |   |   |   |   |   Column1277 > 140.0
|   |   |   |   |   |   |   |   |   |   |   |   |   |   |   |   |   |   |   |   |   |   |   |   |   |   |   |   |   |   |   Column2106 <= 222.0: NotHappy (21.0)
|   |   |   |   |   |   |   |   |   |   |   |   |   |   |   |   |   |   |   |   |   |   |   |   |   |   |   |   |   |   |   Column2106 > 222.0: Happy (3.0/1.0)
|   |   |   |   |   |   |   |   |   |   |   |   |   |   |   |   |   |   |   |   |   |   |   |   |   |   |   |   |   Column301 > 189.0: Happy (7.0)
|   |   |   |   |   |   |   |   |   |   |   |   |   |   |   |   |   |   |   |   |   |   |   |   |   |   |   Column1892 > 177.0
|   |   |   |   |   |   |   |   |   |   |   |   |   |   |   |   |   |   |   |   |   |   |   |   |   |   |   |   Column1791 <= 176.0
|   |   |   |   |   |   |   |   |   |   |   |   |   |   |   |   |   |   |   |   |   |   |   |   |   |   |   |   |   Column1231 <= 164.0: NotHappy (7.0)
|   |   |   |   |   |   |   |   |   |   |   |   |   |   |   |   |   |   |   |   |   |   |   |   |   |   |   |   |   Column1231 > 164.0
|   |   |   |   |   |   |   |   |   |   |   |   |   |   |   |   |   |   |   |   |   |   |   |   |   |   |   |   |   |   Column1856 <= 188.0
|   |   |   |   |   |   |   |   |   |   |   |   |   |   |   |   |   |   |   |   |   |   |   |   |   |   |   |   |   |   |   Column910 <= 140.0: Happy (15.0)
|   |   |   |   |   |   |   |   |   |   |   |   |   |   |   |   |   |   |   |   |   |   |   |   |   |   |   |   |   |   |   Column910 > 140.0
|   |   |   |   |   |   |   |   |   |   |   |   |   |   |   |   |   |   |   |   |   |   |   |   |   |   |   |   |   |   |   |   Column1384 <= 175.0: NotHappy (5.0)
|   |   |   |   |   |   |   |   |   |   |   |   |   |   |   |   |   |   |   |   |   |   |   |   |   |   |   |   |   |   |   |   Column1384 > 175.0: Happy (5.0)
|   |   |   |   |   |   |   |   |   |   |   |   |   |   |   |   |   |   |   |   |   |   |   |   |   |   |   |   |   |   Column1856 > 188.0: NotHappy (5.0)
|   |   |   |   |   |   |   |   |   |   |   |   |   |   |   |   |   |   |   |   |   |   |   |   |   |   |   |   Column1791 > 176.0
|   |   |   |   |   |   |   |   |   |   |   |   |   |   |   |   |   |   |   |   |   |   |   |   |   |   |   |   |   Column288 <= 25.0: Happy (2.0)
|   |   |   |   |   |   |   |   |   |   |   |   |   |   |   |   |   |   |   |   |   |   |   |   |   |   |   |   |   Column288 > 25.0: NotHappy (35.0)
|   |   |   |   |   |   |   |   |   |   |   |   |   |   |   |   |   |   |   |   |   |   |   |   Column2135 > 209.0
|   |   |   |   |   |   |   |   |   |   |   |   |   |   |   |   |   |   |   |   |   |   |   |   |   Column1036 <= 212.0
|   |   |   |   |   |   |   |   |   |   |   |   |   |   |   |   |   |   |   |   |   |   |   |   |   |   Column569 <= 91.0: NotHappy (4.0)
|   |   |   |   |   |   |   |   |   |   |   |   |   |   |   |   |   |   |   |   |   |   |   |   |   |   Column569 > 91.0
|   |   |   |   |   |   |   |   |   |   |   |   |   |   |   |   |   |   |   |   |   |   |   |   |   |   |   Column1528 <= 219.0: Happy (20.0/1.0)
|   |   |   |   |   |   |   |   |   |   |   |   |   |   |   |   |   |   |   |   |   |   |   |   |   |   |   Column1528 > 219.0: NotHappy (2.0)
|   |   |   |   |   |   |   |   |   |   |   |   |   |   |   |   |   |   |   |   |   |   |   |   |   Column1036 > 212.0: NotHappy (7.0)
|   |   |   |   |   |   |   |   |   |   |   |   |   |   |   |   |   |   |   |   |   |   Column1602 > 197.0
|   |   |   |   |   |   |   |   |   |   |   |   |   |   |   |   |   |   |   |   |   |   |   Column1216 <= 158.0
|   |   |   |   |   |   |   |   |   |   |   |   |   |   |   |   |   |   |   |   |   |   |   |   Column847 <= 176.0: NotHappy (6.0)
|   |   |   |   |   |   |   |   |   |   |   |   |   |   |   |   |   |   |   |   |   |   |   |   Column847 > 176.0: Happy (7.0)
|   |   |   |   |   |   |   |   |   |   |   |   |   |   |   |   |   |   |   |   |   |   |   Column1216 > 158.0
|   |   |   |   |   |   |   |   |   |   |   |   |   |   |   |   |   |   |   |   |   |   |   |   Column2129 <= 188.0
|   |   |   |   |   |   |   |   |   |   |   |   |   |   |   |   |   |   |   |   |   |   |   |   |   Column2190 <= 105.0
|   |   |   |   |   |   |   |   |   |   |   |   |   |   |   |   |   |   |   |   |   |   |   |   |   |   Column343 <= 175.0: NotHappy (14.0/1.0)
|   |   |   |   |   |   |   |   |   |   |   |   |   |   |   |   |   |   |   |   |   |   |   |   |   |   Column343 > 175.0: Happy (3.0)
|   |   |   |   |   |   |   |   |   |   |   |   |   |   |   |   |   |   |   |   |   |   |   |   |   Column2190 > 105.0: NotHappy (131.0)
|   |   |   |   |   |   |   |   |   |   |   |   |   |   |   |   |   |   |   |   |   |   |   |   Column2129 > 188.0
|   |   |   |   |   |   |   |   |   |   |   |   |   |   |   |   |   |   |   |   |   |   |   |   |   Column118 <= 236.0
|   |   |   |   |   |   |   |   |   |   |   |   |   |   |   |   |   |   |   |   |   |   |   |   |   |   Column2265 <= 152.0: NotHappy (33.0)
|   |   |   |   |   |   |   |   |   |   |   |   |   |   |   |   |   |   |   |   |   |   |   |   |   |   Column2265 > 152.0
|   |   |   |   |   |   |   |   |   |   |   |   |   |   |   |   |   |   |   |   |   |   |   |   |   |   |   Column2210 <= 96.0: Happy (5.0)
|   |   |   |   |   |   |   |   |   |   |   |   |   |   |   |   |   |   |   |   |   |   |   |   |   |   |   Column2210 > 96.0
|   |   |   |   |   |   |   |   |   |   |   |   |   |   |   |   |   |   |   |   |   |   |   |   |   |   |   |   Column1406 <= 224.0
|   |   |   |   |   |   |   |   |   |   |   |   |   |   |   |   |   |   |   |   |   |   |   |   |   |   |   |   |   Column1555 <= 197.0: Happy (4.0/1.0)
|   |   |   |   |   |   |   |   |   |   |   |   |   |   |   |   |   |   |   |   |   |   |   |   |   |   |   |   |   Column1555 > 197.0: NotHappy (21.0)
|   |   |   |   |   |   |   |   |   |   |   |   |   |   |   |   |   |   |   |   |   |   |   |   |   |   |   |   Column1406 > 224.0: Happy (3.0)
|   |   |   |   |   |   |   |   |   |   |   |   |   |   |   |   |   |   |   |   |   |   |   |   |   Column118 > 236.0: Happy (4.0)
|   |   |   |   |   |   |   |   |   |   |   |   |   |   |   |   |   |   |   |   Column826 > 221.0
|   |   |   |   |   |   |   |   |   |   |   |   |   |   |   |   |   |   |   |   |   Column700 <= 176.0: NotHappy (9.0)
|   |   |   |   |   |   |   |   |   |   |   |   |   |   |   |   |   |   |   |   |   Column700 > 176.0
|   |   |   |   |   |   |   |   |   |   |   |   |   |   |   |   |   |   |   |   |   |   Column297 <= 73.0: NotHappy (4.0)
|   |   |   |   |   |   |   |   |   |   |   |   |   |   |   |   |   |   |   |   |   |   Column297 > 73.0: Happy (17.0/1.0)
|   |   |   |   |   |   |   |   |   |   |   |   |   |   |   |   |   |   Column1170 > 230.0
|   |   |   |   |   |   |   |   |   |   |   |   |   |   |   |   |   |   |   Column2048 <= 171.0: NotHappy (8.0)
|   |   |   |   |   |   |   |   |   |   |   |   |   |   |   |   |   |   |   Column2048 > 171.0
|   |   |   |   |   |   |   |   |   |   |   |   |   |   |   |   |   |   |   |   Column1607 <= 227.0
|   |   |   |   |   |   |   |   |   |   |   |   |   |   |   |   |   |   |   |   |   Column586 <= 116.0: NotHappy (4.0/1.0)
|   |   |   |   |   |   |   |   |   |   |   |   |   |   |   |   |   |   |   |   |   Column586 > 116.0: Happy (18.0)
|   |   |   |   |   |   |   |   |   |   |   |   |   |   |   |   |   |   |   |   Column1607 > 227.0: NotHappy (4.0)
|   |   |   |   |   |   |   |   |   |   |   |   |   |   Column822 > 253.0: NotHappy (36.0/1.0)
|   |   |   |   |   |   |   |   |   |   |   |   |   Column1899 > 228.0
|   |   |   |   |   |   |   |   |   |   |   |   |   |   Column1317 <= 177.0
|   |   |   |   |   |   |   |   |   |   |   |   |   |   |   Column1468 <= 214.0
|   |   |   |   |   |   |   |   |   |   |   |   |   |   |   |   Column1412 <= 173.0: NotHappy (17.0)
|   |   |   |   |   |   |   |   |   |   |   |   |   |   |   |   Column1412 > 173.0: Happy (4.0/1.0)
|   |   |   |   |   |   |   |   |   |   |   |   |   |   |   Column1468 > 214.0: Happy (4.0)
|   |   |   |   |   |   |   |   |   |   |   |   |   |   Column1317 > 177.0: Happy (29.0/1.0)
|   |   |   |   |   |   |   |   |   Column1801 > 223.0
|   |   |   |   |   |   |   |   |   |   Column1705 <= 211.0
|   |   |   |   |   |   |   |   |   |   |   Column1995 <= 236.0
|   |   |   |   |   |   |   |   |   |   |   |   Column1367 <= 120.0: NotHappy (5.0)
|   |   |   |   |   |   |   |   |   |   |   |   Column1367 > 120.0
|   |   |   |   |   |   |   |   |   |   |   |   |   Column1651 <= 213.0
|   |   |   |   |   |   |   |   |   |   |   |   |   |   Column896 <= 209.0
|   |   |   |   |   |   |   |   |   |   |   |   |   |   |   Column12 <= 112.0
|   |   |   |   |   |   |   |   |   |   |   |   |   |   |   |   Column524 <= 139.0
|   |   |   |   |   |   |   |   |   |   |   |   |   |   |   |   |   Column1348 <= 20.0: NotHappy (2.0)
|   |   |   |   |   |   |   |   |   |   |   |   |   |   |   |   |   Column1348 > 20.0: Happy (17.0)
|   |   |   |   |   |   |   |   |   |   |   |   |   |   |   |   Column524 > 139.0: NotHappy (3.0)
|   |   |   |   |   |   |   |   |   |   |   |   |   |   |   Column12 > 112.0: Happy (39.0)
|   |   |   |   |   |   |   |   |   |   |   |   |   |   Column896 > 209.0: NotHappy (5.0/1.0)
|   |   |   |   |   |   |   |   |   |   |   |   |   Column1651 > 213.0: NotHappy (6.0/1.0)
|   |   |   |   |   |   |   |   |   |   |   Column1995 > 236.0: NotHappy (6.0)
|   |   |   |   |   |   |   |   |   |   Column1705 > 211.0: NotHappy (16.0/1.0)
|   |   |   |   |   |   |   Column1703 > 235.0
|   |   |   |   |   |   |   |   Column1942 <= 140.0: NotHappy (4.0)
|   |   |   |   |   |   |   |   Column1942 > 140.0
|   |   |   |   |   |   |   |   |   Column2291 <= 214.0: Happy (18.0)
|   |   |   |   |   |   |   |   |   Column2291 > 214.0: NotHappy (3.0)
|   |   |   |   |   |   Column1752 > 231.0
|   |   |   |   |   |   |   Column1993 <= 226.0
|   |   |   |   |   |   |   |   Column1890 <= 121.0
|   |   |   |   |   |   |   |   |   Column1842 <= 53.0: Happy (3.0)
|   |   |   |   |   |   |   |   |   Column1842 > 53.0: NotHappy (11.0)
|   |   |   |   |   |   |   |   Column1890 > 121.0
|   |   |   |   |   |   |   |   |   Column1622 <= 48.0: NotHappy (4.0)
|   |   |   |   |   |   |   |   |   Column1622 > 48.0
|   |   |   |   |   |   |   |   |   |   Column1391 <= 248.0
|   |   |   |   |   |   |   |   |   |   |   Column787 <= 65.0
|   |   |   |   |   |   |   |   |   |   |   |   Column335 <= 165.0: Happy (4.0)
|   |   |   |   |   |   |   |   |   |   |   |   Column335 > 165.0: NotHappy (3.0)
|   |   |   |   |   |   |   |   |   |   |   Column787 > 65.0: Happy (44.0)
|   |   |   |   |   |   |   |   |   |   Column1391 > 248.0: NotHappy (3.0)
|   |   |   |   |   |   |   Column1993 > 226.0: NotHappy (10.0)
|   |   |   |   Column1645 > 209.0
|   |   |   |   |   Column1549 <= 158.0
|   |   |   |   |   |   Column1224 <= 177.0: Happy (12.0/1.0)
|   |   |   |   |   |   Column1224 > 177.0
|   |   |   |   |   |   |   Column39 <= 15.0: Happy (3.0)
|   |   |   |   |   |   |   Column39 > 15.0: NotHappy (17.0/1.0)
|   |   |   |   |   Column1549 > 158.0
|   |   |   |   |   |   Column2042 <= 199.0
|   |   |   |   |   |   |   Column707 <= 184.0
|   |   |   |   |   |   |   |   Column1484 <= 13.0
|   |   |   |   |   |   |   |   |   Column1077 <= 188.0: Happy (4.0)
|   |   |   |   |   |   |   |   |   Column1077 > 188.0: NotHappy (11.0)
|   |   |   |   |   |   |   |   Column1484 > 13.0
|   |   |   |   |   |   |   |   |   Column1697 <= 190.0
|   |   |   |   |   |   |   |   |   |   Column789 <= 196.0: NotHappy (50.0)
|   |   |   |   |   |   |   |   |   |   Column789 > 196.0
|   |   |   |   |   |   |   |   |   |   |   Column939 <= 179.0
|   |   |   |   |   |   |   |   |   |   |   |   Column1809 <= 131.0: NotHappy (3.0)
|   |   |   |   |   |   |   |   |   |   |   |   Column1809 > 131.0: Happy (5.0)
|   |   |   |   |   |   |   |   |   |   |   Column939 > 179.0: NotHappy (15.0)
|   |   |   |   |   |   |   |   |   Column1697 > 190.0: NotHappy (175.0)
|   |   |   |   |   |   |   Column707 > 184.0
|   |   |   |   |   |   |   |   Column1489 <= 42.0: Happy (6.0/1.0)
|   |   |   |   |   |   |   |   Column1489 > 42.0
|   |   |   |   |   |   |   |   |   Column1937 <= 239.0
|   |   |   |   |   |   |   |   |   |   Column1668 <= 86.0
|   |   |   |   |   |   |   |   |   |   |   Column745 <= 209.0: Happy (4.0)
|   |   |   |   |   |   |   |   |   |   |   Column745 > 209.0: NotHappy (2.0)
|   |   |   |   |   |   |   |   |   |   Column1668 > 86.0
|   |   |   |   |   |   |   |   |   |   |   Column1902 <= 85.0
|   |   |   |   |   |   |   |   |   |   |   |   Column18 <= 235.0: NotHappy (3.0)
|   |   |   |   |   |   |   |   |   |   |   |   Column18 > 235.0: Happy (3.0)
|   |   |   |   |   |   |   |   |   |   |   Column1902 > 85.0: NotHappy (63.0/1.0)
|   |   |   |   |   |   |   |   |   Column1937 > 239.0: Happy (5.0/1.0)
|   |   |   |   |   |   Column2042 > 199.0
|   |   |   |   |   |   |   Column1755 <= 159.0: NotHappy (43.0/1.0)
|   |   |   |   |   |   |   Column1755 > 159.0
|   |   |   |   |   |   |   |   Column1575 <= 230.0
|   |   |   |   |   |   |   |   |   Column732 <= 223.0
|   |   |   |   |   |   |   |   |   |   Column2092 <= 193.0: NotHappy (17.0)
|   |   |   |   |   |   |   |   |   |   Column2092 > 193.0
|   |   |   |   |   |   |   |   |   |   |   Column1930 <= 134.0: Happy (12.0/1.0)
|   |   |   |   |   |   |   |   |   |   |   Column1930 > 134.0
|   |   |   |   |   |   |   |   |   |   |   |   Column2138 <= 240.0
|   |   |   |   |   |   |   |   |   |   |   |   |   Column1126 <= 175.0: Happy (2.0)
|   |   |   |   |   |   |   |   |   |   |   |   |   Column1126 > 175.0: NotHappy (22.0/1.0)
|   |   |   |   |   |   |   |   |   |   |   |   Column2138 > 240.0: Happy (3.0)
|   |   |   |   |   |   |   |   |   Column732 > 223.0
|   |   |   |   |   |   |   |   |   |   Column1363 <= 241.0: Happy (22.0/1.0)
|   |   |   |   |   |   |   |   |   |   Column1363 > 241.0: NotHappy (4.0)
|   |   |   |   |   |   |   |   Column1575 > 230.0: NotHappy (18.0)

Number of Leaves  : 	434

Size of the tree : 	867


Time taken to build model: 50.82 seconds

=== Stratified cross-validation ===
=== Summary ===

Correctly Classified Instances        4666               67.9383 %
Incorrectly Classified Instances      2202               32.0617 %
Kappa statistic                          0.1726
Mean absolute error                      0.3214
Root mean squared error                  0.5582
Relative absolute error                 82.9759 %
Root relative squared error            126.8367 %
Total Number of Instances             6868     

=== Detailed Accuracy By Class ===

                 TP Rate  FP Rate  Precision  Recall   F-Measure  MCC      ROC Area  PRC Area  Class
                 0.782    0.610    0.783      0.782    0.783      0.173    0.586     0.775     NotHappy
                 0.390    0.218    0.390      0.390    0.390      0.173    0.586     0.322     Happy
Weighted Avg.    0.679    0.507    0.679      0.679    0.679      0.173    0.586     0.656     

=== Confusion Matrix ===

    a    b   <-- classified as
 3962 1102 |    a = NotHappy
 1100  704 |    b = Happy

