=== Run information ===

Scheme:       weka.classifiers.trees.J48 -C 0.25 -M 2
Relation:     fer2017-training-happy-weka.filters.unsupervised.instance.RemoveDuplicates-weka.filters.unsupervised.instance.RemovePercentage-P50.0-weka.filters.unsupervised.instance.RemovePercentage-P50.0
Instances:    7399
Attributes:   2305
              [list of attributes omitted]
Test mode:    10-fold cross-validation

=== Classifier model (full training set) ===

J48 pruned tree
------------------

Column1195 <= 0: NotHappy (41.0)
Column1195 > 0
|   Column1895 <= 92
|   |   Column1799 <= 223
|   |   |   Column1414 <= 22: NotHappy (56.0)
|   |   |   Column1414 > 22
|   |   |   |   Column1373 <= 226
|   |   |   |   |   Column1665 <= 54
|   |   |   |   |   |   Column1942 <= 16: NotHappy (25.0)
|   |   |   |   |   |   Column1942 > 16
|   |   |   |   |   |   |   Column1021 <= 95
|   |   |   |   |   |   |   |   Column1949 <= 60
|   |   |   |   |   |   |   |   |   Column282 <= 197
|   |   |   |   |   |   |   |   |   |   Column936 <= 27: Happy (4.0)
|   |   |   |   |   |   |   |   |   |   Column936 > 27
|   |   |   |   |   |   |   |   |   |   |   Column1552 <= 67
|   |   |   |   |   |   |   |   |   |   |   |   Column644 <= 66: NotHappy (15.0)
|   |   |   |   |   |   |   |   |   |   |   |   Column644 > 66
|   |   |   |   |   |   |   |   |   |   |   |   |   Column787 <= 69: Happy (7.0)
|   |   |   |   |   |   |   |   |   |   |   |   |   Column787 > 69
|   |   |   |   |   |   |   |   |   |   |   |   |   |   Column1756 <= 34: Happy (2.0)
|   |   |   |   |   |   |   |   |   |   |   |   |   |   Column1756 > 34: NotHappy (6.0)
|   |   |   |   |   |   |   |   |   |   |   Column1552 > 67: NotHappy (31.0)
|   |   |   |   |   |   |   |   |   Column282 > 197: Happy (6.0)
|   |   |   |   |   |   |   |   Column1949 > 60
|   |   |   |   |   |   |   |   |   Column2085 <= 51
|   |   |   |   |   |   |   |   |   |   Column1407 <= 64: Happy (5.0)
|   |   |   |   |   |   |   |   |   |   Column1407 > 64: NotHappy (8.0)
|   |   |   |   |   |   |   |   |   Column2085 > 51
|   |   |   |   |   |   |   |   |   |   Column2250 <= 135: Happy (32.0)
|   |   |   |   |   |   |   |   |   |   Column2250 > 135
|   |   |   |   |   |   |   |   |   |   |   Column753 <= 90: Happy (3.0)
|   |   |   |   |   |   |   |   |   |   |   Column753 > 90: NotHappy (4.0)
|   |   |   |   |   |   |   Column1021 > 95
|   |   |   |   |   |   |   |   Column27 <= 14: Happy (6.0/1.0)
|   |   |   |   |   |   |   |   Column27 > 14
|   |   |   |   |   |   |   |   |   Column1009 <= 107: NotHappy (49.0)
|   |   |   |   |   |   |   |   |   Column1009 > 107
|   |   |   |   |   |   |   |   |   |   Column1114 <= 87: Happy (4.0)
|   |   |   |   |   |   |   |   |   |   Column1114 > 87
|   |   |   |   |   |   |   |   |   |   |   Column1751 <= 71
|   |   |   |   |   |   |   |   |   |   |   |   Column1240 <= 102: Happy (9.0/1.0)
|   |   |   |   |   |   |   |   |   |   |   |   Column1240 > 102
|   |   |   |   |   |   |   |   |   |   |   |   |   Column1758 <= 86: NotHappy (16.0)
|   |   |   |   |   |   |   |   |   |   |   |   |   Column1758 > 86: Happy (2.0)
|   |   |   |   |   |   |   |   |   |   |   Column1751 > 71: NotHappy (27.0)
|   |   |   |   |   Column1665 > 54
|   |   |   |   |   |   Column465 <= 25: NotHappy (64.0)
|   |   |   |   |   |   Column465 > 25
|   |   |   |   |   |   |   Column2183 <= 191
|   |   |   |   |   |   |   |   Column734 <= 14: NotHappy (51.0)
|   |   |   |   |   |   |   |   Column734 > 14
|   |   |   |   |   |   |   |   |   Column749 <= 57
|   |   |   |   |   |   |   |   |   |   Column1950 <= 131
|   |   |   |   |   |   |   |   |   |   |   Column583 <= 27
|   |   |   |   |   |   |   |   |   |   |   |   Column492 <= 135: NotHappy (36.0/1.0)
|   |   |   |   |   |   |   |   |   |   |   |   Column492 > 135: Happy (3.0)
|   |   |   |   |   |   |   |   |   |   |   Column583 > 27: NotHappy (142.0)
|   |   |   |   |   |   |   |   |   |   Column1950 > 131
|   |   |   |   |   |   |   |   |   |   |   Column661 <= 58
|   |   |   |   |   |   |   |   |   |   |   |   Column852 <= 48: NotHappy (2.0)
|   |   |   |   |   |   |   |   |   |   |   |   Column852 > 48: Happy (8.0)
|   |   |   |   |   |   |   |   |   |   |   Column661 > 58: NotHappy (24.0)
|   |   |   |   |   |   |   |   |   Column749 > 57
|   |   |   |   |   |   |   |   |   |   Column1699 <= 129
|   |   |   |   |   |   |   |   |   |   |   Column1799 <= 142
|   |   |   |   |   |   |   |   |   |   |   |   Column1584 <= 246
|   |   |   |   |   |   |   |   |   |   |   |   |   Column136 <= 226
|   |   |   |   |   |   |   |   |   |   |   |   |   |   Column1180 <= 209
|   |   |   |   |   |   |   |   |   |   |   |   |   |   |   Column751 <= 171
|   |   |   |   |   |   |   |   |   |   |   |   |   |   |   |   Column892 <= 42: NotHappy (30.0)
|   |   |   |   |   |   |   |   |   |   |   |   |   |   |   |   Column892 > 42
|   |   |   |   |   |   |   |   |   |   |   |   |   |   |   |   |   Column1941 <= 110
|   |   |   |   |   |   |   |   |   |   |   |   |   |   |   |   |   |   Column1187 <= 186
|   |   |   |   |   |   |   |   |   |   |   |   |   |   |   |   |   |   |   Column31 <= 192
|   |   |   |   |   |   |   |   |   |   |   |   |   |   |   |   |   |   |   |   Column1760 <= 144
|   |   |   |   |   |   |   |   |   |   |   |   |   |   |   |   |   |   |   |   |   Column1618 <= 122
|   |   |   |   |   |   |   |   |   |   |   |   |   |   |   |   |   |   |   |   |   |   Column1043 <= 165
|   |   |   |   |   |   |   |   |   |   |   |   |   |   |   |   |   |   |   |   |   |   |   Column827 <= 33
|   |   |   |   |   |   |   |   |   |   |   |   |   |   |   |   |   |   |   |   |   |   |   |   Column1812 <= 85: NotHappy (4.0)
|   |   |   |   |   |   |   |   |   |   |   |   |   |   |   |   |   |   |   |   |   |   |   |   Column1812 > 85: Happy (8.0)
|   |   |   |   |   |   |   |   |   |   |   |   |   |   |   |   |   |   |   |   |   |   |   Column827 > 33
|   |   |   |   |   |   |   |   |   |   |   |   |   |   |   |   |   |   |   |   |   |   |   |   Column992 <= 83
|   |   |   |   |   |   |   |   |   |   |   |   |   |   |   |   |   |   |   |   |   |   |   |   |   Column2015 <= 7: Happy (6.0)
|   |   |   |   |   |   |   |   |   |   |   |   |   |   |   |   |   |   |   |   |   |   |   |   |   Column2015 > 7
|   |   |   |   |   |   |   |   |   |   |   |   |   |   |   |   |   |   |   |   |   |   |   |   |   |   Column2040 <= 112
|   |   |   |   |   |   |   |   |   |   |   |   |   |   |   |   |   |   |   |   |   |   |   |   |   |   |   Column233 <= 140
|   |   |   |   |   |   |   |   |   |   |   |   |   |   |   |   |   |   |   |   |   |   |   |   |   |   |   |   Column733 <= 73
|   |   |   |   |   |   |   |   |   |   |   |   |   |   |   |   |   |   |   |   |   |   |   |   |   |   |   |   |   Column1694 <= 86
|   |   |   |   |   |   |   |   |   |   |   |   |   |   |   |   |   |   |   |   |   |   |   |   |   |   |   |   |   |   Column637 <= 88
|   |   |   |   |   |   |   |   |   |   |   |   |   |   |   |   |   |   |   |   |   |   |   |   |   |   |   |   |   |   |   Column1571 <= 51: Happy (2.0)
|   |   |   |   |   |   |   |   |   |   |   |   |   |   |   |   |   |   |   |   |   |   |   |   |   |   |   |   |   |   |   Column1571 > 51: NotHappy (26.0)
|   |   |   |   |   |   |   |   |   |   |   |   |   |   |   |   |   |   |   |   |   |   |   |   |   |   |   |   |   |   Column637 > 88: Happy (2.0)
|   |   |   |   |   |   |   |   |   |   |   |   |   |   |   |   |   |   |   |   |   |   |   |   |   |   |   |   |   Column1694 > 86: Happy (5.0)
|   |   |   |   |   |   |   |   |   |   |   |   |   |   |   |   |   |   |   |   |   |   |   |   |   |   |   |   Column733 > 73: NotHappy (45.0)
|   |   |   |   |   |   |   |   |   |   |   |   |   |   |   |   |   |   |   |   |   |   |   |   |   |   |   Column233 > 140
|   |   |   |   |   |   |   |   |   |   |   |   |   |   |   |   |   |   |   |   |   |   |   |   |   |   |   |   Column2278 <= 49: NotHappy (4.0)
|   |   |   |   |   |   |   |   |   |   |   |   |   |   |   |   |   |   |   |   |   |   |   |   |   |   |   |   Column2278 > 49: Happy (7.0)
|   |   |   |   |   |   |   |   |   |   |   |   |   |   |   |   |   |   |   |   |   |   |   |   |   |   Column2040 > 112: Happy (6.0/1.0)
|   |   |   |   |   |   |   |   |   |   |   |   |   |   |   |   |   |   |   |   |   |   |   |   Column992 > 83
|   |   |   |   |   |   |   |   |   |   |   |   |   |   |   |   |   |   |   |   |   |   |   |   |   Column1416 <= 64
|   |   |   |   |   |   |   |   |   |   |   |   |   |   |   |   |   |   |   |   |   |   |   |   |   |   Column503 <= 57: Happy (5.0)
|   |   |   |   |   |   |   |   |   |   |   |   |   |   |   |   |   |   |   |   |   |   |   |   |   |   Column503 > 57: NotHappy (10.0)
|   |   |   |   |   |   |   |   |   |   |   |   |   |   |   |   |   |   |   |   |   |   |   |   |   Column1416 > 64: NotHappy (109.0/1.0)
|   |   |   |   |   |   |   |   |   |   |   |   |   |   |   |   |   |   |   |   |   |   Column1043 > 165
|   |   |   |   |   |   |   |   |   |   |   |   |   |   |   |   |   |   |   |   |   |   |   Column296 <= 135: Happy (9.0)
|   |   |   |   |   |   |   |   |   |   |   |   |   |   |   |   |   |   |   |   |   |   |   Column296 > 135: NotHappy (6.0)
|   |   |   |   |   |   |   |   |   |   |   |   |   |   |   |   |   |   |   |   |   Column1618 > 122
|   |   |   |   |   |   |   |   |   |   |   |   |   |   |   |   |   |   |   |   |   |   Column648 <= 168: NotHappy (112.0/1.0)
|   |   |   |   |   |   |   |   |   |   |   |   |   |   |   |   |   |   |   |   |   |   Column648 > 168
|   |   |   |   |   |   |   |   |   |   |   |   |   |   |   |   |   |   |   |   |   |   |   Column993 <= 108: Happy (3.0)
|   |   |   |   |   |   |   |   |   |   |   |   |   |   |   |   |   |   |   |   |   |   |   Column993 > 108: NotHappy (8.0)
|   |   |   |   |   |   |   |   |   |   |   |   |   |   |   |   |   |   |   |   Column1760 > 144
|   |   |   |   |   |   |   |   |   |   |   |   |   |   |   |   |   |   |   |   |   Column1718 <= 125
|   |   |   |   |   |   |   |   |   |   |   |   |   |   |   |   |   |   |   |   |   |   Column1989 <= 115: Happy (12.0)
|   |   |   |   |   |   |   |   |   |   |   |   |   |   |   |   |   |   |   |   |   |   Column1989 > 115: NotHappy (2.0)
|   |   |   |   |   |   |   |   |   |   |   |   |   |   |   |   |   |   |   |   |   Column1718 > 125
|   |   |   |   |   |   |   |   |   |   |   |   |   |   |   |   |   |   |   |   |   |   Column1368 <= 59: Happy (3.0)
|   |   |   |   |   |   |   |   |   |   |   |   |   |   |   |   |   |   |   |   |   |   Column1368 > 59
|   |   |   |   |   |   |   |   |   |   |   |   |   |   |   |   |   |   |   |   |   |   |   Column1795 <= 94: NotHappy (25.0)
|   |   |   |   |   |   |   |   |   |   |   |   |   |   |   |   |   |   |   |   |   |   |   Column1795 > 94
|   |   |   |   |   |   |   |   |   |   |   |   |   |   |   |   |   |   |   |   |   |   |   |   Column903 <= 116: NotHappy (5.0)
|   |   |   |   |   |   |   |   |   |   |   |   |   |   |   |   |   |   |   |   |   |   |   |   Column903 > 116: Happy (5.0)
|   |   |   |   |   |   |   |   |   |   |   |   |   |   |   |   |   |   |   Column31 > 192
|   |   |   |   |   |   |   |   |   |   |   |   |   |   |   |   |   |   |   |   Column261 <= 190
|   |   |   |   |   |   |   |   |   |   |   |   |   |   |   |   |   |   |   |   |   Column1413 <= 153: Happy (13.0)
|   |   |   |   |   |   |   |   |   |   |   |   |   |   |   |   |   |   |   |   |   Column1413 > 153: NotHappy (5.0/1.0)
|   |   |   |   |   |   |   |   |   |   |   |   |   |   |   |   |   |   |   |   Column261 > 190: NotHappy (8.0)
|   |   |   |   |   |   |   |   |   |   |   |   |   |   |   |   |   |   Column1187 > 186: NotHappy (34.0)
|   |   |   |   |   |   |   |   |   |   |   |   |   |   |   |   |   Column1941 > 110
|   |   |   |   |   |   |   |   |   |   |   |   |   |   |   |   |   |   Column405 <= 189
|   |   |   |   |   |   |   |   |   |   |   |   |   |   |   |   |   |   |   Column1763 <= 54: Happy (5.0)
|   |   |   |   |   |   |   |   |   |   |   |   |   |   |   |   |   |   |   Column1763 > 54
|   |   |   |   |   |   |   |   |   |   |   |   |   |   |   |   |   |   |   |   Column1801 <= 135
|   |   |   |   |   |   |   |   |   |   |   |   |   |   |   |   |   |   |   |   |   Column1568 <= 121
|   |   |   |   |   |   |   |   |   |   |   |   |   |   |   |   |   |   |   |   |   |   Column1448 <= 96: NotHappy (11.0)
|   |   |   |   |   |   |   |   |   |   |   |   |   |   |   |   |   |   |   |   |   |   Column1448 > 96
|   |   |   |   |   |   |   |   |   |   |   |   |   |   |   |   |   |   |   |   |   |   |   Column626 <= 44: NotHappy (3.0)
|   |   |   |   |   |   |   |   |   |   |   |   |   |   |   |   |   |   |   |   |   |   |   Column626 > 44: Happy (13.0/1.0)
|   |   |   |   |   |   |   |   |   |   |   |   |   |   |   |   |   |   |   |   |   Column1568 > 121: NotHappy (34.0/1.0)
|   |   |   |   |   |   |   |   |   |   |   |   |   |   |   |   |   |   |   |   Column1801 > 135: Happy (4.0)
|   |   |   |   |   |   |   |   |   |   |   |   |   |   |   |   |   |   Column405 > 189: Happy (8.0)
|   |   |   |   |   |   |   |   |   |   |   |   |   |   |   Column751 > 171: NotHappy (74.0/1.0)
|   |   |   |   |   |   |   |   |   |   |   |   |   |   Column1180 > 209
|   |   |   |   |   |   |   |   |   |   |   |   |   |   |   Column2219 <= 113
|   |   |   |   |   |   |   |   |   |   |   |   |   |   |   |   Column170 <= 79: Happy (4.0)
|   |   |   |   |   |   |   |   |   |   |   |   |   |   |   |   Column170 > 79
|   |   |   |   |   |   |   |   |   |   |   |   |   |   |   |   |   Column359 <= 223
|   |   |   |   |   |   |   |   |   |   |   |   |   |   |   |   |   |   Column2119 <= 10: Happy (3.0/1.0)
|   |   |   |   |   |   |   |   |   |   |   |   |   |   |   |   |   |   Column2119 > 10: NotHappy (20.0)
|   |   |   |   |   |   |   |   |   |   |   |   |   |   |   |   |   Column359 > 223: Happy (2.0)
|   |   |   |   |   |   |   |   |   |   |   |   |   |   |   Column2219 > 113: Happy (10.0)
|   |   |   |   |   |   |   |   |   |   |   |   |   Column136 > 226
|   |   |   |   |   |   |   |   |   |   |   |   |   |   Column1461 <= 81: NotHappy (8.0)
|   |   |   |   |   |   |   |   |   |   |   |   |   |   Column1461 > 81
|   |   |   |   |   |   |   |   |   |   |   |   |   |   |   Column542 <= 204
|   |   |   |   |   |   |   |   |   |   |   |   |   |   |   |   Column1970 <= 25: NotHappy (3.0)
|   |   |   |   |   |   |   |   |   |   |   |   |   |   |   |   Column1970 > 25: Happy (16.0)
|   |   |   |   |   |   |   |   |   |   |   |   |   |   |   Column542 > 204: NotHappy (4.0)
|   |   |   |   |   |   |   |   |   |   |   |   Column1584 > 246: NotHappy (34.0)
|   |   |   |   |   |   |   |   |   |   |   Column1799 > 142
|   |   |   |   |   |   |   |   |   |   |   |   Column1942 <= 43: NotHappy (13.0)
|   |   |   |   |   |   |   |   |   |   |   |   Column1942 > 43
|   |   |   |   |   |   |   |   |   |   |   |   |   Column1760 <= 163
|   |   |   |   |   |   |   |   |   |   |   |   |   |   Column1219 <= 88: NotHappy (4.0)
|   |   |   |   |   |   |   |   |   |   |   |   |   |   Column1219 > 88
|   |   |   |   |   |   |   |   |   |   |   |   |   |   |   Column708 <= 84: NotHappy (4.0/1.0)
|   |   |   |   |   |   |   |   |   |   |   |   |   |   |   Column708 > 84: Happy (27.0)
|   |   |   |   |   |   |   |   |   |   |   |   |   Column1760 > 163: NotHappy (8.0)
|   |   |   |   |   |   |   |   |   |   Column1699 > 129
|   |   |   |   |   |   |   |   |   |   |   Column1891 <= 29
|   |   |   |   |   |   |   |   |   |   |   |   Column1807 <= 42: Happy (5.0)
|   |   |   |   |   |   |   |   |   |   |   |   Column1807 > 42
|   |   |   |   |   |   |   |   |   |   |   |   |   Column1458 <= 109: Happy (6.0/1.0)
|   |   |   |   |   |   |   |   |   |   |   |   |   Column1458 > 109: NotHappy (27.0/1.0)
|   |   |   |   |   |   |   |   |   |   |   Column1891 > 29
|   |   |   |   |   |   |   |   |   |   |   |   Column725 <= 65: NotHappy (86.0)
|   |   |   |   |   |   |   |   |   |   |   |   Column725 > 65
|   |   |   |   |   |   |   |   |   |   |   |   |   Column1061 <= 64
|   |   |   |   |   |   |   |   |   |   |   |   |   |   Column926 <= 148
|   |   |   |   |   |   |   |   |   |   |   |   |   |   |   Column723 <= 52: Happy (2.0)
|   |   |   |   |   |   |   |   |   |   |   |   |   |   |   Column723 > 52: NotHappy (10.0)
|   |   |   |   |   |   |   |   |   |   |   |   |   |   Column926 > 148: Happy (7.0)
|   |   |   |   |   |   |   |   |   |   |   |   |   Column1061 > 64
|   |   |   |   |   |   |   |   |   |   |   |   |   |   Column1407 <= 140
|   |   |   |   |   |   |   |   |   |   |   |   |   |   |   Column1795 <= 182
|   |   |   |   |   |   |   |   |   |   |   |   |   |   |   |   Column434 <= 140
|   |   |   |   |   |   |   |   |   |   |   |   |   |   |   |   |   Column2178 <= 147
|   |   |   |   |   |   |   |   |   |   |   |   |   |   |   |   |   |   Column109 <= 142: NotHappy (15.0)
|   |   |   |   |   |   |   |   |   |   |   |   |   |   |   |   |   |   Column109 > 142: Happy (4.0/1.0)
|   |   |   |   |   |   |   |   |   |   |   |   |   |   |   |   |   Column2178 > 147: Happy (5.0)
|   |   |   |   |   |   |   |   |   |   |   |   |   |   |   |   Column434 > 140: NotHappy (28.0)
|   |   |   |   |   |   |   |   |   |   |   |   |   |   |   Column1795 > 182: Happy (4.0)
|   |   |   |   |   |   |   |   |   |   |   |   |   |   Column1407 > 140
|   |   |   |   |   |   |   |   |   |   |   |   |   |   |   Column1753 <= 190
|   |   |   |   |   |   |   |   |   |   |   |   |   |   |   |   Column1895 <= 89
|   |   |   |   |   |   |   |   |   |   |   |   |   |   |   |   |   Column79 <= 33
|   |   |   |   |   |   |   |   |   |   |   |   |   |   |   |   |   |   Column174 <= 110: NotHappy (9.0)
|   |   |   |   |   |   |   |   |   |   |   |   |   |   |   |   |   |   Column174 > 110: Happy (2.0)
|   |   |   |   |   |   |   |   |   |   |   |   |   |   |   |   |   Column79 > 33: NotHappy (207.0)
|   |   |   |   |   |   |   |   |   |   |   |   |   |   |   |   Column1895 > 89
|   |   |   |   |   |   |   |   |   |   |   |   |   |   |   |   |   Column1138 <= 91: Happy (3.0)
|   |   |   |   |   |   |   |   |   |   |   |   |   |   |   |   |   Column1138 > 91: NotHappy (13.0)
|   |   |   |   |   |   |   |   |   |   |   |   |   |   |   Column1753 > 190
|   |   |   |   |   |   |   |   |   |   |   |   |   |   |   |   Column678 <= 147: Happy (5.0)
|   |   |   |   |   |   |   |   |   |   |   |   |   |   |   |   Column678 > 147: NotHappy (20.0/1.0)
|   |   |   |   |   |   |   Column2183 > 191: NotHappy (86.0/1.0)
|   |   |   |   Column1373 > 226: NotHappy (53.0)
|   |   Column1799 > 223
|   |   |   Column1374 <= 148: NotHappy (11.0)
|   |   |   Column1374 > 148
|   |   |   |   Column1516 <= 123: NotHappy (3.0)
|   |   |   |   Column1516 > 123
|   |   |   |   |   Column1190 <= 235: Happy (14.0)
|   |   |   |   |   Column1190 > 235: NotHappy (2.0)
|   Column1895 > 92
|   |   Column1645 <= 209
|   |   |   Column1993 <= 76
|   |   |   |   Column1408 <= 93
|   |   |   |   |   Column1525 <= 151
|   |   |   |   |   |   Column848 <= 17: NotHappy (7.0)
|   |   |   |   |   |   Column848 > 17
|   |   |   |   |   |   |   Column685 <= 64: Happy (12.0)
|   |   |   |   |   |   |   Column685 > 64
|   |   |   |   |   |   |   |   Column639 <= 99: NotHappy (9.0)
|   |   |   |   |   |   |   |   Column639 > 99
|   |   |   |   |   |   |   |   |   Column1140 <= 137: NotHappy (2.0)
|   |   |   |   |   |   |   |   |   Column1140 > 137: Happy (9.0)
|   |   |   |   |   Column1525 > 151: NotHappy (19.0)
|   |   |   |   Column1408 > 93
|   |   |   |   |   Column738 <= 194
|   |   |   |   |   |   Column1897 <= 194
|   |   |   |   |   |   |   Column1649 <= 61
|   |   |   |   |   |   |   |   Column2143 <= 126
|   |   |   |   |   |   |   |   |   Column1794 <= 99: NotHappy (11.0)
|   |   |   |   |   |   |   |   |   Column1794 > 99: Happy (2.0)
|   |   |   |   |   |   |   |   Column2143 > 126: Happy (5.0)
|   |   |   |   |   |   |   Column1649 > 61
|   |   |   |   |   |   |   |   Column739 <= 103: NotHappy (150.0)
|   |   |   |   |   |   |   |   Column739 > 103
|   |   |   |   |   |   |   |   |   Column1907 <= 103
|   |   |   |   |   |   |   |   |   |   Column2222 <= 76: NotHappy (26.0/1.0)
|   |   |   |   |   |   |   |   |   |   Column2222 > 76
|   |   |   |   |   |   |   |   |   |   |   Column1693 <= 103: Happy (6.0)
|   |   |   |   |   |   |   |   |   |   |   Column1693 > 103
|   |   |   |   |   |   |   |   |   |   |   |   Column1573 <= 35: Happy (4.0)
|   |   |   |   |   |   |   |   |   |   |   |   Column1573 > 35
|   |   |   |   |   |   |   |   |   |   |   |   |   Column1889 <= 115
|   |   |   |   |   |   |   |   |   |   |   |   |   |   Column783 <= 134: NotHappy (4.0)
|   |   |   |   |   |   |   |   |   |   |   |   |   |   Column783 > 134: Happy (6.0)
|   |   |   |   |   |   |   |   |   |   |   |   |   Column1889 > 115: NotHappy (19.0)
|   |   |   |   |   |   |   |   |   Column1907 > 103
|   |   |   |   |   |   |   |   |   |   Column701 <= 200: NotHappy (91.0)
|   |   |   |   |   |   |   |   |   |   Column701 > 200
|   |   |   |   |   |   |   |   |   |   |   Column503 <= 223: NotHappy (3.0)
|   |   |   |   |   |   |   |   |   |   |   Column503 > 223: Happy (2.0)
|   |   |   |   |   |   Column1897 > 194
|   |   |   |   |   |   |   Column1601 <= 132: Happy (9.0/1.0)
|   |   |   |   |   |   |   Column1601 > 132
|   |   |   |   |   |   |   |   Column1242 <= 101: Happy (4.0/1.0)
|   |   |   |   |   |   |   |   Column1242 > 101: NotHappy (17.0)
|   |   |   |   |   Column738 > 194
|   |   |   |   |   |   Column2034 <= 123: NotHappy (8.0)
|   |   |   |   |   |   Column2034 > 123
|   |   |   |   |   |   |   Column653 <= 185: Happy (13.0/1.0)
|   |   |   |   |   |   |   Column653 > 185: NotHappy (7.0/1.0)
|   |   |   Column1993 > 76
|   |   |   |   Column1742 <= 6: NotHappy (30.0/1.0)
|   |   |   |   Column1742 > 6
|   |   |   |   |   Column1751 <= 227
|   |   |   |   |   |   Column1799 <= 229
|   |   |   |   |   |   |   Column1164 <= 18: NotHappy (25.0)
|   |   |   |   |   |   |   Column1164 > 18
|   |   |   |   |   |   |   |   Column1899 <= 228
|   |   |   |   |   |   |   |   |   Column1618 <= 171
|   |   |   |   |   |   |   |   |   |   Column832 <= 221
|   |   |   |   |   |   |   |   |   |   |   Column221 <= 231
|   |   |   |   |   |   |   |   |   |   |   |   Column1846 <= 70
|   |   |   |   |   |   |   |   |   |   |   |   |   Column1024 <= 37
|   |   |   |   |   |   |   |   |   |   |   |   |   |   Column579 <= 143: Happy (7.0)
|   |   |   |   |   |   |   |   |   |   |   |   |   |   Column579 > 143: NotHappy (2.0)
|   |   |   |   |   |   |   |   |   |   |   |   |   Column1024 > 37
|   |   |   |   |   |   |   |   |   |   |   |   |   |   Column1404 <= 192
|   |   |   |   |   |   |   |   |   |   |   |   |   |   |   Column1595 <= 65
|   |   |   |   |   |   |   |   |   |   |   |   |   |   |   |   Column1595 <= 54: NotHappy (8.0)
|   |   |   |   |   |   |   |   |   |   |   |   |   |   |   |   Column1595 > 54: Happy (4.0)
|   |   |   |   |   |   |   |   |   |   |   |   |   |   |   Column1595 > 65
|   |   |   |   |   |   |   |   |   |   |   |   |   |   |   |   Column2203 <= 181: NotHappy (82.0)
|   |   |   |   |   |   |   |   |   |   |   |   |   |   |   |   Column2203 > 181
|   |   |   |   |   |   |   |   |   |   |   |   |   |   |   |   |   Column1009 <= 74: Happy (3.0)
|   |   |   |   |   |   |   |   |   |   |   |   |   |   |   |   |   Column1009 > 74: NotHappy (9.0)
|   |   |   |   |   |   |   |   |   |   |   |   |   |   Column1404 > 192
|   |   |   |   |   |   |   |   |   |   |   |   |   |   |   Column21 <= 160: Happy (9.0/1.0)
|   |   |   |   |   |   |   |   |   |   |   |   |   |   |   Column21 > 160: NotHappy (6.0)
|   |   |   |   |   |   |   |   |   |   |   |   Column1846 > 70
|   |   |   |   |   |   |   |   |   |   |   |   |   Column1517 <= 25
|   |   |   |   |   |   |   |   |   |   |   |   |   |   Column1360 <= 71: Happy (2.0)
|   |   |   |   |   |   |   |   |   |   |   |   |   |   Column1360 > 71: NotHappy (33.0)
|   |   |   |   |   |   |   |   |   |   |   |   |   Column1517 > 25
|   |   |   |   |   |   |   |   |   |   |   |   |   |   Column1018 <= 230
|   |   |   |   |   |   |   |   |   |   |   |   |   |   |   Column1597 <= 196
|   |   |   |   |   |   |   |   |   |   |   |   |   |   |   |   Column2188 <= 154
|   |   |   |   |   |   |   |   |   |   |   |   |   |   |   |   |   Column124 <= 219
|   |   |   |   |   |   |   |   |   |   |   |   |   |   |   |   |   |   Column1504 <= 137
|   |   |   |   |   |   |   |   |   |   |   |   |   |   |   |   |   |   |   Column1899 <= 190
|   |   |   |   |   |   |   |   |   |   |   |   |   |   |   |   |   |   |   |   Column1564 <= 148
|   |   |   |   |   |   |   |   |   |   |   |   |   |   |   |   |   |   |   |   |   Column1609 <= 168
|   |   |   |   |   |   |   |   |   |   |   |   |   |   |   |   |   |   |   |   |   |   Column1851 <= 152
|   |   |   |   |   |   |   |   |   |   |   |   |   |   |   |   |   |   |   |   |   |   |   Column849 <= 171
|   |   |   |   |   |   |   |   |   |   |   |   |   |   |   |   |   |   |   |   |   |   |   |   Column2140 <= 143
|   |   |   |   |   |   |   |   |   |   |   |   |   |   |   |   |   |   |   |   |   |   |   |   |   Column1571 <= 92
|   |   |   |   |   |   |   |   |   |   |   |   |   |   |   |   |   |   |   |   |   |   |   |   |   |   Column1520 <= 65
|   |   |   |   |   |   |   |   |   |   |   |   |   |   |   |   |   |   |   |   |   |   |   |   |   |   |   Column1115 <= 185
|   |   |   |   |   |   |   |   |   |   |   |   |   |   |   |   |   |   |   |   |   |   |   |   |   |   |   |   Column582 <= 20: Happy (3.0)
|   |   |   |   |   |   |   |   |   |   |   |   |   |   |   |   |   |   |   |   |   |   |   |   |   |   |   |   Column582 > 20: NotHappy (25.0/1.0)
|   |   |   |   |   |   |   |   |   |   |   |   |   |   |   |   |   |   |   |   |   |   |   |   |   |   |   Column1115 > 185: Happy (4.0)
|   |   |   |   |   |   |   |   |   |   |   |   |   |   |   |   |   |   |   |   |   |   |   |   |   |   Column1520 > 65
|   |   |   |   |   |   |   |   |   |   |   |   |   |   |   |   |   |   |   |   |   |   |   |   |   |   |   Column2230 <= 157
|   |   |   |   |   |   |   |   |   |   |   |   |   |   |   |   |   |   |   |   |   |   |   |   |   |   |   |   Column1336 <= 110
|   |   |   |   |   |   |   |   |   |   |   |   |   |   |   |   |   |   |   |   |   |   |   |   |   |   |   |   |   Column1522 <= 72: Happy (16.0)
|   |   |   |   |   |   |   |   |   |   |   |   |   |   |   |   |   |   |   |   |   |   |   |   |   |   |   |   |   Column1522 > 72
|   |   |   |   |   |   |   |   |   |   |   |   |   |   |   |   |   |   |   |   |   |   |   |   |   |   |   |   |   |   Column1620 <= 93
|   |   |   |   |   |   |   |   |   |   |   |   |   |   |   |   |   |   |   |   |   |   |   |   |   |   |   |   |   |   |   Column942 <= 77
|   |   |   |   |   |   |   |   |   |   |   |   |   |   |   |   |   |   |   |   |   |   |   |   |   |   |   |   |   |   |   |   Column148 <= 120: Happy (9.0)
|   |   |   |   |   |   |   |   |   |   |   |   |   |   |   |   |   |   |   |   |   |   |   |   |   |   |   |   |   |   |   |   Column148 > 120: NotHappy (3.0)
|   |   |   |   |   |   |   |   |   |   |   |   |   |   |   |   |   |   |   |   |   |   |   |   |   |   |   |   |   |   |   Column942 > 77: NotHappy (12.0)
|   |   |   |   |   |   |   |   |   |   |   |   |   |   |   |   |   |   |   |   |   |   |   |   |   |   |   |   |   |   Column1620 > 93: Happy (9.0)
|   |   |   |   |   |   |   |   |   |   |   |   |   |   |   |   |   |   |   |   |   |   |   |   |   |   |   |   Column1336 > 110: Happy (26.0)
|   |   |   |   |   |   |   |   |   |   |   |   |   |   |   |   |   |   |   |   |   |   |   |   |   |   |   Column2230 > 157: NotHappy (5.0)
|   |   |   |   |   |   |   |   |   |   |   |   |   |   |   |   |   |   |   |   |   |   |   |   |   Column1571 > 92
|   |   |   |   |   |   |   |   |   |   |   |   |   |   |   |   |   |   |   |   |   |   |   |   |   |   Column2038 <= 123
|   |   |   |   |   |   |   |   |   |   |   |   |   |   |   |   |   |   |   |   |   |   |   |   |   |   |   Column853 <= 139
|   |   |   |   |   |   |   |   |   |   |   |   |   |   |   |   |   |   |   |   |   |   |   |   |   |   |   |   Column1125 <= 79: Happy (10.0/1.0)
|   |   |   |   |   |   |   |   |   |   |   |   |   |   |   |   |   |   |   |   |   |   |   |   |   |   |   |   Column1125 > 79
|   |   |   |   |   |   |   |   |   |   |   |   |   |   |   |   |   |   |   |   |   |   |   |   |   |   |   |   |   Column995 <= 159
|   |   |   |   |   |   |   |   |   |   |   |   |   |   |   |   |   |   |   |   |   |   |   |   |   |   |   |   |   |   Column1953 <= 61
|   |   |   |   |   |   |   |   |   |   |   |   |   |   |   |   |   |   |   |   |   |   |   |   |   |   |   |   |   |   |   Column608 <= 80: NotHappy (3.0)
|   |   |   |   |   |   |   |   |   |   |   |   |   |   |   |   |   |   |   |   |   |   |   |   |   |   |   |   |   |   |   Column608 > 80: Happy (9.0)
|   |   |   |   |   |   |   |   |   |   |   |   |   |   |   |   |   |   |   |   |   |   |   |   |   |   |   |   |   |   Column1953 > 61
|   |   |   |   |   |   |   |   |   |   |   |   |   |   |   |   |   |   |   |   |   |   |   |   |   |   |   |   |   |   |   Column608 <= 94: NotHappy (35.0)
|   |   |   |   |   |   |   |   |   |   |   |   |   |   |   |   |   |   |   |   |   |   |   |   |   |   |   |   |   |   |   Column608 > 94
|   |   |   |   |   |   |   |   |   |   |   |   |   |   |   |   |   |   |   |   |   |   |   |   |   |   |   |   |   |   |   |   Column973 <= 132
|   |   |   |   |   |   |   |   |   |   |   |   |   |   |   |   |   |   |   |   |   |   |   |   |   |   |   |   |   |   |   |   |   Column9 <= 168
|   |   |   |   |   |   |   |   |   |   |   |   |   |   |   |   |   |   |   |   |   |   |   |   |   |   |   |   |   |   |   |   |   |   Column960 <= 24: Happy (5.0)
|   |   |   |   |   |   |   |   |   |   |   |   |   |   |   |   |   |   |   |   |   |   |   |   |   |   |   |   |   |   |   |   |   |   Column960 > 24
|   |   |   |   |   |   |   |   |   |   |   |   |   |   |   |   |   |   |   |   |   |   |   |   |   |   |   |   |   |   |   |   |   |   |   Column2283 <= 52: Happy (3.0)
|   |   |   |   |   |   |   |   |   |   |   |   |   |   |   |   |   |   |   |   |   |   |   |   |   |   |   |   |   |   |   |   |   |   |   Column2283 > 52
|   |   |   |   |   |   |   |   |   |   |   |   |   |   |   |   |   |   |   |   |   |   |   |   |   |   |   |   |   |   |   |   |   |   |   |   Column11 <= 20: Happy (3.0)
|   |   |   |   |   |   |   |   |   |   |   |   |   |   |   |   |   |   |   |   |   |   |   |   |   |   |   |   |   |   |   |   |   |   |   |   Column11 > 20
|   |   |   |   |   |   |   |   |   |   |   |   |   |   |   |   |   |   |   |   |   |   |   |   |   |   |   |   |   |   |   |   |   |   |   |   |   Column1876 <= 95: NotHappy (33.0)
|   |   |   |   |   |   |   |   |   |   |   |   |   |   |   |   |   |   |   |   |   |   |   |   |   |   |   |   |   |   |   |   |   |   |   |   |   Column1876 > 95
|   |   |   |   |   |   |   |   |   |   |   |   |   |   |   |   |   |   |   |   |   |   |   |   |   |   |   |   |   |   |   |   |   |   |   |   |   |   Column1778 <= 160
|   |   |   |   |   |   |   |   |   |   |   |   |   |   |   |   |   |   |   |   |   |   |   |   |   |   |   |   |   |   |   |   |   |   |   |   |   |   |   Column1804 <= 103: NotHappy (4.0)
|   |   |   |   |   |   |   |   |   |   |   |   |   |   |   |   |   |   |   |   |   |   |   |   |   |   |   |   |   |   |   |   |   |   |   |   |   |   |   Column1804 > 103: Happy (6.0)
|   |   |   |   |   |   |   |   |   |   |   |   |   |   |   |   |   |   |   |   |   |   |   |   |   |   |   |   |   |   |   |   |   |   |   |   |   |   Column1778 > 160: NotHappy (11.0)
|   |   |   |   |   |   |   |   |   |   |   |   |   |   |   |   |   |   |   |   |   |   |   |   |   |   |   |   |   |   |   |   |   Column9 > 168: Happy (6.0)
|   |   |   |   |   |   |   |   |   |   |   |   |   |   |   |   |   |   |   |   |   |   |   |   |   |   |   |   |   |   |   |   Column973 > 132: NotHappy (21.0)
|   |   |   |   |   |   |   |   |   |   |   |   |   |   |   |   |   |   |   |   |   |   |   |   |   |   |   |   |   Column995 > 159: Happy (8.0/1.0)
|   |   |   |   |   |   |   |   |   |   |   |   |   |   |   |   |   |   |   |   |   |   |   |   |   |   |   Column853 > 139: NotHappy (27.0)
|   |   |   |   |   |   |   |   |   |   |   |   |   |   |   |   |   |   |   |   |   |   |   |   |   |   Column2038 > 123
|   |   |   |   |   |   |   |   |   |   |   |   |   |   |   |   |   |   |   |   |   |   |   |   |   |   |   Column1216 <= 81: NotHappy (12.0)
|   |   |   |   |   |   |   |   |   |   |   |   |   |   |   |   |   |   |   |   |   |   |   |   |   |   |   Column1216 > 81
|   |   |   |   |   |   |   |   |   |   |   |   |   |   |   |   |   |   |   |   |   |   |   |   |   |   |   |   Column2079 <= 63: Happy (12.0)
|   |   |   |   |   |   |   |   |   |   |   |   |   |   |   |   |   |   |   |   |   |   |   |   |   |   |   |   Column2079 > 63
|   |   |   |   |   |   |   |   |   |   |   |   |   |   |   |   |   |   |   |   |   |   |   |   |   |   |   |   |   Column854 <= 44: Happy (11.0)
|   |   |   |   |   |   |   |   |   |   |   |   |   |   |   |   |   |   |   |   |   |   |   |   |   |   |   |   |   Column854 > 44
|   |   |   |   |   |   |   |   |   |   |   |   |   |   |   |   |   |   |   |   |   |   |   |   |   |   |   |   |   |   Column1363 <= 98: NotHappy (13.0)
|   |   |   |   |   |   |   |   |   |   |   |   |   |   |   |   |   |   |   |   |   |   |   |   |   |   |   |   |   |   Column1363 > 98
|   |   |   |   |   |   |   |   |   |   |   |   |   |   |   |   |   |   |   |   |   |   |   |   |   |   |   |   |   |   |   Column2052 <= 143
|   |   |   |   |   |   |   |   |   |   |   |   |   |   |   |   |   |   |   |   |   |   |   |   |   |   |   |   |   |   |   |   Column1804 <= 127
|   |   |   |   |   |   |   |   |   |   |   |   |   |   |   |   |   |   |   |   |   |   |   |   |   |   |   |   |   |   |   |   |   Column730 <= 93: Happy (17.0/1.0)
|   |   |   |   |   |   |   |   |   |   |   |   |   |   |   |   |   |   |   |   |   |   |   |   |   |   |   |   |   |   |   |   |   Column730 > 93
|   |   |   |   |   |   |   |   |   |   |   |   |   |   |   |   |   |   |   |   |   |   |   |   |   |   |   |   |   |   |   |   |   |   Column210 <= 174
|   |   |   |   |   |   |   |   |   |   |   |   |   |   |   |   |   |   |   |   |   |   |   |   |   |   |   |   |   |   |   |   |   |   |   Column1122 <= 123: Happy (5.0)
|   |   |   |   |   |   |   |   |   |   |   |   |   |   |   |   |   |   |   |   |   |   |   |   |   |   |   |   |   |   |   |   |   |   |   Column1122 > 123
|   |   |   |   |   |   |   |   |   |   |   |   |   |   |   |   |   |   |   |   |   |   |   |   |   |   |   |   |   |   |   |   |   |   |   |   Column2078 <= 67: Happy (3.0)
|   |   |   |   |   |   |   |   |   |   |   |   |   |   |   |   |   |   |   |   |   |   |   |   |   |   |   |   |   |   |   |   |   |   |   |   Column2078 > 67
|   |   |   |   |   |   |   |   |   |   |   |   |   |   |   |   |   |   |   |   |   |   |   |   |   |   |   |   |   |   |   |   |   |   |   |   |   Column849 <= 142: NotHappy (25.0)
|   |   |   |   |   |   |   |   |   |   |   |   |   |   |   |   |   |   |   |   |   |   |   |   |   |   |   |   |   |   |   |   |   |   |   |   |   Column849 > 142: Happy (2.0)
|   |   |   |   |   |   |   |   |   |   |   |   |   |   |   |   |   |   |   |   |   |   |   |   |   |   |   |   |   |   |   |   |   |   Column210 > 174: Happy (5.0)
|   |   |   |   |   |   |   |   |   |   |   |   |   |   |   |   |   |   |   |   |   |   |   |   |   |   |   |   |   |   |   |   Column1804 > 127: NotHappy (14.0)
|   |   |   |   |   |   |   |   |   |   |   |   |   |   |   |   |   |   |   |   |   |   |   |   |   |   |   |   |   |   |   Column2052 > 143: Happy (12.0)
|   |   |   |   |   |   |   |   |   |   |   |   |   |   |   |   |   |   |   |   |   |   |   |   Column2140 > 143
|   |   |   |   |   |   |   |   |   |   |   |   |   |   |   |   |   |   |   |   |   |   |   |   |   Column1072 <= 101: NotHappy (4.0)
|   |   |   |   |   |   |   |   |   |   |   |   |   |   |   |   |   |   |   |   |   |   |   |   |   Column1072 > 101
|   |   |   |   |   |   |   |   |   |   |   |   |   |   |   |   |   |   |   |   |   |   |   |   |   |   Column1482 <= 47: NotHappy (3.0)
|   |   |   |   |   |   |   |   |   |   |   |   |   |   |   |   |   |   |   |   |   |   |   |   |   |   Column1482 > 47
|   |   |   |   |   |   |   |   |   |   |   |   |   |   |   |   |   |   |   |   |   |   |   |   |   |   |   Column10 <= 22: NotHappy (2.0)
|   |   |   |   |   |   |   |   |   |   |   |   |   |   |   |   |   |   |   |   |   |   |   |   |   |   |   Column10 > 22
|   |   |   |   |   |   |   |   |   |   |   |   |   |   |   |   |   |   |   |   |   |   |   |   |   |   |   |   Column1608 <= 84: NotHappy (3.0/1.0)
|   |   |   |   |   |   |   |   |   |   |   |   |   |   |   |   |   |   |   |   |   |   |   |   |   |   |   |   Column1608 > 84: Happy (32.0)
|   |   |   |   |   |   |   |   |   |   |   |   |   |   |   |   |   |   |   |   |   |   |   Column849 > 171: NotHappy (25.0/1.0)
|   |   |   |   |   |   |   |   |   |   |   |   |   |   |   |   |   |   |   |   |   |   Column1851 > 152
|   |   |   |   |   |   |   |   |   |   |   |   |   |   |   |   |   |   |   |   |   |   |   Column412 <= 93: NotHappy (6.0)
|   |   |   |   |   |   |   |   |   |   |   |   |   |   |   |   |   |   |   |   |   |   |   Column412 > 93
|   |   |   |   |   |   |   |   |   |   |   |   |   |   |   |   |   |   |   |   |   |   |   |   Column2156 <= 206
|   |   |   |   |   |   |   |   |   |   |   |   |   |   |   |   |   |   |   |   |   |   |   |   |   Column2277 <= 39: NotHappy (3.0)
|   |   |   |   |   |   |   |   |   |   |   |   |   |   |   |   |   |   |   |   |   |   |   |   |   Column2277 > 39
|   |   |   |   |   |   |   |   |   |   |   |   |   |   |   |   |   |   |   |   |   |   |   |   |   |   Column841 <= 152: Happy (37.0)
|   |   |   |   |   |   |   |   |   |   |   |   |   |   |   |   |   |   |   |   |   |   |   |   |   |   Column841 > 152
|   |   |   |   |   |   |   |   |   |   |   |   |   |   |   |   |   |   |   |   |   |   |   |   |   |   |   Column939 <= 129: NotHappy (5.0)
|   |   |   |   |   |   |   |   |   |   |   |   |   |   |   |   |   |   |   |   |   |   |   |   |   |   |   Column939 > 129: Happy (9.0)
|   |   |   |   |   |   |   |   |   |   |   |   |   |   |   |   |   |   |   |   |   |   |   |   Column2156 > 206: NotHappy (4.0)
|   |   |   |   |   |   |   |   |   |   |   |   |   |   |   |   |   |   |   |   |   Column1609 > 168
|   |   |   |   |   |   |   |   |   |   |   |   |   |   |   |   |   |   |   |   |   |   Column1851 <= 177: Happy (30.0/1.0)
|   |   |   |   |   |   |   |   |   |   |   |   |   |   |   |   |   |   |   |   |   |   Column1851 > 177: NotHappy (2.0)
|   |   |   |   |   |   |   |   |   |   |   |   |   |   |   |   |   |   |   |   Column1564 > 148
|   |   |   |   |   |   |   |   |   |   |   |   |   |   |   |   |   |   |   |   |   Column503 <= 204
|   |   |   |   |   |   |   |   |   |   |   |   |   |   |   |   |   |   |   |   |   |   Column1349 <= 74
|   |   |   |   |   |   |   |   |   |   |   |   |   |   |   |   |   |   |   |   |   |   |   Column1420 <= 145
|   |   |   |   |   |   |   |   |   |   |   |   |   |   |   |   |   |   |   |   |   |   |   |   Column864 <= 15: NotHappy (2.0)
|   |   |   |   |   |   |   |   |   |   |   |   |   |   |   |   |   |   |   |   |   |   |   |   Column864 > 15: Happy (14.0)
|   |   |   |   |   |   |   |   |   |   |   |   |   |   |   |   |   |   |   |   |   |   |   Column1420 > 145
|   |   |   |   |   |   |   |   |   |   |   |   |   |   |   |   |   |   |   |   |   |   |   |   Column156 <= 123: NotHappy (24.0/1.0)
|   |   |   |   |   |   |   |   |   |   |   |   |   |   |   |   |   |   |   |   |   |   |   |   Column156 > 123: Happy (5.0)
|   |   |   |   |   |   |   |   |   |   |   |   |   |   |   |   |   |   |   |   |   |   Column1349 > 74
|   |   |   |   |   |   |   |   |   |   |   |   |   |   |   |   |   |   |   |   |   |   |   Column117 <= 205
|   |   |   |   |   |   |   |   |   |   |   |   |   |   |   |   |   |   |   |   |   |   |   |   Column278 <= 28: Happy (4.0/1.0)
|   |   |   |   |   |   |   |   |   |   |   |   |   |   |   |   |   |   |   |   |   |   |   |   Column278 > 28: NotHappy (74.0)
|   |   |   |   |   |   |   |   |   |   |   |   |   |   |   |   |   |   |   |   |   |   |   Column117 > 205: Happy (5.0/1.0)
|   |   |   |   |   |   |   |   |   |   |   |   |   |   |   |   |   |   |   |   |   Column503 > 204
|   |   |   |   |   |   |   |   |   |   |   |   |   |   |   |   |   |   |   |   |   |   Column11 <= 51: NotHappy (2.0)
|   |   |   |   |   |   |   |   |   |   |   |   |   |   |   |   |   |   |   |   |   |   Column11 > 51: Happy (9.0)
|   |   |   |   |   |   |   |   |   |   |   |   |   |   |   |   |   |   |   Column1899 > 190
|   |   |   |   |   |   |   |   |   |   |   |   |   |   |   |   |   |   |   |   Column1811 <= 154: Happy (27.0/1.0)
|   |   |   |   |   |   |   |   |   |   |   |   |   |   |   |   |   |   |   |   Column1811 > 154: NotHappy (3.0)
|   |   |   |   |   |   |   |   |   |   |   |   |   |   |   |   |   |   Column1504 > 137
|   |   |   |   |   |   |   |   |   |   |   |   |   |   |   |   |   |   |   Column1939 <= 68: NotHappy (27.0)
|   |   |   |   |   |   |   |   |   |   |   |   |   |   |   |   |   |   |   Column1939 > 68
|   |   |   |   |   |   |   |   |   |   |   |   |   |   |   |   |   |   |   |   Column547 <= 215
|   |   |   |   |   |   |   |   |   |   |   |   |   |   |   |   |   |   |   |   |   Column1444 <= 34
|   |   |   |   |   |   |   |   |   |   |   |   |   |   |   |   |   |   |   |   |   |   Column2118 <= 173
|   |   |   |   |   |   |   |   |   |   |   |   |   |   |   |   |   |   |   |   |   |   |   Column2029 <= 19: Happy (7.0)
|   |   |   |   |   |   |   |   |   |   |   |   |   |   |   |   |   |   |   |   |   |   |   Column2029 > 19
|   |   |   |   |   |   |   |   |   |   |   |   |   |   |   |   |   |   |   |   |   |   |   |   Column1992 <= 107: NotHappy (14.0)
|   |   |   |   |   |   |   |   |   |   |   |   |   |   |   |   |   |   |   |   |   |   |   |   Column1992 > 107
|   |   |   |   |   |   |   |   |   |   |   |   |   |   |   |   |   |   |   |   |   |   |   |   |   Column1931 <= 32: NotHappy (12.0)
|   |   |   |   |   |   |   |   |   |   |   |   |   |   |   |   |   |   |   |   |   |   |   |   |   Column1931 > 32
|   |   |   |   |   |   |   |   |   |   |   |   |   |   |   |   |   |   |   |   |   |   |   |   |   |   Column1140 <= 182
|   |   |   |   |   |   |   |   |   |   |   |   |   |   |   |   |   |   |   |   |   |   |   |   |   |   |   Column1075 <= 155
|   |   |   |   |   |   |   |   |   |   |   |   |   |   |   |   |   |   |   |   |   |   |   |   |   |   |   |   Column903 <= 115: NotHappy (5.0)
|   |   |   |   |   |   |   |   |   |   |   |   |   |   |   |   |   |   |   |   |   |   |   |   |   |   |   |   Column903 > 115: Happy (2.0)
|   |   |   |   |   |   |   |   |   |   |   |   |   |   |   |   |   |   |   |   |   |   |   |   |   |   |   Column1075 > 155: Happy (20.0)
|   |   |   |   |   |   |   |   |   |   |   |   |   |   |   |   |   |   |   |   |   |   |   |   |   |   Column1140 > 182: NotHappy (6.0)
|   |   |   |   |   |   |   |   |   |   |   |   |   |   |   |   |   |   |   |   |   |   Column2118 > 173: Happy (9.0)
|   |   |   |   |   |   |   |   |   |   |   |   |   |   |   |   |   |   |   |   |   Column1444 > 34
|   |   |   |   |   |   |   |   |   |   |   |   |   |   |   |   |   |   |   |   |   |   Column1763 <= 181
|   |   |   |   |   |   |   |   |   |   |   |   |   |   |   |   |   |   |   |   |   |   |   Column1748 <= 200
|   |   |   |   |   |   |   |   |   |   |   |   |   |   |   |   |   |   |   |   |   |   |   |   Column844 <= 73
|   |   |   |   |   |   |   |   |   |   |   |   |   |   |   |   |   |   |   |   |   |   |   |   |   Column1551 <= 195: NotHappy (57.0)
|   |   |   |   |   |   |   |   |   |   |   |   |   |   |   |   |   |   |   |   |   |   |   |   |   Column1551 > 195
|   |   |   |   |   |   |   |   |   |   |   |   |   |   |   |   |   |   |   |   |   |   |   |   |   |   Column155 <= 73: NotHappy (2.0)
|   |   |   |   |   |   |   |   |   |   |   |   |   |   |   |   |   |   |   |   |   |   |   |   |   |   Column155 > 73: Happy (2.0)
|   |   |   |   |   |   |   |   |   |   |   |   |   |   |   |   |   |   |   |   |   |   |   |   Column844 > 73
|   |   |   |   |   |   |   |   |   |   |   |   |   |   |   |   |   |   |   |   |   |   |   |   |   Column690 <= 58: NotHappy (35.0)
|   |   |   |   |   |   |   |   |   |   |   |   |   |   |   |   |   |   |   |   |   |   |   |   |   Column690 > 58
|   |   |   |   |   |   |   |   |   |   |   |   |   |   |   |   |   |   |   |   |   |   |   |   |   |   Column1709 <= 170
|   |   |   |   |   |   |   |   |   |   |   |   |   |   |   |   |   |   |   |   |   |   |   |   |   |   |   Column1894 <= 165
|   |   |   |   |   |   |   |   |   |   |   |   |   |   |   |   |   |   |   |   |   |   |   |   |   |   |   |   Column1861 <= 72
|   |   |   |   |   |   |   |   |   |   |   |   |   |   |   |   |   |   |   |   |   |   |   |   |   |   |   |   |   Column2279 <= 71: NotHappy (13.0)
|   |   |   |   |   |   |   |   |   |   |   |   |   |   |   |   |   |   |   |   |   |   |   |   |   |   |   |   |   Column2279 > 71
|   |   |   |   |   |   |   |   |   |   |   |   |   |   |   |   |   |   |   |   |   |   |   |   |   |   |   |   |   |   Column1461 <= 111: NotHappy (7.0)
|   |   |   |   |   |   |   |   |   |   |   |   |   |   |   |   |   |   |   |   |   |   |   |   |   |   |   |   |   |   Column1461 > 111
|   |   |   |   |   |   |   |   |   |   |   |   |   |   |   |   |   |   |   |   |   |   |   |   |   |   |   |   |   |   |   Column1420 <= 163
|   |   |   |   |   |   |   |   |   |   |   |   |   |   |   |   |   |   |   |   |   |   |   |   |   |   |   |   |   |   |   |   Column1225 <= 167
|   |   |   |   |   |   |   |   |   |   |   |   |   |   |   |   |   |   |   |   |   |   |   |   |   |   |   |   |   |   |   |   |   Column495 <= 91: NotHappy (2.0)
|   |   |   |   |   |   |   |   |   |   |   |   |   |   |   |   |   |   |   |   |   |   |   |   |   |   |   |   |   |   |   |   |   Column495 > 91: Happy (12.0)
|   |   |   |   |   |   |   |   |   |   |   |   |   |   |   |   |   |   |   |   |   |   |   |   |   |   |   |   |   |   |   |   Column1225 > 167: NotHappy (12.0)
|   |   |   |   |   |   |   |   |   |   |   |   |   |   |   |   |   |   |   |   |   |   |   |   |   |   |   |   |   |   |   Column1420 > 163: Happy (13.0)
|   |   |   |   |   |   |   |   |   |   |   |   |   |   |   |   |   |   |   |   |   |   |   |   |   |   |   |   Column1861 > 72
|   |   |   |   |   |   |   |   |   |   |   |   |   |   |   |   |   |   |   |   |   |   |   |   |   |   |   |   |   Column1009 <= 20
|   |   |   |   |   |   |   |   |   |   |   |   |   |   |   |   |   |   |   |   |   |   |   |   |   |   |   |   |   |   Column1472 <= 130: NotHappy (7.0)
|   |   |   |   |   |   |   |   |   |   |   |   |   |   |   |   |   |   |   |   |   |   |   |   |   |   |   |   |   |   Column1472 > 130
|   |   |   |   |   |   |   |   |   |   |   |   |   |   |   |   |   |   |   |   |   |   |   |   |   |   |   |   |   |   |   Column159 <= 98: NotHappy (2.0)
|   |   |   |   |   |   |   |   |   |   |   |   |   |   |   |   |   |   |   |   |   |   |   |   |   |   |   |   |   |   |   Column159 > 98: Happy (10.0)
|   |   |   |   |   |   |   |   |   |   |   |   |   |   |   |   |   |   |   |   |   |   |   |   |   |   |   |   |   Column1009 > 20
|   |   |   |   |   |   |   |   |   |   |   |   |   |   |   |   |   |   |   |   |   |   |   |   |   |   |   |   |   |   Column243 <= 51: NotHappy (53.0)
|   |   |   |   |   |   |   |   |   |   |   |   |   |   |   |   |   |   |   |   |   |   |   |   |   |   |   |   |   |   Column243 > 51
|   |   |   |   |   |   |   |   |   |   |   |   |   |   |   |   |   |   |   |   |   |   |   |   |   |   |   |   |   |   |   Column1524 <= 101
|   |   |   |   |   |   |   |   |   |   |   |   |   |   |   |   |   |   |   |   |   |   |   |   |   |   |   |   |   |   |   |   Column1333 <= 94: NotHappy (7.0)
|   |   |   |   |   |   |   |   |   |   |   |   |   |   |   |   |   |   |   |   |   |   |   |   |   |   |   |   |   |   |   |   Column1333 > 94
|   |   |   |   |   |   |   |   |   |   |   |   |   |   |   |   |   |   |   |   |   |   |   |   |   |   |   |   |   |   |   |   |   Column1473 <= 137: Happy (11.0)
|   |   |   |   |   |   |   |   |   |   |   |   |   |   |   |   |   |   |   |   |   |   |   |   |   |   |   |   |   |   |   |   |   Column1473 > 137: NotHappy (2.0)
|   |   |   |   |   |   |   |   |   |   |   |   |   |   |   |   |   |   |   |   |   |   |   |   |   |   |   |   |   |   |   Column1524 > 101
|   |   |   |   |   |   |   |   |   |   |   |   |   |   |   |   |   |   |   |   |   |   |   |   |   |   |   |   |   |   |   |   Column203 <= 158
|   |   |   |   |   |   |   |   |   |   |   |   |   |   |   |   |   |   |   |   |   |   |   |   |   |   |   |   |   |   |   |   |   Column2149 <= 53
|   |   |   |   |   |   |   |   |   |   |   |   |   |   |   |   |   |   |   |   |   |   |   |   |   |   |   |   |   |   |   |   |   |   Column773 <= 146: Happy (7.0)
|   |   |   |   |   |   |   |   |   |   |   |   |   |   |   |   |   |   |   |   |   |   |   |   |   |   |   |   |   |   |   |   |   |   Column773 > 146: NotHappy (4.0)
|   |   |   |   |   |   |   |   |   |   |   |   |   |   |   |   |   |   |   |   |   |   |   |   |   |   |   |   |   |   |   |   |   Column2149 > 53
|   |   |   |   |   |   |   |   |   |   |   |   |   |   |   |   |   |   |   |   |   |   |   |   |   |   |   |   |   |   |   |   |   |   Column2037 <= 126: NotHappy (39.0)
|   |   |   |   |   |   |   |   |   |   |   |   |   |   |   |   |   |   |   |   |   |   |   |   |   |   |   |   |   |   |   |   |   |   Column2037 > 126
|   |   |   |   |   |   |   |   |   |   |   |   |   |   |   |   |   |   |   |   |   |   |   |   |   |   |   |   |   |   |   |   |   |   |   Column1136 <= 184
|   |   |   |   |   |   |   |   |   |   |   |   |   |   |   |   |   |   |   |   |   |   |   |   |   |   |   |   |   |   |   |   |   |   |   |   Column2176 <= 182
|   |   |   |   |   |   |   |   |   |   |   |   |   |   |   |   |   |   |   |   |   |   |   |   |   |   |   |   |   |   |   |   |   |   |   |   |   Column2090 <= 111
|   |   |   |   |   |   |   |   |   |   |   |   |   |   |   |   |   |   |   |   |   |   |   |   |   |   |   |   |   |   |   |   |   |   |   |   |   |   Column743 <= 138: Happy (4.0)
|   |   |   |   |   |   |   |   |   |   |   |   |   |   |   |   |   |   |   |   |   |   |   |   |   |   |   |   |   |   |   |   |   |   |   |   |   |   Column743 > 138: NotHappy (2.0)
|   |   |   |   |   |   |   |   |   |   |   |   |   |   |   |   |   |   |   |   |   |   |   |   |   |   |   |   |   |   |   |   |   |   |   |   |   Column2090 > 111
|   |   |   |   |   |   |   |   |   |   |   |   |   |   |   |   |   |   |   |   |   |   |   |   |   |   |   |   |   |   |   |   |   |   |   |   |   |   Column1416 <= 135
|   |   |   |   |   |   |   |   |   |   |   |   |   |   |   |   |   |   |   |   |   |   |   |   |   |   |   |   |   |   |   |   |   |   |   |   |   |   |   Column293 <= 116
|   |   |   |   |   |   |   |   |   |   |   |   |   |   |   |   |   |   |   |   |   |   |   |   |   |   |   |   |   |   |   |   |   |   |   |   |   |   |   |   Column274 <= 132: NotHappy (3.0)
|   |   |   |   |   |   |   |   |   |   |   |   |   |   |   |   |   |   |   |   |   |   |   |   |   |   |   |   |   |   |   |   |   |   |   |   |   |   |   |   Column274 > 132: Happy (5.0)
|   |   |   |   |   |   |   |   |   |   |   |   |   |   |   |   |   |   |   |   |   |   |   |   |   |   |   |   |   |   |   |   |   |   |   |   |   |   |   Column293 > 116: NotHappy (12.0)
|   |   |   |   |   |   |   |   |   |   |   |   |   |   |   |   |   |   |   |   |   |   |   |   |   |   |   |   |   |   |   |   |   |   |   |   |   |   Column1416 > 135: NotHappy (43.0)
|   |   |   |   |   |   |   |   |   |   |   |   |   |   |   |   |   |   |   |   |   |   |   |   |   |   |   |   |   |   |   |   |   |   |   |   Column2176 > 182: Happy (4.0)
|   |   |   |   |   |   |   |   |   |   |   |   |   |   |   |   |   |   |   |   |   |   |   |   |   |   |   |   |   |   |   |   |   |   |   Column1136 > 184: Happy (5.0)
|   |   |   |   |   |   |   |   |   |   |   |   |   |   |   |   |   |   |   |   |   |   |   |   |   |   |   |   |   |   |   |   Column203 > 158: NotHappy (49.0)
|   |   |   |   |   |   |   |   |   |   |   |   |   |   |   |   |   |   |   |   |   |   |   |   |   |   |   Column1894 > 165
|   |   |   |   |   |   |   |   |   |   |   |   |   |   |   |   |   |   |   |   |   |   |   |   |   |   |   |   Column1473 <= 105: NotHappy (12.0)
|   |   |   |   |   |   |   |   |   |   |   |   |   |   |   |   |   |   |   |   |   |   |   |   |   |   |   |   Column1473 > 105
|   |   |   |   |   |   |   |   |   |   |   |   |   |   |   |   |   |   |   |   |   |   |   |   |   |   |   |   |   Column1951 <= 91: Happy (12.0)
|   |   |   |   |   |   |   |   |   |   |   |   |   |   |   |   |   |   |   |   |   |   |   |   |   |   |   |   |   Column1951 > 91
|   |   |   |   |   |   |   |   |   |   |   |   |   |   |   |   |   |   |   |   |   |   |   |   |   |   |   |   |   |   Column1224 <= 168
|   |   |   |   |   |   |   |   |   |   |   |   |   |   |   |   |   |   |   |   |   |   |   |   |   |   |   |   |   |   |   Column1751 <= 86: NotHappy (4.0)
|   |   |   |   |   |   |   |   |   |   |   |   |   |   |   |   |   |   |   |   |   |   |   |   |   |   |   |   |   |   |   Column1751 > 86
|   |   |   |   |   |   |   |   |   |   |   |   |   |   |   |   |   |   |   |   |   |   |   |   |   |   |   |   |   |   |   |   Column1471 <= 87: NotHappy (2.0)
|   |   |   |   |   |   |   |   |   |   |   |   |   |   |   |   |   |   |   |   |   |   |   |   |   |   |   |   |   |   |   |   Column1471 > 87: Happy (25.0/1.0)
|   |   |   |   |   |   |   |   |   |   |   |   |   |   |   |   |   |   |   |   |   |   |   |   |   |   |   |   |   |   Column1224 > 168
|   |   |   |   |   |   |   |   |   |   |   |   |   |   |   |   |   |   |   |   |   |   |   |   |   |   |   |   |   |   |   Column1565 <= 178
|   |   |   |   |   |   |   |   |   |   |   |   |   |   |   |   |   |   |   |   |   |   |   |   |   |   |   |   |   |   |   |   Column600 <= 184: NotHappy (29.0)
|   |   |   |   |   |   |   |   |   |   |   |   |   |   |   |   |   |   |   |   |   |   |   |   |   |   |   |   |   |   |   |   Column600 > 184
|   |   |   |   |   |   |   |   |   |   |   |   |   |   |   |   |   |   |   |   |   |   |   |   |   |   |   |   |   |   |   |   |   Column1232 <= 168: Happy (7.0)
|   |   |   |   |   |   |   |   |   |   |   |   |   |   |   |   |   |   |   |   |   |   |   |   |   |   |   |   |   |   |   |   |   Column1232 > 168: NotHappy (5.0)
|   |   |   |   |   |   |   |   |   |   |   |   |   |   |   |   |   |   |   |   |   |   |   |   |   |   |   |   |   |   |   Column1565 > 178: Happy (4.0)
|   |   |   |   |   |   |   |   |   |   |   |   |   |   |   |   |   |   |   |   |   |   |   |   |   |   Column1709 > 170
|   |   |   |   |   |   |   |   |   |   |   |   |   |   |   |   |   |   |   |   |   |   |   |   |   |   |   Column1707 <= 123: Happy (3.0/1.0)
|   |   |   |   |   |   |   |   |   |   |   |   |   |   |   |   |   |   |   |   |   |   |   |   |   |   |   Column1707 > 123: NotHappy (47.0)
|   |   |   |   |   |   |   |   |   |   |   |   |   |   |   |   |   |   |   |   |   |   |   Column1748 > 200
|   |   |   |   |   |   |   |   |   |   |   |   |   |   |   |   |   |   |   |   |   |   |   |   Column1507 <= 168: Happy (14.0)
|   |   |   |   |   |   |   |   |   |   |   |   |   |   |   |   |   |   |   |   |   |   |   |   Column1507 > 168
|   |   |   |   |   |   |   |   |   |   |   |   |   |   |   |   |   |   |   |   |   |   |   |   |   Column1801 <= 102: Happy (2.0)
|   |   |   |   |   |   |   |   |   |   |   |   |   |   |   |   |   |   |   |   |   |   |   |   |   Column1801 > 102: NotHappy (12.0)
|   |   |   |   |   |   |   |   |   |   |   |   |   |   |   |   |   |   |   |   |   |   Column1763 > 181
|   |   |   |   |   |   |   |   |   |   |   |   |   |   |   |   |   |   |   |   |   |   |   Column950 <= 115: NotHappy (7.0)
|   |   |   |   |   |   |   |   |   |   |   |   |   |   |   |   |   |   |   |   |   |   |   Column950 > 115
|   |   |   |   |   |   |   |   |   |   |   |   |   |   |   |   |   |   |   |   |   |   |   |   Column985 <= 207: Happy (16.0)
|   |   |   |   |   |   |   |   |   |   |   |   |   |   |   |   |   |   |   |   |   |   |   |   Column985 > 207: NotHappy (4.0/1.0)
|   |   |   |   |   |   |   |   |   |   |   |   |   |   |   |   |   |   |   |   Column547 > 215
|   |   |   |   |   |   |   |   |   |   |   |   |   |   |   |   |   |   |   |   |   Column1992 <= 115: NotHappy (6.0)
|   |   |   |   |   |   |   |   |   |   |   |   |   |   |   |   |   |   |   |   |   Column1992 > 115
|   |   |   |   |   |   |   |   |   |   |   |   |   |   |   |   |   |   |   |   |   |   Column1565 <= 188
|   |   |   |   |   |   |   |   |   |   |   |   |   |   |   |   |   |   |   |   |   |   |   Column2133 <= 59: NotHappy (2.0)
|   |   |   |   |   |   |   |   |   |   |   |   |   |   |   |   |   |   |   |   |   |   |   Column2133 > 59: Happy (20.0)
|   |   |   |   |   |   |   |   |   |   |   |   |   |   |   |   |   |   |   |   |   |   Column1565 > 188: NotHappy (3.0)
|   |   |   |   |   |   |   |   |   |   |   |   |   |   |   |   |   Column124 > 219
|   |   |   |   |   |   |   |   |   |   |   |   |   |   |   |   |   |   Column1096 <= 233: NotHappy (32.0)
|   |   |   |   |   |   |   |   |   |   |   |   |   |   |   |   |   |   Column1096 > 233: Happy (2.0)
|   |   |   |   |   |   |   |   |   |   |   |   |   |   |   |   Column2188 > 154
|   |   |   |   |   |   |   |   |   |   |   |   |   |   |   |   |   Column2046 <= 101
|   |   |   |   |   |   |   |   |   |   |   |   |   |   |   |   |   |   Column1025 <= 193
|   |   |   |   |   |   |   |   |   |   |   |   |   |   |   |   |   |   |   Column617 <= 41
|   |   |   |   |   |   |   |   |   |   |   |   |   |   |   |   |   |   |   |   Column2 <= 108: NotHappy (2.0)
|   |   |   |   |   |   |   |   |   |   |   |   |   |   |   |   |   |   |   |   Column2 > 108: Happy (2.0)
|   |   |   |   |   |   |   |   |   |   |   |   |   |   |   |   |   |   |   Column617 > 41: NotHappy (32.0)
|   |   |   |   |   |   |   |   |   |   |   |   |   |   |   |   |   |   Column1025 > 193: Happy (4.0)
|   |   |   |   |   |   |   |   |   |   |   |   |   |   |   |   |   Column2046 > 101
|   |   |   |   |   |   |   |   |   |   |   |   |   |   |   |   |   |   Column1128 <= 108
|   |   |   |   |   |   |   |   |   |   |   |   |   |   |   |   |   |   |   Column662 <= 189
|   |   |   |   |   |   |   |   |   |   |   |   |   |   |   |   |   |   |   |   Column969 <= 168: NotHappy (27.0)
|   |   |   |   |   |   |   |   |   |   |   |   |   |   |   |   |   |   |   |   Column969 > 168: Happy (3.0/1.0)
|   |   |   |   |   |   |   |   |   |   |   |   |   |   |   |   |   |   |   Column662 > 189: Happy (4.0)
|   |   |   |   |   |   |   |   |   |   |   |   |   |   |   |   |   |   Column1128 > 108
|   |   |   |   |   |   |   |   |   |   |   |   |   |   |   |   |   |   |   Column1666 <= 114
|   |   |   |   |   |   |   |   |   |   |   |   |   |   |   |   |   |   |   |   Column1283 <= 69: NotHappy (9.0/1.0)
|   |   |   |   |   |   |   |   |   |   |   |   |   |   |   |   |   |   |   |   Column1283 > 69
|   |   |   |   |   |   |   |   |   |   |   |   |   |   |   |   |   |   |   |   |   Column1295 <= 234
|   |   |   |   |   |   |   |   |   |   |   |   |   |   |   |   |   |   |   |   |   |   Column882 <= 176
|   |   |   |   |   |   |   |   |   |   |   |   |   |   |   |   |   |   |   |   |   |   |   Column380 <= 14
|   |   |   |   |   |   |   |   |   |   |   |   |   |   |   |   |   |   |   |   |   |   |   |   Column687 <= 136: NotHappy (7.0/1.0)
|   |   |   |   |   |   |   |   |   |   |   |   |   |   |   |   |   |   |   |   |   |   |   |   Column687 > 136: Happy (5.0)
|   |   |   |   |   |   |   |   |   |   |   |   |   |   |   |   |   |   |   |   |   |   |   Column380 > 14
|   |   |   |   |   |   |   |   |   |   |   |   |   |   |   |   |   |   |   |   |   |   |   |   Column1571 <= 138: Happy (88.0/1.0)
|   |   |   |   |   |   |   |   |   |   |   |   |   |   |   |   |   |   |   |   |   |   |   |   Column1571 > 138
|   |   |   |   |   |   |   |   |   |   |   |   |   |   |   |   |   |   |   |   |   |   |   |   |   Column1847 <= 129: NotHappy (5.0)
|   |   |   |   |   |   |   |   |   |   |   |   |   |   |   |   |   |   |   |   |   |   |   |   |   Column1847 > 129
|   |   |   |   |   |   |   |   |   |   |   |   |   |   |   |   |   |   |   |   |   |   |   |   |   |   Column1205 <= 189: Happy (29.0/1.0)
|   |   |   |   |   |   |   |   |   |   |   |   |   |   |   |   |   |   |   |   |   |   |   |   |   |   Column1205 > 189: NotHappy (3.0)
|   |   |   |   |   |   |   |   |   |   |   |   |   |   |   |   |   |   |   |   |   |   Column882 > 176
|   |   |   |   |   |   |   |   |   |   |   |   |   |   |   |   |   |   |   |   |   |   |   Column2139 <= 164: Happy (6.0)
|   |   |   |   |   |   |   |   |   |   |   |   |   |   |   |   |   |   |   |   |   |   |   Column2139 > 164: NotHappy (12.0/1.0)
|   |   |   |   |   |   |   |   |   |   |   |   |   |   |   |   |   |   |   |   |   Column1295 > 234
|   |   |   |   |   |   |   |   |   |   |   |   |   |   |   |   |   |   |   |   |   |   Column984 <= 119: Happy (2.0)
|   |   |   |   |   |   |   |   |   |   |   |   |   |   |   |   |   |   |   |   |   |   Column984 > 119: NotHappy (8.0)
|   |   |   |   |   |   |   |   |   |   |   |   |   |   |   |   |   |   |   Column1666 > 114
|   |   |   |   |   |   |   |   |   |   |   |   |   |   |   |   |   |   |   |   Column2185 <= 143
|   |   |   |   |   |   |   |   |   |   |   |   |   |   |   |   |   |   |   |   |   Column1650 <= 79: Happy (4.0)
|   |   |   |   |   |   |   |   |   |   |   |   |   |   |   |   |   |   |   |   |   Column1650 > 79
|   |   |   |   |   |   |   |   |   |   |   |   |   |   |   |   |   |   |   |   |   |   Column275 <= 213: NotHappy (40.0/1.0)
|   |   |   |   |   |   |   |   |   |   |   |   |   |   |   |   |   |   |   |   |   |   Column275 > 213: Happy (3.0)
|   |   |   |   |   |   |   |   |   |   |   |   |   |   |   |   |   |   |   |   Column2185 > 143
|   |   |   |   |   |   |   |   |   |   |   |   |   |   |   |   |   |   |   |   |   Column1276 <= 216
|   |   |   |   |   |   |   |   |   |   |   |   |   |   |   |   |   |   |   |   |   |   Column608 <= 67
|   |   |   |   |   |   |   |   |   |   |   |   |   |   |   |   |   |   |   |   |   |   |   Column86 <= 27: Happy (4.0)
|   |   |   |   |   |   |   |   |   |   |   |   |   |   |   |   |   |   |   |   |   |   |   Column86 > 27: NotHappy (20.0)
|   |   |   |   |   |   |   |   |   |   |   |   |   |   |   |   |   |   |   |   |   |   Column608 > 67
|   |   |   |   |   |   |   |   |   |   |   |   |   |   |   |   |   |   |   |   |   |   |   Column1156 <= 15: Happy (20.0/1.0)
|   |   |   |   |   |   |   |   |   |   |   |   |   |   |   |   |   |   |   |   |   |   |   Column1156 > 15
|   |   |   |   |   |   |   |   |   |   |   |   |   |   |   |   |   |   |   |   |   |   |   |   Column846 <= 78
|   |   |   |   |   |   |   |   |   |   |   |   |   |   |   |   |   |   |   |   |   |   |   |   |   Column1244 <= 63: Happy (4.0/1.0)
|   |   |   |   |   |   |   |   |   |   |   |   |   |   |   |   |   |   |   |   |   |   |   |   |   Column1244 > 63: NotHappy (23.0)
|   |   |   |   |   |   |   |   |   |   |   |   |   |   |   |   |   |   |   |   |   |   |   |   Column846 > 78
|   |   |   |   |   |   |   |   |   |   |   |   |   |   |   |   |   |   |   |   |   |   |   |   |   Column1611 <= 201
|   |   |   |   |   |   |   |   |   |   |   |   |   |   |   |   |   |   |   |   |   |   |   |   |   |   Column1966 <= 86
|   |   |   |   |   |   |   |   |   |   |   |   |   |   |   |   |   |   |   |   |   |   |   |   |   |   |   Column1244 <= 19: NotHappy (8.0/1.0)
|   |   |   |   |   |   |   |   |   |   |   |   |   |   |   |   |   |   |   |   |   |   |   |   |   |   |   Column1244 > 19
|   |   |   |   |   |   |   |   |   |   |   |   |   |   |   |   |   |   |   |   |   |   |   |   |   |   |   |   Column1086 <= 200
|   |   |   |   |   |   |   |   |   |   |   |   |   |   |   |   |   |   |   |   |   |   |   |   |   |   |   |   |   Column2187 <= 178
|   |   |   |   |   |   |   |   |   |   |   |   |   |   |   |   |   |   |   |   |   |   |   |   |   |   |   |   |   |   Column1449 <= 200
|   |   |   |   |   |   |   |   |   |   |   |   |   |   |   |   |   |   |   |   |   |   |   |   |   |   |   |   |   |   |   Column2188 <= 176
|   |   |   |   |   |   |   |   |   |   |   |   |   |   |   |   |   |   |   |   |   |   |   |   |   |   |   |   |   |   |   |   Column1290 <= 129
|   |   |   |   |   |   |   |   |   |   |   |   |   |   |   |   |   |   |   |   |   |   |   |   |   |   |   |   |   |   |   |   |   Column1791 <= 153: NotHappy (9.0/1.0)
|   |   |   |   |   |   |   |   |   |   |   |   |   |   |   |   |   |   |   |   |   |   |   |   |   |   |   |   |   |   |   |   |   Column1791 > 153: Happy (12.0)
|   |   |   |   |   |   |   |   |   |   |   |   |   |   |   |   |   |   |   |   |   |   |   |   |   |   |   |   |   |   |   |   Column1290 > 129: Happy (27.0)
|   |   |   |   |   |   |   |   |   |   |   |   |   |   |   |   |   |   |   |   |   |   |   |   |   |   |   |   |   |   |   Column2188 > 176: NotHappy (3.0)
|   |   |   |   |   |   |   |   |   |   |   |   |   |   |   |   |   |   |   |   |   |   |   |   |   |   |   |   |   |   Column1449 > 200: NotHappy (4.0)
|   |   |   |   |   |   |   |   |   |   |   |   |   |   |   |   |   |   |   |   |   |   |   |   |   |   |   |   |   Column2187 > 178: Happy (43.0)
|   |   |   |   |   |   |   |   |   |   |   |   |   |   |   |   |   |   |   |   |   |   |   |   |   |   |   |   Column1086 > 200: NotHappy (7.0/1.0)
|   |   |   |   |   |   |   |   |   |   |   |   |   |   |   |   |   |   |   |   |   |   |   |   |   |   Column1966 > 86
|   |   |   |   |   |   |   |   |   |   |   |   |   |   |   |   |   |   |   |   |   |   |   |   |   |   |   Column974 <= 200
|   |   |   |   |   |   |   |   |   |   |   |   |   |   |   |   |   |   |   |   |   |   |   |   |   |   |   |   Column928 <= 183
|   |   |   |   |   |   |   |   |   |   |   |   |   |   |   |   |   |   |   |   |   |   |   |   |   |   |   |   |   Column545 <= 74: NotHappy (11.0)
|   |   |   |   |   |   |   |   |   |   |   |   |   |   |   |   |   |   |   |   |   |   |   |   |   |   |   |   |   Column545 > 74
|   |   |   |   |   |   |   |   |   |   |   |   |   |   |   |   |   |   |   |   |   |   |   |   |   |   |   |   |   |   Column398 <= 94: Happy (10.0)
|   |   |   |   |   |   |   |   |   |   |   |   |   |   |   |   |   |   |   |   |   |   |   |   |   |   |   |   |   |   Column398 > 94
|   |   |   |   |   |   |   |   |   |   |   |   |   |   |   |   |   |   |   |   |   |   |   |   |   |   |   |   |   |   |   Column21 <= 208
|   |   |   |   |   |   |   |   |   |   |   |   |   |   |   |   |   |   |   |   |   |   |   |   |   |   |   |   |   |   |   |   Column2187 <= 156: Happy (7.0)
|   |   |   |   |   |   |   |   |   |   |   |   |   |   |   |   |   |   |   |   |   |   |   |   |   |   |   |   |   |   |   |   Column2187 > 156
|   |   |   |   |   |   |   |   |   |   |   |   |   |   |   |   |   |   |   |   |   |   |   |   |   |   |   |   |   |   |   |   |   Column32 <= 197
|   |   |   |   |   |   |   |   |   |   |   |   |   |   |   |   |   |   |   |   |   |   |   |   |   |   |   |   |   |   |   |   |   |   Column1328 <= 181
|   |   |   |   |   |   |   |   |   |   |   |   |   |   |   |   |   |   |   |   |   |   |   |   |   |   |   |   |   |   |   |   |   |   |   Column1515 <= 184
|   |   |   |   |   |   |   |   |   |   |   |   |   |   |   |   |   |   |   |   |   |   |   |   |   |   |   |   |   |   |   |   |   |   |   |   Column1792 <= 111
|   |   |   |   |   |   |   |   |   |   |   |   |   |   |   |   |   |   |   |   |   |   |   |   |   |   |   |   |   |   |   |   |   |   |   |   |   Column706 <= 98: NotHappy (3.0)
|   |   |   |   |   |   |   |   |   |   |   |   |   |   |   |   |   |   |   |   |   |   |   |   |   |   |   |   |   |   |   |   |   |   |   |   |   Column706 > 98: Happy (7.0)
|   |   |   |   |   |   |   |   |   |   |   |   |   |   |   |   |   |   |   |   |   |   |   |   |   |   |   |   |   |   |   |   |   |   |   |   Column1792 > 111
|   |   |   |   |   |   |   |   |   |   |   |   |   |   |   |   |   |   |   |   |   |   |   |   |   |   |   |   |   |   |   |   |   |   |   |   |   Column1796 <= 168: NotHappy (35.0)
|   |   |   |   |   |   |   |   |   |   |   |   |   |   |   |   |   |   |   |   |   |   |   |   |   |   |   |   |   |   |   |   |   |   |   |   |   Column1796 > 168
|   |   |   |   |   |   |   |   |   |   |   |   |   |   |   |   |   |   |   |   |   |   |   |   |   |   |   |   |   |   |   |   |   |   |   |   |   |   Column1759 <= 150: Happy (6.0/1.0)
|   |   |   |   |   |   |   |   |   |   |   |   |   |   |   |   |   |   |   |   |   |   |   |   |   |   |   |   |   |   |   |   |   |   |   |   |   |   Column1759 > 150: NotHappy (5.0)
|   |   |   |   |   |   |   |   |   |   |   |   |   |   |   |   |   |   |   |   |   |   |   |   |   |   |   |   |   |   |   |   |   |   |   Column1515 > 184: Happy (4.0)
|   |   |   |   |   |   |   |   |   |   |   |   |   |   |   |   |   |   |   |   |   |   |   |   |   |   |   |   |   |   |   |   |   |   Column1328 > 181
|   |   |   |   |   |   |   |   |   |   |   |   |   |   |   |   |   |   |   |   |   |   |   |   |   |   |   |   |   |   |   |   |   |   |   Column1650 <= 192
|   |   |   |   |   |   |   |   |   |   |   |   |   |   |   |   |   |   |   |   |   |   |   |   |   |   |   |   |   |   |   |   |   |   |   |   Column2285 <= 130: NotHappy (4.0/1.0)
|   |   |   |   |   |   |   |   |   |   |   |   |   |   |   |   |   |   |   |   |   |   |   |   |   |   |   |   |   |   |   |   |   |   |   |   Column2285 > 130: Happy (22.0)
|   |   |   |   |   |   |   |   |   |   |   |   |   |   |   |   |   |   |   |   |   |   |   |   |   |   |   |   |   |   |   |   |   |   |   Column1650 > 192: NotHappy (4.0)
|   |   |   |   |   |   |   |   |   |   |   |   |   |   |   |   |   |   |   |   |   |   |   |   |   |   |   |   |   |   |   |   |   Column32 > 197: NotHappy (13.0)
|   |   |   |   |   |   |   |   |   |   |   |   |   |   |   |   |   |   |   |   |   |   |   |   |   |   |   |   |   |   |   Column21 > 208: Happy (9.0)
|   |   |   |   |   |   |   |   |   |   |   |   |   |   |   |   |   |   |   |   |   |   |   |   |   |   |   |   Column928 > 183: NotHappy (17.0)
|   |   |   |   |   |   |   |   |   |   |   |   |   |   |   |   |   |   |   |   |   |   |   |   |   |   |   Column974 > 200: Happy (10.0)
|   |   |   |   |   |   |   |   |   |   |   |   |   |   |   |   |   |   |   |   |   |   |   |   |   Column1611 > 201: Happy (23.0/1.0)
|   |   |   |   |   |   |   |   |   |   |   |   |   |   |   |   |   |   |   |   |   Column1276 > 216
|   |   |   |   |   |   |   |   |   |   |   |   |   |   |   |   |   |   |   |   |   |   Column1348 <= 191: NotHappy (21.0)
|   |   |   |   |   |   |   |   |   |   |   |   |   |   |   |   |   |   |   |   |   |   Column1348 > 191: Happy (3.0)
|   |   |   |   |   |   |   |   |   |   |   |   |   |   |   Column1597 > 196
|   |   |   |   |   |   |   |   |   |   |   |   |   |   |   |   Column1260 <= 213
|   |   |   |   |   |   |   |   |   |   |   |   |   |   |   |   |   Column1217 <= 187
|   |   |   |   |   |   |   |   |   |   |   |   |   |   |   |   |   |   Column1794 <= 205
|   |   |   |   |   |   |   |   |   |   |   |   |   |   |   |   |   |   |   Column1548 <= 188: Happy (2.0)
|   |   |   |   |   |   |   |   |   |   |   |   |   |   |   |   |   |   |   Column1548 > 188
|   |   |   |   |   |   |   |   |   |   |   |   |   |   |   |   |   |   |   |   Column1024 <= 200: NotHappy (29.0)
|   |   |   |   |   |   |   |   |   |   |   |   |   |   |   |   |   |   |   |   Column1024 > 200: Happy (2.0)
|   |   |   |   |   |   |   |   |   |   |   |   |   |   |   |   |   |   Column1794 > 205: Happy (3.0)
|   |   |   |   |   |   |   |   |   |   |   |   |   |   |   |   |   Column1217 > 187: NotHappy (53.0)
|   |   |   |   |   |   |   |   |   |   |   |   |   |   |   |   Column1260 > 213
|   |   |   |   |   |   |   |   |   |   |   |   |   |   |   |   |   Column788 <= 193
|   |   |   |   |   |   |   |   |   |   |   |   |   |   |   |   |   |   Column1708 <= 173
|   |   |   |   |   |   |   |   |   |   |   |   |   |   |   |   |   |   |   Column1550 <= 169: Happy (2.0)
|   |   |   |   |   |   |   |   |   |   |   |   |   |   |   |   |   |   |   Column1550 > 169: NotHappy (20.0)
|   |   |   |   |   |   |   |   |   |   |   |   |   |   |   |   |   |   Column1708 > 173: Happy (5.0)
|   |   |   |   |   |   |   |   |   |   |   |   |   |   |   |   |   Column788 > 193: Happy (10.0)
|   |   |   |   |   |   |   |   |   |   |   |   |   |   Column1018 > 230
|   |   |   |   |   |   |   |   |   |   |   |   |   |   |   Column1799 <= 178: NotHappy (33.0)
|   |   |   |   |   |   |   |   |   |   |   |   |   |   |   Column1799 > 178: Happy (4.0/1.0)
|   |   |   |   |   |   |   |   |   |   |   Column221 > 231
|   |   |   |   |   |   |   |   |   |   |   |   Column418 <= 128: NotHappy (5.0)
|   |   |   |   |   |   |   |   |   |   |   |   Column418 > 128
|   |   |   |   |   |   |   |   |   |   |   |   |   Column1524 <= 205: Happy (30.0/1.0)
|   |   |   |   |   |   |   |   |   |   |   |   |   Column1524 > 205: NotHappy (7.0/1.0)
|   |   |   |   |   |   |   |   |   |   Column832 > 221
|   |   |   |   |   |   |   |   |   |   |   Column2039 <= 196: NotHappy (39.0)
|   |   |   |   |   |   |   |   |   |   |   Column2039 > 196
|   |   |   |   |   |   |   |   |   |   |   |   Column927 <= 228: Happy (5.0)
|   |   |   |   |   |   |   |   |   |   |   |   Column927 > 228: NotHappy (4.0)
|   |   |   |   |   |   |   |   |   Column1618 > 171
|   |   |   |   |   |   |   |   |   |   Column1310 <= 232
|   |   |   |   |   |   |   |   |   |   |   Column1523 <= 136
|   |   |   |   |   |   |   |   |   |   |   |   Column1183 <= 217
|   |   |   |   |   |   |   |   |   |   |   |   |   Column1565 <= 184
|   |   |   |   |   |   |   |   |   |   |   |   |   |   Column1667 <= 186
|   |   |   |   |   |   |   |   |   |   |   |   |   |   |   Column1428 <= 170
|   |   |   |   |   |   |   |   |   |   |   |   |   |   |   |   Column780 <= 58: NotHappy (2.0)
|   |   |   |   |   |   |   |   |   |   |   |   |   |   |   |   Column780 > 58: Happy (13.0)
|   |   |   |   |   |   |   |   |   |   |   |   |   |   |   Column1428 > 170: NotHappy (4.0)
|   |   |   |   |   |   |   |   |   |   |   |   |   |   Column1667 > 186: NotHappy (7.0)
|   |   |   |   |   |   |   |   |   |   |   |   |   Column1565 > 184: Happy (12.0)
|   |   |   |   |   |   |   |   |   |   |   |   Column1183 > 217: NotHappy (8.0)
|   |   |   |   |   |   |   |   |   |   |   Column1523 > 136
|   |   |   |   |   |   |   |   |   |   |   |   Column1317 <= 74: NotHappy (43.0)
|   |   |   |   |   |   |   |   |   |   |   |   Column1317 > 74
|   |   |   |   |   |   |   |   |   |   |   |   |   Column499 <= 47: NotHappy (40.0)
|   |   |   |   |   |   |   |   |   |   |   |   |   Column499 > 47
|   |   |   |   |   |   |   |   |   |   |   |   |   |   Column1943 <= 88: NotHappy (48.0)
|   |   |   |   |   |   |   |   |   |   |   |   |   |   Column1943 > 88
|   |   |   |   |   |   |   |   |   |   |   |   |   |   |   Column1415 <= 228
|   |   |   |   |   |   |   |   |   |   |   |   |   |   |   |   Column1020 <= 219
|   |   |   |   |   |   |   |   |   |   |   |   |   |   |   |   |   Column1330 <= 234
|   |   |   |   |   |   |   |   |   |   |   |   |   |   |   |   |   |   Column1235 <= 231
|   |   |   |   |   |   |   |   |   |   |   |   |   |   |   |   |   |   |   Column1815 <= 231
|   |   |   |   |   |   |   |   |   |   |   |   |   |   |   |   |   |   |   |   Column1476 <= 160
|   |   |   |   |   |   |   |   |   |   |   |   |   |   |   |   |   |   |   |   |   Column1899 <= 132
|   |   |   |   |   |   |   |   |   |   |   |   |   |   |   |   |   |   |   |   |   |   Column1224 <= 97: Happy (2.0)
|   |   |   |   |   |   |   |   |   |   |   |   |   |   |   |   |   |   |   |   |   |   Column1224 > 97: NotHappy (22.0)
|   |   |   |   |   |   |   |   |   |   |   |   |   |   |   |   |   |   |   |   |   Column1899 > 132
|   |   |   |   |   |   |   |   |   |   |   |   |   |   |   |   |   |   |   |   |   |   Column1750 <= 200
|   |   |   |   |   |   |   |   |   |   |   |   |   |   |   |   |   |   |   |   |   |   |   Column1183 <= 149: NotHappy (9.0/1.0)
|   |   |   |   |   |   |   |   |   |   |   |   |   |   |   |   |   |   |   |   |   |   |   Column1183 > 149
|   |   |   |   |   |   |   |   |   |   |   |   |   |   |   |   |   |   |   |   |   |   |   |   Column1 <= 252
|   |   |   |   |   |   |   |   |   |   |   |   |   |   |   |   |   |   |   |   |   |   |   |   |   Column706 <= 111: NotHappy (6.0/1.0)
|   |   |   |   |   |   |   |   |   |   |   |   |   |   |   |   |   |   |   |   |   |   |   |   |   Column706 > 111
|   |   |   |   |   |   |   |   |   |   |   |   |   |   |   |   |   |   |   |   |   |   |   |   |   |   Column1755 <= 110
|   |   |   |   |   |   |   |   |   |   |   |   |   |   |   |   |   |   |   |   |   |   |   |   |   |   |   Column3 <= 58: Happy (2.0)
|   |   |   |   |   |   |   |   |   |   |   |   |   |   |   |   |   |   |   |   |   |   |   |   |   |   |   Column3 > 58: NotHappy (2.0)
|   |   |   |   |   |   |   |   |   |   |   |   |   |   |   |   |   |   |   |   |   |   |   |   |   |   Column1755 > 110: Happy (28.0)
|   |   |   |   |   |   |   |   |   |   |   |   |   |   |   |   |   |   |   |   |   |   |   |   Column1 > 252: NotHappy (4.0)
|   |   |   |   |   |   |   |   |   |   |   |   |   |   |   |   |   |   |   |   |   |   Column1750 > 200: NotHappy (7.0)
|   |   |   |   |   |   |   |   |   |   |   |   |   |   |   |   |   |   |   |   Column1476 > 160
|   |   |   |   |   |   |   |   |   |   |   |   |   |   |   |   |   |   |   |   |   Column1849 <= 154
|   |   |   |   |   |   |   |   |   |   |   |   |   |   |   |   |   |   |   |   |   |   Column355 <= 81
|   |   |   |   |   |   |   |   |   |   |   |   |   |   |   |   |   |   |   |   |   |   |   Column642 <= 136
|   |   |   |   |   |   |   |   |   |   |   |   |   |   |   |   |   |   |   |   |   |   |   |   Column1858 <= 143: Happy (2.0)
|   |   |   |   |   |   |   |   |   |   |   |   |   |   |   |   |   |   |   |   |   |   |   |   Column1858 > 143: NotHappy (13.0)
|   |   |   |   |   |   |   |   |   |   |   |   |   |   |   |   |   |   |   |   |   |   |   Column642 > 136: Happy (8.0)
|   |   |   |   |   |   |   |   |   |   |   |   |   |   |   |   |   |   |   |   |   |   Column355 > 81
|   |   |   |   |   |   |   |   |   |   |   |   |   |   |   |   |   |   |   |   |   |   |   Column1991 <= 195
|   |   |   |   |   |   |   |   |   |   |   |   |   |   |   |   |   |   |   |   |   |   |   |   Column1021 <= 138: NotHappy (130.0)
|   |   |   |   |   |   |   |   |   |   |   |   |   |   |   |   |   |   |   |   |   |   |   |   Column1021 > 138
|   |   |   |   |   |   |   |   |   |   |   |   |   |   |   |   |   |   |   |   |   |   |   |   |   Column1938 <= 137
|   |   |   |   |   |   |   |   |   |   |   |   |   |   |   |   |   |   |   |   |   |   |   |   |   |   Column1986 <= 126: NotHappy (30.0)
|   |   |   |   |   |   |   |   |   |   |   |   |   |   |   |   |   |   |   |   |   |   |   |   |   |   Column1986 > 126
|   |   |   |   |   |   |   |   |   |   |   |   |   |   |   |   |   |   |   |   |   |   |   |   |   |   |   Column1702 <= 133: NotHappy (9.0)
|   |   |   |   |   |   |   |   |   |   |   |   |   |   |   |   |   |   |   |   |   |   |   |   |   |   |   Column1702 > 133
|   |   |   |   |   |   |   |   |   |   |   |   |   |   |   |   |   |   |   |   |   |   |   |   |   |   |   |   Column589 <= 132: NotHappy (6.0/1.0)
|   |   |   |   |   |   |   |   |   |   |   |   |   |   |   |   |   |   |   |   |   |   |   |   |   |   |   |   Column589 > 132: Happy (12.0)
|   |   |   |   |   |   |   |   |   |   |   |   |   |   |   |   |   |   |   |   |   |   |   |   |   Column1938 > 137
|   |   |   |   |   |   |   |   |   |   |   |   |   |   |   |   |   |   |   |   |   |   |   |   |   |   Column153 <= 36
|   |   |   |   |   |   |   |   |   |   |   |   |   |   |   |   |   |   |   |   |   |   |   |   |   |   |   Column1503 <= 178: Happy (4.0/1.0)
|   |   |   |   |   |   |   |   |   |   |   |   |   |   |   |   |   |   |   |   |   |   |   |   |   |   |   Column1503 > 178: NotHappy (10.0)
|   |   |   |   |   |   |   |   |   |   |   |   |   |   |   |   |   |   |   |   |   |   |   |   |   |   Column153 > 36: NotHappy (109.0)
|   |   |   |   |   |   |   |   |   |   |   |   |   |   |   |   |   |   |   |   |   |   |   Column1991 > 195
|   |   |   |   |   |   |   |   |   |   |   |   |   |   |   |   |   |   |   |   |   |   |   |   Column1744 <= 166
|   |   |   |   |   |   |   |   |   |   |   |   |   |   |   |   |   |   |   |   |   |   |   |   |   Column589 <= 120: NotHappy (3.0)
|   |   |   |   |   |   |   |   |   |   |   |   |   |   |   |   |   |   |   |   |   |   |   |   |   Column589 > 120: Happy (10.0)
|   |   |   |   |   |   |   |   |   |   |   |   |   |   |   |   |   |   |   |   |   |   |   |   Column1744 > 166: NotHappy (17.0)
|   |   |   |   |   |   |   |   |   |   |   |   |   |   |   |   |   |   |   |   |   Column1849 > 154
|   |   |   |   |   |   |   |   |   |   |   |   |   |   |   |   |   |   |   |   |   |   Column1618 <= 181
|   |   |   |   |   |   |   |   |   |   |   |   |   |   |   |   |   |   |   |   |   |   |   Column585 <= 38: Happy (9.0)
|   |   |   |   |   |   |   |   |   |   |   |   |   |   |   |   |   |   |   |   |   |   |   Column585 > 38
|   |   |   |   |   |   |   |   |   |   |   |   |   |   |   |   |   |   |   |   |   |   |   |   Column1279 <= 222
|   |   |   |   |   |   |   |   |   |   |   |   |   |   |   |   |   |   |   |   |   |   |   |   |   Column1194 <= 51: Happy (6.0)
|   |   |   |   |   |   |   |   |   |   |   |   |   |   |   |   |   |   |   |   |   |   |   |   |   Column1194 > 51
|   |   |   |   |   |   |   |   |   |   |   |   |   |   |   |   |   |   |   |   |   |   |   |   |   |   Column2001 <= 120: NotHappy (19.0)
|   |   |   |   |   |   |   |   |   |   |   |   |   |   |   |   |   |   |   |   |   |   |   |   |   |   Column2001 > 120
|   |   |   |   |   |   |   |   |   |   |   |   |   |   |   |   |   |   |   |   |   |   |   |   |   |   |   Column1606 <= 198
|   |   |   |   |   |   |   |   |   |   |   |   |   |   |   |   |   |   |   |   |   |   |   |   |   |   |   |   Column745 <= 207
|   |   |   |   |   |   |   |   |   |   |   |   |   |   |   |   |   |   |   |   |   |   |   |   |   |   |   |   |   Column1227 <= 161: Happy (6.0)
|   |   |   |   |   |   |   |   |   |   |   |   |   |   |   |   |   |   |   |   |   |   |   |   |   |   |   |   |   Column1227 > 161
|   |   |   |   |   |   |   |   |   |   |   |   |   |   |   |   |   |   |   |   |   |   |   |   |   |   |   |   |   |   Column852 <= 33: Happy (5.0)
|   |   |   |   |   |   |   |   |   |   |   |   |   |   |   |   |   |   |   |   |   |   |   |   |   |   |   |   |   |   Column852 > 33
|   |   |   |   |   |   |   |   |   |   |   |   |   |   |   |   |   |   |   |   |   |   |   |   |   |   |   |   |   |   |   Column1619 <= 167
|   |   |   |   |   |   |   |   |   |   |   |   |   |   |   |   |   |   |   |   |   |   |   |   |   |   |   |   |   |   |   |   Column861 <= 75: NotHappy (2.0)
|   |   |   |   |   |   |   |   |   |   |   |   |   |   |   |   |   |   |   |   |   |   |   |   |   |   |   |   |   |   |   |   Column861 > 75: Happy (6.0)
|   |   |   |   |   |   |   |   |   |   |   |   |   |   |   |   |   |   |   |   |   |   |   |   |   |   |   |   |   |   |   Column1619 > 167
|   |   |   |   |   |   |   |   |   |   |   |   |   |   |   |   |   |   |   |   |   |   |   |   |   |   |   |   |   |   |   |   Column1092 <= 174
|   |   |   |   |   |   |   |   |   |   |   |   |   |   |   |   |   |   |   |   |   |   |   |   |   |   |   |   |   |   |   |   |   Column2044 <= 175: NotHappy (10.0/1.0)
|   |   |   |   |   |   |   |   |   |   |   |   |   |   |   |   |   |   |   |   |   |   |   |   |   |   |   |   |   |   |   |   |   Column2044 > 175: Happy (5.0)
|   |   |   |   |   |   |   |   |   |   |   |   |   |   |   |   |   |   |   |   |   |   |   |   |   |   |   |   |   |   |   |   Column1092 > 174: NotHappy (25.0)
|   |   |   |   |   |   |   |   |   |   |   |   |   |   |   |   |   |   |   |   |   |   |   |   |   |   |   |   Column745 > 207: Happy (8.0)
|   |   |   |   |   |   |   |   |   |   |   |   |   |   |   |   |   |   |   |   |   |   |   |   |   |   |   Column1606 > 198: NotHappy (15.0)
|   |   |   |   |   |   |   |   |   |   |   |   |   |   |   |   |   |   |   |   |   |   |   |   Column1279 > 222: Happy (6.0)
|   |   |   |   |   |   |   |   |   |   |   |   |   |   |   |   |   |   |   |   |   |   Column1618 > 181
|   |   |   |   |   |   |   |   |   |   |   |   |   |   |   |   |   |   |   |   |   |   |   Column846 <= 145
|   |   |   |   |   |   |   |   |   |   |   |   |   |   |   |   |   |   |   |   |   |   |   |   Column1472 <= 148
|   |   |   |   |   |   |   |   |   |   |   |   |   |   |   |   |   |   |   |   |   |   |   |   |   Column806 <= 158: NotHappy (3.0)
|   |   |   |   |   |   |   |   |   |   |   |   |   |   |   |   |   |   |   |   |   |   |   |   |   Column806 > 158: Happy (4.0)
|   |   |   |   |   |   |   |   |   |   |   |   |   |   |   |   |   |   |   |   |   |   |   |   Column1472 > 148
|   |   |   |   |   |   |   |   |   |   |   |   |   |   |   |   |   |   |   |   |   |   |   |   |   Column898 <= 171: NotHappy (97.0)
|   |   |   |   |   |   |   |   |   |   |   |   |   |   |   |   |   |   |   |   |   |   |   |   |   Column898 > 171
|   |   |   |   |   |   |   |   |   |   |   |   |   |   |   |   |   |   |   |   |   |   |   |   |   |   Column1203 <= 36: Happy (3.0)
|   |   |   |   |   |   |   |   |   |   |   |   |   |   |   |   |   |   |   |   |   |   |   |   |   |   Column1203 > 36: NotHappy (17.0/1.0)
|   |   |   |   |   |   |   |   |   |   |   |   |   |   |   |   |   |   |   |   |   |   |   Column846 > 145
|   |   |   |   |   |   |   |   |   |   |   |   |   |   |   |   |   |   |   |   |   |   |   |   Column1457 <= 176
|   |   |   |   |   |   |   |   |   |   |   |   |   |   |   |   |   |   |   |   |   |   |   |   |   Column1989 <= 190
|   |   |   |   |   |   |   |   |   |   |   |   |   |   |   |   |   |   |   |   |   |   |   |   |   |   Column2214 <= 17: Happy (6.0)
|   |   |   |   |   |   |   |   |   |   |   |   |   |   |   |   |   |   |   |   |   |   |   |   |   |   Column2214 > 17
|   |   |   |   |   |   |   |   |   |   |   |   |   |   |   |   |   |   |   |   |   |   |   |   |   |   |   Column2184 <= 211
|   |   |   |   |   |   |   |   |   |   |   |   |   |   |   |   |   |   |   |   |   |   |   |   |   |   |   |   Column2241 <= 185
|   |   |   |   |   |   |   |   |   |   |   |   |   |   |   |   |   |   |   |   |   |   |   |   |   |   |   |   |   Column1332 <= 161: Happy (5.0)
|   |   |   |   |   |   |   |   |   |   |   |   |   |   |   |   |   |   |   |   |   |   |   |   |   |   |   |   |   Column1332 > 161
|   |   |   |   |   |   |   |   |   |   |   |   |   |   |   |   |   |   |   |   |   |   |   |   |   |   |   |   |   |   Column411 <= 220
|   |   |   |   |   |   |   |   |   |   |   |   |   |   |   |   |   |   |   |   |   |   |   |   |   |   |   |   |   |   |   Column2085 <= 187
|   |   |   |   |   |   |   |   |   |   |   |   |   |   |   |   |   |   |   |   |   |   |   |   |   |   |   |   |   |   |   |   Column606 <= 95: Happy (2.0)
|   |   |   |   |   |   |   |   |   |   |   |   |   |   |   |   |   |   |   |   |   |   |   |   |   |   |   |   |   |   |   |   Column606 > 95
|   |   |   |   |   |   |   |   |   |   |   |   |   |   |   |   |   |   |   |   |   |   |   |   |   |   |   |   |   |   |   |   |   Column1359 <= 191: NotHappy (28.0)
|   |   |   |   |   |   |   |   |   |   |   |   |   |   |   |   |   |   |   |   |   |   |   |   |   |   |   |   |   |   |   |   |   Column1359 > 191: Happy (3.0/1.0)
|   |   |   |   |   |   |   |   |   |   |   |   |   |   |   |   |   |   |   |   |   |   |   |   |   |   |   |   |   |   |   Column2085 > 187: Happy (3.0)
|   |   |   |   |   |   |   |   |   |   |   |   |   |   |   |   |   |   |   |   |   |   |   |   |   |   |   |   |   |   Column411 > 220: Happy (5.0)
|   |   |   |   |   |   |   |   |   |   |   |   |   |   |   |   |   |   |   |   |   |   |   |   |   |   |   |   Column2241 > 185: NotHappy (22.0)
|   |   |   |   |   |   |   |   |   |   |   |   |   |   |   |   |   |   |   |   |   |   |   |   |   |   |   Column2184 > 211: Happy (5.0)
|   |   |   |   |   |   |   |   |   |   |   |   |   |   |   |   |   |   |   |   |   |   |   |   |   Column1989 > 190: Happy (14.0)
|   |   |   |   |   |   |   |   |   |   |   |   |   |   |   |   |   |   |   |   |   |   |   |   Column1457 > 176
|   |   |   |   |   |   |   |   |   |   |   |   |   |   |   |   |   |   |   |   |   |   |   |   |   Column1075 <= 178: NotHappy (42.0)
|   |   |   |   |   |   |   |   |   |   |   |   |   |   |   |   |   |   |   |   |   |   |   |   |   Column1075 > 178
|   |   |   |   |   |   |   |   |   |   |   |   |   |   |   |   |   |   |   |   |   |   |   |   |   |   Column1355 <= 117
|   |   |   |   |   |   |   |   |   |   |   |   |   |   |   |   |   |   |   |   |   |   |   |   |   |   |   Column704 <= 110: NotHappy (2.0)
|   |   |   |   |   |   |   |   |   |   |   |   |   |   |   |   |   |   |   |   |   |   |   |   |   |   |   Column704 > 110: Happy (8.0)
|   |   |   |   |   |   |   |   |   |   |   |   |   |   |   |   |   |   |   |   |   |   |   |   |   |   Column1355 > 117
|   |   |   |   |   |   |   |   |   |   |   |   |   |   |   |   |   |   |   |   |   |   |   |   |   |   |   Column830 <= 126: NotHappy (38.0)
|   |   |   |   |   |   |   |   |   |   |   |   |   |   |   |   |   |   |   |   |   |   |   |   |   |   |   Column830 > 126
|   |   |   |   |   |   |   |   |   |   |   |   |   |   |   |   |   |   |   |   |   |   |   |   |   |   |   |   Column988 <= 152: Happy (5.0)
|   |   |   |   |   |   |   |   |   |   |   |   |   |   |   |   |   |   |   |   |   |   |   |   |   |   |   |   Column988 > 152
|   |   |   |   |   |   |   |   |   |   |   |   |   |   |   |   |   |   |   |   |   |   |   |   |   |   |   |   |   Column826 <= 210
|   |   |   |   |   |   |   |   |   |   |   |   |   |   |   |   |   |   |   |   |   |   |   |   |   |   |   |   |   |   Column1709 <= 197
|   |   |   |   |   |   |   |   |   |   |   |   |   |   |   |   |   |   |   |   |   |   |   |   |   |   |   |   |   |   |   Column2278 <= 203
|   |   |   |   |   |   |   |   |   |   |   |   |   |   |   |   |   |   |   |   |   |   |   |   |   |   |   |   |   |   |   |   Column360 <= 228
|   |   |   |   |   |   |   |   |   |   |   |   |   |   |   |   |   |   |   |   |   |   |   |   |   |   |   |   |   |   |   |   |   Column694 <= 131: Happy (2.0)
|   |   |   |   |   |   |   |   |   |   |   |   |   |   |   |   |   |   |   |   |   |   |   |   |   |   |   |   |   |   |   |   |   Column694 > 131: NotHappy (23.0)
|   |   |   |   |   |   |   |   |   |   |   |   |   |   |   |   |   |   |   |   |   |   |   |   |   |   |   |   |   |   |   |   Column360 > 228: Happy (3.0)
|   |   |   |   |   |   |   |   |   |   |   |   |   |   |   |   |   |   |   |   |   |   |   |   |   |   |   |   |   |   |   Column2278 > 203: Happy (5.0)
|   |   |   |   |   |   |   |   |   |   |   |   |   |   |   |   |   |   |   |   |   |   |   |   |   |   |   |   |   |   Column1709 > 197: NotHappy (30.0)
|   |   |   |   |   |   |   |   |   |   |   |   |   |   |   |   |   |   |   |   |   |   |   |   |   |   |   |   |   Column826 > 210: Happy (4.0)
|   |   |   |   |   |   |   |   |   |   |   |   |   |   |   |   |   |   |   Column1815 > 231: NotHappy (37.0)
|   |   |   |   |   |   |   |   |   |   |   |   |   |   |   |   |   |   Column1235 > 231
|   |   |   |   |   |   |   |   |   |   |   |   |   |   |   |   |   |   |   Column672 <= 72: NotHappy (6.0)
|   |   |   |   |   |   |   |   |   |   |   |   |   |   |   |   |   |   |   Column672 > 72
|   |   |   |   |   |   |   |   |   |   |   |   |   |   |   |   |   |   |   |   Column2145 <= 165: NotHappy (4.0)
|   |   |   |   |   |   |   |   |   |   |   |   |   |   |   |   |   |   |   |   Column2145 > 165: Happy (17.0/1.0)
|   |   |   |   |   |   |   |   |   |   |   |   |   |   |   |   |   Column1330 > 234: NotHappy (32.0)
|   |   |   |   |   |   |   |   |   |   |   |   |   |   |   |   Column1020 > 219
|   |   |   |   |   |   |   |   |   |   |   |   |   |   |   |   |   Column1452 <= 169: Happy (11.0)
|   |   |   |   |   |   |   |   |   |   |   |   |   |   |   |   |   Column1452 > 169
|   |   |   |   |   |   |   |   |   |   |   |   |   |   |   |   |   |   Column882 <= 140: Happy (7.0)
|   |   |   |   |   |   |   |   |   |   |   |   |   |   |   |   |   |   Column882 > 140
|   |   |   |   |   |   |   |   |   |   |   |   |   |   |   |   |   |   |   Column921 <= 235: NotHappy (19.0)
|   |   |   |   |   |   |   |   |   |   |   |   |   |   |   |   |   |   |   Column921 > 235: Happy (3.0)
|   |   |   |   |   |   |   |   |   |   |   |   |   |   |   Column1415 > 228: NotHappy (30.0)
|   |   |   |   |   |   |   |   |   |   Column1310 > 232
|   |   |   |   |   |   |   |   |   |   |   Column663 <= 136: NotHappy (6.0)
|   |   |   |   |   |   |   |   |   |   |   Column663 > 136
|   |   |   |   |   |   |   |   |   |   |   |   Column1690 <= 212: Happy (16.0)
|   |   |   |   |   |   |   |   |   |   |   |   Column1690 > 212: NotHappy (4.0/1.0)
|   |   |   |   |   |   |   |   Column1899 > 228
|   |   |   |   |   |   |   |   |   Column918 <= 39: NotHappy (9.0)
|   |   |   |   |   |   |   |   |   Column918 > 39
|   |   |   |   |   |   |   |   |   |   Column1994 <= 236
|   |   |   |   |   |   |   |   |   |   |   Column689 <= 58: NotHappy (4.0)
|   |   |   |   |   |   |   |   |   |   |   Column689 > 58
|   |   |   |   |   |   |   |   |   |   |   |   Column437 <= 124: Happy (32.0)
|   |   |   |   |   |   |   |   |   |   |   |   Column437 > 124
|   |   |   |   |   |   |   |   |   |   |   |   |   Column487 <= 172: NotHappy (6.0)
|   |   |   |   |   |   |   |   |   |   |   |   |   Column487 > 172
|   |   |   |   |   |   |   |   |   |   |   |   |   |   Column949 <= 126: NotHappy (2.0)
|   |   |   |   |   |   |   |   |   |   |   |   |   |   Column949 > 126: Happy (13.0)
|   |   |   |   |   |   |   |   |   |   Column1994 > 236: NotHappy (6.0)
|   |   |   |   |   |   Column1799 > 229
|   |   |   |   |   |   |   Column1947 <= 234
|   |   |   |   |   |   |   |   Column899 <= 173: Happy (25.0)
|   |   |   |   |   |   |   |   Column899 > 173
|   |   |   |   |   |   |   |   |   Column1223 <= 225: NotHappy (8.0)
|   |   |   |   |   |   |   |   |   Column1223 > 225: Happy (7.0)
|   |   |   |   |   |   |   Column1947 > 234: NotHappy (5.0)
|   |   |   |   |   Column1751 > 227
|   |   |   |   |   |   Column2136 <= 238
|   |   |   |   |   |   |   Column2137 <= 120: NotHappy (7.0)
|   |   |   |   |   |   |   Column2137 > 120
|   |   |   |   |   |   |   |   Column506 <= 60: NotHappy (5.0)
|   |   |   |   |   |   |   |   Column506 > 60
|   |   |   |   |   |   |   |   |   Column334 <= 48: Happy (20.0)
|   |   |   |   |   |   |   |   |   Column334 > 48
|   |   |   |   |   |   |   |   |   |   Column1947 <= 130: NotHappy (9.0/1.0)
|   |   |   |   |   |   |   |   |   |   Column1947 > 130
|   |   |   |   |   |   |   |   |   |   |   Column547 <= 209: Happy (33.0/1.0)
|   |   |   |   |   |   |   |   |   |   |   Column547 > 209
|   |   |   |   |   |   |   |   |   |   |   |   Column2071 <= 197: NotHappy (12.0)
|   |   |   |   |   |   |   |   |   |   |   |   Column2071 > 197: Happy (9.0/1.0)
|   |   |   |   |   |   Column2136 > 238: NotHappy (8.0)
|   |   Column1645 > 209
|   |   |   Column588 <= 75: NotHappy (54.0)
|   |   |   Column588 > 75
|   |   |   |   Column1755 <= 166
|   |   |   |   |   Column1401 <= 93
|   |   |   |   |   |   Column2187 <= 128: Happy (7.0)
|   |   |   |   |   |   Column2187 > 128: NotHappy (6.0)
|   |   |   |   |   Column1401 > 93
|   |   |   |   |   |   Column437 <= 168: NotHappy (110.0)
|   |   |   |   |   |   Column437 > 168
|   |   |   |   |   |   |   Column928 <= 88
|   |   |   |   |   |   |   |   Column1043 <= 136: Happy (6.0)
|   |   |   |   |   |   |   |   Column1043 > 136: NotHappy (10.0/1.0)
|   |   |   |   |   |   |   Column928 > 88
|   |   |   |   |   |   |   |   Column1223 <= 238
|   |   |   |   |   |   |   |   |   Column1757 <= 168: NotHappy (74.0)
|   |   |   |   |   |   |   |   |   Column1757 > 168
|   |   |   |   |   |   |   |   |   |   Column822 <= 208: NotHappy (11.0)
|   |   |   |   |   |   |   |   |   |   Column822 > 208: Happy (3.0)
|   |   |   |   |   |   |   |   Column1223 > 238
|   |   |   |   |   |   |   |   |   Column98 <= 154: Happy (3.0)
|   |   |   |   |   |   |   |   |   Column98 > 154: NotHappy (2.0)
|   |   |   |   Column1755 > 166
|   |   |   |   |   Column1894 <= 133: NotHappy (32.0)
|   |   |   |   |   Column1894 > 133
|   |   |   |   |   |   Column1650 <= 194
|   |   |   |   |   |   |   Column1520 <= 223
|   |   |   |   |   |   |   |   Column873 <= 209
|   |   |   |   |   |   |   |   |   Column1915 <= 38: Happy (7.0)
|   |   |   |   |   |   |   |   |   Column1915 > 38
|   |   |   |   |   |   |   |   |   |   Column1750 <= 162
|   |   |   |   |   |   |   |   |   |   |   Column637 <= 126: NotHappy (2.0)
|   |   |   |   |   |   |   |   |   |   |   Column637 > 126: Happy (7.0)
|   |   |   |   |   |   |   |   |   |   Column1750 > 162
|   |   |   |   |   |   |   |   |   |   |   Column1271 <= 219: NotHappy (22.0)
|   |   |   |   |   |   |   |   |   |   |   Column1271 > 219: Happy (2.0)
|   |   |   |   |   |   |   |   Column873 > 209: Happy (19.0)
|   |   |   |   |   |   |   Column1520 > 223: NotHappy (10.0)
|   |   |   |   |   |   Column1650 > 194
|   |   |   |   |   |   |   Column639 <= 228
|   |   |   |   |   |   |   |   Column1866 <= 18
|   |   |   |   |   |   |   |   |   Column57 <= 34: NotHappy (2.0)
|   |   |   |   |   |   |   |   |   Column57 > 34: Happy (5.0)
|   |   |   |   |   |   |   |   Column1866 > 18
|   |   |   |   |   |   |   |   |   Column882 <= 232
|   |   |   |   |   |   |   |   |   |   Column2 <= 74
|   |   |   |   |   |   |   |   |   |   |   Column1703 <= 241
|   |   |   |   |   |   |   |   |   |   |   |   Column1174 <= 165: Happy (2.0)
|   |   |   |   |   |   |   |   |   |   |   |   Column1174 > 165: NotHappy (34.0/1.0)
|   |   |   |   |   |   |   |   |   |   |   Column1703 > 241: Happy (2.0)
|   |   |   |   |   |   |   |   |   |   Column2 > 74: NotHappy (77.0)
|   |   |   |   |   |   |   |   |   Column882 > 232
|   |   |   |   |   |   |   |   |   |   Column757 <= 223: Happy (5.0)
|   |   |   |   |   |   |   |   |   |   Column757 > 223: NotHappy (6.0)
|   |   |   |   |   |   |   Column639 > 228
|   |   |   |   |   |   |   |   Column1409 <= 242
|   |   |   |   |   |   |   |   |   Column2114 <= 51: NotHappy (4.0)
|   |   |   |   |   |   |   |   |   Column2114 > 51
|   |   |   |   |   |   |   |   |   |   Column1399 <= 194: NotHappy (3.0/1.0)
|   |   |   |   |   |   |   |   |   |   Column1399 > 194: Happy (14.0)
|   |   |   |   |   |   |   |   Column1409 > 242: NotHappy (9.0)

Number of Leaves  : 	473

Size of the tree : 	945


Time taken to build model: 50.83 seconds

=== Stratified cross-validation ===
=== Summary ===

Correctly Classified Instances        5073               68.5633 %
Incorrectly Classified Instances      2326               31.4367 %
Kappa statistic                          0.1845
Mean absolute error                      0.3158
Root mean squared error                  0.5533
Relative absolute error                 82.2314 %
Root relative squared error            126.2656 %
Total Number of Instances             7399     

=== Detailed Accuracy By Class ===

                 TP Rate  FP Rate  Precision  Recall   F-Measure  MCC      ROC Area  PRC Area  Class
